tree
version=v4
num_class=1
num_tree_per_iteration=1
label_index=0
max_feature_idx=79
objective=huber
feature_names=CB_Consumer_Confidence_chg_3m_lag_3m CCNSA_max_spike_diff CCNSA_max_spike_pct_chg_rolling_mean_3m CCNSA_max_spike_pct_chg_rolling_std_6m_lag_3m CCNSA_monthly_avg_diff_zscore_3m_lag_1m CCSA_max_spike_pct_chg_rolling_mean_3m CCSA_monthly_avg_diff Challenger_Job_Cuts_diff_lag_3m FedFunds_implied_rate_chg_3m FedFunds_implied_rate_pct_chg FedFunds_log_return_diff_lag_1m FedFunds_log_return_lag_1m Financial_Stress_monthly_min_diff ISM_NonManufacturing_Index_diff_zscore_3m_lag_6m JPY_USD_realized_vol_chg_3m_lag_1m NFP_Consensus_Mean NFP_Forecast_CONTINUUM_ECON_chg_6m NFP_Forecast_CONTINUUM_ECON_rolling_mean_3m NOAA_Human_Impact_Index_chg_3m_lag_12m NOAA_Human_Impact_Index_chg_3m_lag_3m Treasury_10Y_implied_rate_pct_chg_lag_12m nfp_nsa_accel_lag6 nfp_nsa_accel_rolling_12m nfp_nsa_accel_vol_3m nfp_nsa_mom_abs_lag1 nfp_nsa_mom_lag12 nfp_nsa_mom_lag6 nfp_nsa_mom_vol_3m rev_master_mean total_government_federal_except_postal_nsa_diff_lag_6m total_government_federal_except_postal_nsa_rolling_mean_3m_lag_6m total_government_federal_postal_nsa total_government_local_education_nsa_lag_3m total_government_local_excluding_education_nsa_chg_3m_lag_12m total_government_local_excluding_education_nsa_chg_3m_lag_6m total_government_local_excluding_education_nsa_diff_lag_1m total_government_local_excluding_education_nsa_diff_zscore_3m_lag_1m total_government_state_education_nsa_chg_3m_lag_6m total_private_goods_construction_buildings_residential_nsa_rolling_std_6m_lag_6m total_private_goods_construction_heavy_civil_nsa_diff_lag_12m total_private_goods_construction_nsa_pct_chg_lag_3m total_private_goods_manufacturing_durable_computer_electronic_nsa_chg_3m total_private_goods_manufacturing_durable_machinery_nsa_chg_3m_lag_12m total_private_goods_manufacturing_durable_nonmetallic_nsa_lag_12m total_private_goods_manufacturing_nondurable_chemicals_nsa_chg_3m_lag_12m total_private_goods_manufacturing_nondurable_plastics_rubber_nsa_rolling_mean_3m_lag_3m total_private_goods_manufacturing_nondurable_printing_nsa_rolling_mean_3m_lag_3m total_private_services_education_health_health_social_health_care_hospitals_nsa total_private_services_education_health_health_social_health_care_hospitals_nsa_chg_3m total_private_services_education_health_health_social_health_care_hospitals_nsa_diff total_private_services_education_health_health_social_health_care_hospitals_nsa_rolling_mean_3m total_private_services_education_health_health_social_health_care_nsa_rolling_mean_3m total_private_services_education_health_health_social_health_care_nursing_nsa total_private_services_education_health_health_social_health_care_nursing_nsa_rolling_mean_3m total_private_services_education_health_health_social_health_care_nursing_nsa_rolling_std_6m total_private_services_education_health_health_social_social_assistance_nsa_chg_6m_lag_6m total_private_services_education_health_health_social_social_assistance_nsa_diff_zscore_3m_lag_12m total_private_services_education_health_nsa_rolling_mean_3m_lag_1m total_private_services_financial_finance_insurance_insurance_nsa_rolling_std_6m_lag_12m total_private_services_financial_finance_insurance_nsa_chg_3m_lag_12m total_private_services_financial_finance_insurance_securities_nsa_chg_3m total_private_services_financial_finance_insurance_securities_nsa_diff_lag_12m total_private_services_financial_finance_insurance_securities_nsa_lag_12m total_private_services_information_data_processing_nsa_rolling_mean_3m_lag_3m total_private_services_information_nsa_rolling_mean_3m total_private_services_leisure_hospitality_accommodation_food_accommodation_nsa_chg_3m_lag_6m total_private_services_leisure_hospitality_accommodation_food_nsa_diff_zscore_3m_lag_1m total_private_services_leisure_hospitality_accommodation_food_nsa_rolling_std_6m total_private_services_leisure_hospitality_arts_amusements_nsa_diff_lag_3m total_private_services_leisure_hospitality_nsa_chg_6m total_private_services_professional_business_admin_waste_admin_support_nsa total_private_services_professional_business_professional_technical_accounting_nsa_diff_lag_6m total_private_services_professional_business_professional_technical_accounting_nsa_diff_zscore_3m_lag_3m total_private_services_professional_business_professional_technical_architectural_nsa_rolling_std_6m_lag_1m total_private_services_professional_business_professional_technical_computer_systems_nsa_lag_3m total_private_services_professional_business_professional_technical_nsa_chg_6m_lag_1m total_private_services_professional_business_professional_technical_nsa_diff total_private_services_professional_business_professional_technical_nsa_rolling_mean_3m_lag_1m total_private_services_trade_transportation_utilities_retail_furniture_nsa_chg_3m total_private_services_trade_transportation_utilities_retail_furniture_nsa_chg_6m_lag_6m
feature_infos=[-46.699999999999989:29.499999999999996] [-4022299:1529401] [-21.382585893049377:179.29145808304963] [3.4457680793780083:222.98624583145894] [-1.1546980962025963:1.1544279021157999] [-24.666499381901502:213.95233192957588] [-3668833.333333334:637125] [-274113:448841] [-1.9899999999999949:0.96999999999999886] [-61.383285302593549:62.962962962955935] [-0.0061082548356123922:0.0070520570298846508] [-0.00319780994296881:0.0079846567857231321] [-1.7633000000000001:5.7972999999999999] [-1.1529024051236594:1.1547005383792512] [-0.13902819649964682:0.14035542110650367] [-653:2905] [-565:3615] [-9900:1766.6666666666667] [-6.2059740385457687:5.5272018235313336] [-6.2001775994713064:5.533597712500077] [-388.88888888888886:988.88888888888891] [-3000:4309] [-78.916666666666671:366.33333333333331] [42.217689815232461:4948.0487915372596] [1:5103] [-3570:1224] [-3570:1224] [36.473734842146328:4041.9204774751975] [-8208.5419520689029:10735.00477827653] [-639.099853515625:360.999755859375] [-149.83333333333334:191.03336588541666] [-56.20001220703125:48.5] [-1281.2001953125:1004.5] [-438.89990234375:205.69970703125] [-438.89990234375:206] [-341.7998046875:250.1005859375] [-1.1543984748188796:1.1546888879268387] [-441.7001953125:635.30029296875] [4.2725440489178546:28.329414938068201] [-67.5999755859375:106.5] [-9500:3933.333251953125] [-34.7999267578125:29.300048828125] [-31.7000732421875:20.0999755859375] [-21.100006103515625:15.100006103515625] [-19.9998779296875:12.59991455078125] [-23.70001220703125:7.133341471354167] [-27.466664632161457:5] [-37.69970703125:44] [-69.39990234375:158.2001953125] [-73:93.00048828125] [-53.799967447916664:29.433268229166668] [-412.13346354166669:277.533203125] [-30.39990234375:28] [-55.099934895833336:15.766682942708334] [2.0177389631636307:43.014773329896883] [-527.89990234375:521.099853515625] [-1.154689932329932:1.1546853851449188] [-822.66666666666663:258] [0.9451174915825904:42.605028060313209] [-88.2001953125:71.3994140625] [-101.5:48.39996337890625] [-100.800048828125:104.300048828125] [-51.4000244140625:52.9000244140625] [-5.0666656494140625:5.76666259765625] [-108:33.666666666666664] [-260.7999267578125:123.7000732421875] [-1.1546962754864203:1.1346915233081669] [43.676152779895006:2922.7275228004783] [-873.00006103515625:1005.2000732421875] [-802.08000000000004:2438] [-436.39990234375:308.30029296875] [-161.0999755859375:155.9000244140625] [-1.1546679821354811:1.1546894157366943] [0.35119251456479261:34.94508573827521] [-60.300048828125:43.4000244140625] [-624.8994140625:178] [-197.39990234375:451.4990234375] [-206:67.366861979166671] [-43.4000244140625:233.89999389648438] [-30.899993896484375:32.300018310546875]
tree_sizes=1743 1358 1455 1450 1749 1658 1445 1447 1649 1656 1950 1949 1937 2039 1553 1752 1949 1744 1743 1643 1855 1851 1751 1858 1754 1759 2045 1952 1551 1549 1557 1444 1345 1544 1348 1343 1440 1343 1349 1348 1654 1543 1347 1638 1539 1452 1351 1449 1244 1055 1347 1253 1552 1452 1158 1452 1443 1449 1256 1156 1451 1154 1153 1154 1156 1051 1156 1151 1058 1160 1359 1471 1363 1158 962 965 959 1059 1067 960 1056 965 961 1053 959 967 964 964 1066 861 1064 1060 1155 1369 1363 956 966 1262 1057 1061 1064 1159 1062 1066 1159 1064 965 1264 866 964 1163 1066 1261 970 967 1166 971 1071 1263 1174 865 864 866 966 1172 1067 1778 1373 1171 1066 1372 973 1166 1070 1068 1171 968 1071 1270 1166 1380 864 1374 975 968 1172 1681 1587 1269 1576 876 1268 861 964 1266 1160 1281 1172 1168 1173 1279 1173 1180 1179 1069 1267 957 962 1065 1061 962 957 1069 864 965 1060 1160 1066 1069 960 1269 1275 972 1071 1063 961 1059 1167 964 949 975 863 1065 1061 965 1280 1277 1281 866 1166

Tree=0
num_leaves=16
num_cat=0
split_feature=25 15 1 25 1 26 47 25 56 75 46 54 12 52 21
split_gain=1.18261e+07 1.80724e+06 1.31225e+06 726366 308441 77883 77035.1 70126.3 31250.2 8881.49 2085.13 1622.35 3653.22 18.4843 0.487923
threshold=153.00000000000003 -191.99999999999997 1.0000000180025095e-35 403.00000000000006 -270403.49999999994 440.00000000000006 10.050048828125002 588.50000000000011 0.40937657117926957 -7.7499999999999991 -2.8666737874348951 8.7310818169992146 0.21475000000000002 5.7000122070312509 -1654.4999999999998
decision_type=8 8 2 10 2 10 8 10 10 10 10 10 8 8 8
left_child=2 -2 -1 4 -3 10 9 8 -5 -6 -4 12 -9 -13 -12
right_child=1 3 5 7 6 -7 -8 11 -10 -11 14 13 -14 -15 -16
leaf_value=207.15940807234094 194.86419124999421 219.90287012189572 182.79500839761107 219.25870374539161 211.08141598039276 186.75406021977611 203.18069616341899 220.56532661087817 214.76244443578247 208.59023757523346 181.71430853329159 220.8282802834361 218.34960705967026 220.75802734059263 181.73148764694926
leaf_weight=6.3911563325673333 9.0751741081476194 6.5436084587126997 5.2980834934860459 7.2432360462844354 6.2179735023528373 11.033380787819622 6.3180835675448224 10.799608863890173 7.6047669891268015 7.6728547494858432 16.242745645344257 39.949647091329098 2.1397661399096206 11.708447173237799 7.3918731510639253
leaf_count=18 10 9 19 14 24 22 12 60 15 10 25 38 15 14 12
internal_value=207.444 215.847 186.548 217.641 210.659 183.252 207.666 219.992 216.956 209.705 181.917 220.689 220.199 220.812 181.72
internal_weight=161.63 115.273 46.3572 106.198 26.7525 39.9661 20.2089 79.4455 14.848 13.8908 28.9327 64.5975 12.9394 51.6581 23.6346
internal_count=317 221 96 211 55 78 46 156 29 34 56 127 75 52 37
is_linear=0
shrinkage=1


Tree=1
num_leaves=12
num_cat=0
split_feature=25 10 1 25 77 70 47 21 54 27 6
split_gain=1.16379e+07 1.76207e+06 1.26745e+06 799679 186581 208908 112216 84247.3 86955.9 48549.7 399.357
threshold=153.00000000000003 0.0011462888742617141 1.0000000180025095e-35 346.00000000000006 12.266601562500002 58.050048828125007 11.349853515625002 -523.99999999999989 10.276132509282363 178.44138652842656 15550.000000000002
decision_type=8 2 2 10 10 10 10 10 10 10 2
left_child=2 3 -1 6 5 -5 -2 -4 -9 -6 -11
right_child=1 -3 7 4 9 -7 -8 8 -10 10 -12
leaf_value=5.6196543519065409 9.5782029016448753 -7.8599175596814748 -19.556998954878555 7.2917392753023922 14.972142050967113 17.435755382968161 1.3586626989097668 -10.57503700390474 -18.261731098902494 19.551181628452913 19.216322316227352
leaf_weight=6.3911563325673333 9.3829843662679213 7.9271277263760558 25.643463211134076 7.5294046103954342 6.2502976413816205 13.806583633646367 6.9304681923240414 6.326438080519436 7.9961817860603333 53.260796535760164 10.185503983870147
leaf_count=18 27 21 48 19 20 22 12 19 11 75 25
internal_value=6.09237 14.4286 -14.6368 16.0745 17.8645 13.856 6.08628 -17.876 -14.8664 19.0916 19.4974
internal_weight=161.63 115.273 46.3572 107.346 91.0326 21.336 16.3135 39.9661 14.3226 69.6966 63.4463
internal_count=317 221 96 200 161 41 39 78 30 120 100
is_linear=0
shrinkage=0.0489891


Tree=2
num_leaves=13
num_cat=0
split_feature=1 32 67 24 24 33 23 54 46 18 54 62
split_gain=1.12644e+07 3.46192e+06 1.1599e+06 278902 243008 152556 119691 85995.4 69458.8 7263.6 1777.49 1.42766
threshold=60026.500000000007 -77.350097656249986 96.070349789682439 336.50000000000006 945.50000000000011 29.150390625000004 300.16117895757628 4.8643996433176246 -0.26666768391927081 -2.2609151931998057 8.42400836229554 6.1000061035156259
decision_type=2 2 8 10 10 2 8 8 10 10 10 8
left_child=2 4 5 -4 -2 -1 -5 -8 10 -9 -3 -12
right_child=1 8 3 6 -6 -7 7 9 -10 -11 11 -13
leaf_value=8.2053527382061962 3.1815809954621921 -18.684351330594495 9.0698943819994629 10.820804030453468 16.948600371458792 -1.1299605745478163 10.553039143881412 17.724785126467371 -14.493383154812179 19.436139894934808 -19.556998836328692 -19.53196552982606
leaf_weight=8.4933180566877144 5.4873922523111087 7.2233600113540879 8.3039459940046054 4.5960602965205899 7.0054104924201965 8.3133019581437093 2.8113370407372704 6.5342463925480834 8.8111594058573228 66.824088513851166 18.325456198304899 8.9013294875621742
leaf_count=20 25 25 20 15 5 23 11 15 16 107 23 12
internal_value=6.00695 -11.8149 15.3919 17.6192 10.9015 3.58769 18.4982 18.9615 -18.3748 19.2837 -19.3676 -19.5488
internal_weight=161.63 55.7541 105.876 89.0697 12.4928 16.8066 80.7657 76.1697 43.2613 73.3583 34.4501 27.2268
internal_count=317 106 211 168 30 43 148 133 76 122 60 35
is_linear=0
shrinkage=0.0489891


Tree=3
num_leaves=13
num_cat=0
split_feature=37 57 9 77 23 79 23 45 26 62 62 30
split_gain=9.7878e+06 2.76787e+06 2.41099e+06 451343 330336 184977 91544.3 90983.1 83805.8 730.987 429.295 32.3446
threshold=-107.45013427734374 -53.499999999999993 -20.576923076922998 18.050130208333339 559.33052539350717 4.6000061035156259 404.76784136518091 1.8499959309895835 440.00000000000006 2.7500000000000004 1.9499816894531252 7.583353678385417
decision_type=2 2 2 8 10 10 8 10 8 8 10 2
left_child=1 -1 -2 4 -4 7 -5 -6 10 11 -3 -8
right_child=2 8 3 6 5 -7 9 -9 -10 -11 -12 -13
leaf_value=5.1530879991943319 -17.504610160739777 -19.099216541869861 -3.5131891204524286 13.731654870220398 7.5156634354213585 19.123280109505504 19.553013460756436 13.829750283989942 -14.205889175122124 19.020710307025048 -19.556998879166091 19.449433021940912
leaf_weight=18.144579846411943 5.293036460876464 6.3432145994156626 3.0476703308522692 7.5466685052961102 10.150057377293711 9.4228092115372402 41.606133908033371 11.896035123616455 9.8500581607222539 7.6418918631970874 21.88530526868999 8.8029454443603736
leaf_count=25 5 17 13 19 34 16 65 23 21 27 39 13
internal_value=5.9133 -10.5933 14.7178 16.4214 11.8868 13.3782 18.8074 10.9227 -18.0965 19.4672 -19.4541 19.5349
internal_weight=161.63 56.2232 105.407 100.114 34.5166 31.4689 65.5976 22.0461 38.0786 58.051 28.2285 50.4091
internal_count=317 102 215 210 86 73 124 57 77 105 56 78
is_linear=0
shrinkage=0.0489891


Tree=4
num_leaves=16
num_cat=0
split_feature=37 27 9 77 69 23 79 23 69 0 60 51 62 13 9
split_gain=9.60965e+06 2.80394e+06 2.37198e+06 484116 359250 308586 200725 107524 95731.2 92843 33070.2 5779.96 1613.07 119.417 0.0476709
threshold=-107.45013427734374 869.35782605956513 -20.576923076922998 18.050130208333339 541.50000000000011 559.33052539350717 4.6000061035156259 404.76784136518091 -602.99999999999989 0.64999999999999158 5.1499633789062509 34.149902343750007 2.7500000000000004 0.7635043382902621 -0.75972138272459844
decision_type=2 8 2 8 2 10 10 8 2 2 10 10 8 8 2
left_child=1 8 -2 5 10 -4 9 -5 -1 -7 -3 -10 13 -9 -13
right_child=2 4 3 7 -6 6 -8 12 11 -11 -12 14 -14 -15 -16
leaf_value=-12.880675789073262 -17.425217517787516 -4.0532564944570755 -3.3555660885682785 13.195345979261162 12.742748348793043 7.5377764035749903 18.954918941000734 19.551208107593649 -17.856960294400441 13.928290021105099 1.6903764751457746 -19.547763311349581 18.748104588541807 19.367019866929095 -19.556998889313977
leaf_weight=6.9716016054153434 5.293036460876464 4.6888799499720353 3.0476703308522692 7.5466685052961102 8.4309238493442518 12.129106402397161 9.4228092115372402 39.659209117293358 5.9498097561299828 9.9169860985130054 4.9409805610775948 7.3033495042473104 7.6418918631970874 10.749870235100387 17.937612649053335
leaf_count=5 5 22 13 19 5 36 16 50 25 21 6 13 27 28 26
internal_value=5.8114 -10.5443 14.5354 16.2251 5.35857 11.5288 12.9703 18.6963 -18.0705 10.4124 -1.10626 -19.2305 19.4114 19.5119 -19.5543
internal_weight=161.63 56.2232 105.407 100.114 18.0608 34.5166 31.4689 65.5976 38.1624 22.0461 9.62986 31.1908 58.051 50.4091 25.241
internal_count=317 102 215 210 33 86 73 124 69 57 28 64 105 78 39
is_linear=0
shrinkage=0.0489891


Tree=5
num_leaves=15
num_cat=0
split_feature=25 8 51 25 25 62 2 54 19 25 70 77 27 39
split_gain=1.0584e+07 2.01278e+06 1.37243e+06 1.02085e+06 265689 247341 173824 100910 78052.5 61952.5 56126.2 23968.5 11514.3 1397.87
threshold=153.00000000000003 -1.4699999999999915 12.03336588541667 596.50000000000011 -750.49999999999989 2.5999908447265629 2.4419788696364439 10.464912037155804 0.97650232264584302 403.00000000000006 1.9499511718750002 12.266601562500002 180.04908688877103 74.849945068359389
decision_type=10 2 10 10 8 8 10 10 10 10 10 10 10 8
left_child=2 -2 -1 5 -4 7 -6 9 -8 -3 -7 -5 -13 -14
right_child=1 3 4 11 6 10 8 -9 -10 -11 -12 12 13 -15
leaf_value=16.324922656569424 -17.120388187322522 4.7678736033943236 -19.556998924267813 16.133861330549149 -3.5956523175104329 1.8099782093993015 -10.771785387723275 15.866027688791871 -18.111128435680588 12.649233421261457 7.1837092552443078 17.273573449271492 19.51104648334988 18.624590642871908
leaf_weight=3.3184068314731112 4.8788016140460959 4.5127221718430537 25.759343791753054 6.9510495271533719 4.5897161941975382 8.3722536936402339 6.6878755912184698 10.689799457788466 7.2445180527865887 5.097335459664464 10.533042624592779 6.728540275245904 46.389369282871485 4.7024890743196002
leaf_count=6 4 19 54 22 23 10 18 10 13 14 21 16 79 8
internal_value=5.20659 13.6323 -14.0621 15.0753 -16.3392 8.83603 -11.8642 12.5911 -14.5881 8.94828 4.80394 18.8518 19.1786 19.4295
internal_weight=156.455 108.855 47.5999 103.977 44.2815 39.2052 18.5221 20.2999 13.9324 9.61006 18.9053 64.7714 57.8204 51.0919
internal_count=317 203 114 199 108 74 54 43 31 33 31 125 103 87
is_linear=0
shrinkage=0.0489891


Tree=6
num_leaves=13
num_cat=0
split_feature=1 32 21 53 46 15 24 72 23 49 60 21
split_gain=1.01538e+07 3.2366e+06 1.195e+06 392593 137141 109749 101556 87187.9 40078.1 15850.8 12814.1 11970.6
threshold=9386.5000000000018 -140.35009765624997 2022.5000000000002 7.016642252604167 -0.31666564941406244 160.50000000000003 336.50000000000006 0.70222515603116742 1104.2586442633212 -1.7498779296874998 4.9499816894531259 -477.49999999999994
decision_type=2 2 8 10 8 8 10 10 10 8 8 10
left_child=2 -2 3 6 11 -5 -1 -4 -8 -7 -10 -3
right_child=1 4 7 5 -6 9 8 -9 10 -11 -12 -13
leaf_value=11.847695951686942 10.192873104421643 -19.556998931130874 4.9193422185861229 5.234274502893558 -12.232939162336674 16.460630941561906 15.527121824783112 -3.323290966949358 19.303143260918922 11.126481662037751 17.047518194490099 -17.531334703362596
leaf_weight=5.8615706954151383 12.978112518787382 25.646815903484818 5.6020118929445726 7.930436968803404 9.0129362903535348 3.2103832140564919 8.999941658228634 6.8404749296605587 51.604619318619378 2.2911054026335478 6.846408873796455 9.6304459758102912
leaf_count=11 25 50 7 15 22 20 16 22 94 9 7 19
internal_value=5.10259 -11.3218 14.5857 16.6222 -17.6261 8.92255 18.0329 0.38781 18.5704 14.2392 19.0389 -19.004
internal_weight=156.455 57.2683 99.187 86.7445 44.2902 13.4319 73.3125 12.4425 67.451 5.50149 58.451 35.2773
internal_count=317 116 201 172 91 44 128 29 117 29 101 69
is_linear=0
shrinkage=0.0489891


Tree=7
num_leaves=13
num_cat=0
split_feature=37 24 15 65 38 23 26 50 0 75 39 45
split_gain=9.57294e+06 1.89093e+06 1.6077e+06 371503 221852 201496 164348 163941 63942.8 37497.8 10530.5 3129.36
threshold=-103.49987792968749 999.00000000000011 -76.499999999999986 40.750061035156257 10.910814595788024 1018.1440433162319 323.00000000000006 7.8333333333333348 0.64999999999999158 -45.500244140624993 74.849945068359389 -1.6833292643229165
decision_type=2 8 8 2 2 8 10 10 2 8 8 10
left_child=1 6 -2 5 -5 9 -1 -3 -6 -4 11 -7
right_child=2 7 3 4 8 10 -8 -9 -10 -11 -12 -13
leaf_value=-19.556998942660559 -4.7281502287649531 9.4938389330526523 14.814868792936974 16.727785728414382 4.3317243543500599 18.419229052803416 -12.706326408868938 -1.002292620168574 10.43958892610142 9.455856453830048 16.989895580974853 19.496936265576597
leaf_weight=26.661834962666035 10.132839821279047 5.792210165411233 6.4270923528820276 9.8270351048558968 8.1211550291627663 7.6901379507035008 12.272760152816771 9.3140962589532119 8.3356674239039403 6.1148525904864055 5.1242838222533456 40.64129800722003
leaf_count=58 15 8 9 21 17 20 25 22 11 19 17 75
internal_value=4.99241 -11.6895 13.7949 15.8288 10.9034 17.7904 -17.3976 3.02224 7.42546 12.2021 19.1016 19.3255
internal_weight=156.455 54.0409 102.414 92.2815 26.2839 65.9977 38.9346 15.1063 16.4568 12.5419 53.4557 48.3314
internal_count=317 113 204 189 49 140 83 30 28 28 112 95
is_linear=0
shrinkage=0.0489891


Tree=8
num_leaves=15
num_cat=0
split_feature=25 9 51 25 21 62 71 16 25 31 21 0 63 13
split_gain=9.79421e+06 1.39726e+06 1.17896e+06 1.12499e+06 368047 216059 131367 128788 49823.6 41236.8 38608.5 30228.4 9464.38 923.739
threshold=198.50000000000003 -16.257918552034514 15.54996744791667 596.50000000000011 -754.49999999999989 2.5999908447265629 -103.14996337890624 32.500000000000007 684.50000000000011 -3.1499633789062496 138.00000000000003 0.4500000000000029 -0.89999898274739565 0.95423310020296881
decision_type=10 2 10 10 8 8 8 10 10 2 8 2 10 8
left_child=2 -2 -1 5 -4 7 -6 9 -5 -3 -7 -8 -10 -14
right_child=1 3 4 8 6 10 11 -9 12 -11 -12 -13 13 -15
leaf_value=13.021932792273496 -8.5245620798801625 5.0199678332810898 -19.556998934124003 15.548235305776938 -13.829764955958129 6.2014285742438302 -2.3007289093575634 16.494072296012153 17.5554585422366 10.753692824566137 1.7537544175232767 -8.6378439183670839 19.50640545373243 18.851669736824224
leaf_weight=3.6929039657115927 6.7706202343106261 5.1454058401286611 25.85393450781703 11.28784131631255 11.11370664462447 10.03756335377693 3.7563653085380819 7.5382515192031851 7.6965208780020467 7.2545990739017734 8.7821634486317652 3.4800733514130116 38.05960550904274 5.9857086911797515
leaf_count=10 8 14 55 27 17 17 21 10 11 16 13 14 55 29
internal_value=4.88345 13.0251 -13.5695 14.4585 -15.791 7.89074 -10.4851 11.4443 18.4971 8.37447 4.12594 -5.34831 19.1405 19.4174
internal_weight=156.455 108.558 47.897 101.788 44.2041 38.758 18.3501 19.9383 63.0297 12.4 18.8197 7.23644 51.7418 44.0453
internal_count=317 200 117 192 107 70 52 40 122 30 30 35 95 84
is_linear=0
shrinkage=0.0489891


Tree=9
num_leaves=15
num_cat=0
split_feature=25 6 51 25 25 54 71 3 25 51 73 18 45 54
split_gain=9.52754e+06 1.18996e+06 1.11699e+06 1.05933e+06 405851 225566 120033 76201 63902 55199.5 38808.9 21072.1 9881.93 2375.09
threshold=198.50000000000003 106600.00000000001 15.54996744791667 588.50000000000011 -750.49999999999989 10.464912037155804 -103.14996337890624 12.361083689712089 706.50000000000011 39.250162760416679 10.765766695058437 0.34302300631811949 -1.9500020345052083 8.818799471249223
decision_type=10 2 10 10 8 10 8 10 10 8 10 10 10 10
left_child=2 3 -1 5 -4 7 -6 9 11 -2 -8 -5 -10 -14
right_child=1 -3 4 8 6 -7 10 -9 12 -11 -12 -13 13 -15
leaf_value=12.46057382877642 9.9082456383529109 -4.6928164333498659 -19.556998924267813 13.150534515088408 -13.2204199783754 12.976983113998378 -0.51033356500404925 0.91100737958587497 17.339904683122089 4.3202127522400966 -7.9084906931983641 17.118091372472989 18.560655287739376 19.507163757197585
leaf_weight=3.6929039657115927 7.7752337940037277 8.5872163735330087 25.759343791753054 6.3037511184811574 11.187837269157169 13.347197204828261 2.7248152419924763 7.4056586083024731 6.9549881499260655 9.3371313214302081 4.5320835094898939 6.5515746511518955 7.8021151646971694 34.493413478136063
leaf_count=10 26 13 54 15 17 14 22 16 13 8 14 16 46 33
internal_value=4.77747 12.8075 -13.4226 14.3107 -15.5849 7.85233 -10.0376 5.06256 18.2483 6.85921 -5.13064 15.1726 19.0512 19.3326
internal_weight=156.455 108.558 47.897 99.9711 44.2041 37.8652 18.4447 24.518 62.1058 17.1124 7.2569 12.8553 49.2505 42.2955
internal_count=317 200 117 187 107 64 53 50 123 34 36 31 92 79
is_linear=0
shrinkage=0.0489891


Tree=10
num_leaves=18
num_cat=0
split_feature=25 15 22 25 26 28 25 57 6 6 60 5 46 25 66 61 5
split_gain=9.35695e+06 1.52246e+06 1.09453e+06 975147 522377 318490 133760 70208.8 59088 55425.1 46581.9 22902.5 15858.5 9404.21 1786.91 516.348 73.2989
threshold=198.50000000000003 -191.99999999999997 59.791666666666679 611.50000000000011 306.00000000000006 -716.99572225498298 403.00000000000006 183.00000000000003 -8249.9999999999982 -16224.999999999998 -8.3000183105468732 0.30935584059346527 -0.58333841959635413 712.50000000000011 -0.17149241905311244 -0.49996948242187494 -0.066583925682587225
decision_type=8 8 8 10 10 2 10 2 2 2 8 8 8 10 10 10 8
left_child=2 -2 4 5 15 -3 11 12 14 -8 -10 -7 -6 -12 -5 -1 -16
right_child=1 3 -4 8 7 6 9 -9 10 -11 13 -13 -14 -15 16 -17 -18
leaf_value=-19.028473877695248 -6.0629123019959277 19.343117042165311 12.269905072561164 18.8410880974637 -5.6699422577194882 5.4267936855722771 13.499928277298334 -10.187437284609056 18.496354861164491 8.098344540064268 10.810166165137067 1.6014700362774106 0.25508699501184429 14.402940470409451 19.556998776902358 -19.556998838022299 19.371431747235604
leaf_weight=5.519207749515771 9.4527588039636594 6.0910935029387465 3.671531230211257 12.990565067157148 2.1383552011102438 14.353003116324542 7.4382099267095354 9.5064817667007429 8.3943393230438215 11.777392297983168 2.4986921548843402 5.0875993538647917 2.1990076955407849 5.8237845115363598 26.186859503388405 22.6379853989929 6.3613040558993807
leaf_count=13 11 6 4 25 13 32 13 15 8 27 11 17 15 23 43 47 8
internal_value=5.4124 12.7827 -13.3803 14.4475 -15.6225 8.93131 7.29071 -7.83092 18.4124 10.1893 15.9214 4.42571 -2.666 13.3243 19.3269 -19.4534 19.5207
internal_weight=162.128 116.456 45.6726 107.003 42.001 44.7473 38.6562 13.8438 62.2555 19.2156 16.7168 19.4406 4.33736 8.32248 45.5387 28.1572 32.5482
internal_count=331 224 107 213 103 95 89 43 118 40 42 49 28 34 76 60 51
is_linear=0
shrinkage=0.0489891


Tree=11
num_leaves=18
num_cat=0
split_feature=1 32 53 25 46 21 53 15 25 4 56 17 26 16 26 54 9
split_gain=9.15798e+06 2.93652e+06 1.07268e+06 336439 276162 173082 150488 91187 71038 69707.9 65186.1 57829.9 43862.7 39982.8 29979 25990.8 2601.93
threshold=60026.500000000007 -35.799804687499993 5.516642252604167 421.50000000000006 -0.39999898274739581 -320.49999999999994 2.4666748046875004 126.50000000000001 288.50000000000006 -0.6066929663514008 -0.083423800228347042 58.333333333333336 -79.999999999999986 177.50000000000003 -1.0000000180025095e-35 9.2949162691072207 0.19850628930813133
decision_type=2 2 10 10 8 10 8 8 8 10 10 10 10 8 8 8 2
left_child=2 5 6 8 12 -2 11 -5 -4 15 -7 13 -3 -1 -9 -8 -13
right_child=1 4 3 7 -6 10 9 14 -10 -11 -12 16 -14 -15 -16 -17 -18
leaf_value=12.538308994737742 14.042744375047574 -19.556998924067983 -1.1786029972288912 6.4912443786724907 -7.7609594104844701 -0.67533052152101791 18.233905752790381 11.618824250619632 5.1005418111778731 8.9212809424528476 7.5825893811100187 18.768598827745084 -15.609514769703644 18.859617154722258 16.978521056817637 13.144857555362593 19.556998716165261
leaf_weight=5.7671494632959348 6.4872400015592566 27.042194236069914 8.63213352113962 4.9022264033555984 6.7308312878012648 4.440928326919674 4.8081790134310696 4.4651256036013365 8.6640523206442612 5.8950021564960471 4.7455810084938994 14.853815898299215 9.0050247199833411 4.1146771349012852 5.7042420431971532 4.8258689902722844 31.043898530304432
leaf_count=14 6 52 24 12 16 23 24 10 18 17 6 16 16 18 22 5 32
internal_value=5.2829 -10.2235 14.0253 6.62907 -16.87 7.91663 17.3825 11.9795 1.96676 13.1172 3.59056 18.5699 -18.5709 15.1704 14.6252 15.6847 19.3019
internal_weight=162.128 58.4518 103.676 32.3678 42.7781 15.6737 71.3086 15.0716 17.2962 15.5291 9.18651 55.7795 36.0472 9.88183 10.1694 9.63405 45.8977
internal_count=331 119 212 86 84 35 126 44 42 46 29 80 68 32 32 29 48
is_linear=0
shrinkage=0.0489891


Tree=12
num_leaves=18
num_cat=0
split_feature=25 9 25 22 26 28 4 6 52 27 24 6 49 40 51 62 8
split_gain=8.91964e+06 1.78844e+06 1.15812e+06 997839 585325 386978 126783 88162.8 93804 68306.7 63293.3 40511 29824.3 6933.14 2215.32 962.311 13.1575
threshold=198.50000000000003 -20.576923076922998 611.50000000000011 59.791666666666679 306.00000000000006 -716.99572225498298 0.69472743941488602 -8249.9999999999982 -15.849975585937498 374.87286414852929 367.50000000000006 -23874.999999999996 5.5999755859375009 -189.99999237060544 31.349934895833336 1.9499816894531252 -1.0000000180025095e-35
decision_type=8 2 10 8 10 2 10 2 8 8 10 2 8 2 8 10 2
left_child=3 -2 5 4 15 -3 10 13 -9 -6 -7 -8 -10 -4 -15 -1 -17
right_child=1 2 7 -5 9 6 11 8 12 -11 -12 -13 -14 14 -16 16 -18
leaf_value=-18.788485660874599 -15.54710683144288 19.211046258757914 17.56272724865428 11.28578219194371 -9.6263672405874132 4.5750384625147476 4.8733801272414796 19.502950904362475 14.204837854572489 -2.4141334694476 9.4525695821255749 -0.88790584838711295 9.0843350885904304 19.430914829079292 18.317425280570426 -19.471909777884314 -19.55699868612195
leaf_weight=5.04767678678036 5.2696981504559508 6.0910935029387465 6.4976055324077597 3.671531230211257 8.9916019123047555 9.8180012125521916 5.3212065454572439 7.335020899772644 8.2186521627008897 4.8522427510470161 18.259880408644676 6.5156968403607589 4.0876232683658626 34.136660978198051 4.9044621158391228 5.9266590755432871 17.182857286185026
leaf_count=15 5 6 7 4 25 15 11 4 32 18 44 23 8 59 10 18 27
internal_value=5.14301 12.339 13.6607 -13.2053 -15.3462 7.70953 5.95437 17.8612 15.1178 -7.09849 7.74704 1.70204 12.504 19.0444 19.291 -19.4013 -19.5352
internal_weight=162.128 116.456 111.186 45.6726 42.001 46.0059 39.9148 65.18 19.6413 13.8438 28.0779 11.8369 12.3063 45.5387 39.0411 28.1572 23.1095
internal_count=331 224 219 107 103 99 93 120 44 43 59 34 40 76 69 60 45
is_linear=0
shrinkage=0.0489891


Tree=13
num_leaves=19
num_cat=0
split_feature=1 32 53 26 78 53 21 47 54 26 67 46 38 29 27 61 61 46
split_gain=8.7082e+06 2.7636e+06 1.10205e+06 306937 269123 166660 152068 120234 109465 104753 69299.2 44933.4 27417.5 26686 23936.9 6131.43 1460.56 40.9912
threshold=9386.5000000000018 -77.350097656249986 5.516642252604167 -79.999999999999986 5.9500122070312509 2.4666748046875004 -235.99999999999997 14.949951171875002 10.078112239731203 -35.499999999999993 124.3103222413216 0.41666666666666674 12.416817368884589 -2.4999389648437496 910.33736997585913 2.2500000000000004 -6.1500549316406241 -2.8666737874348951
decision_type=2 2 8 8 8 10 10 8 10 8 10 10 2 2 8 8 10 10
left_child=2 6 5 17 7 12 -2 14 -5 -6 -7 -8 15 -14 -4 16 -1 -3
right_child=1 3 4 8 9 10 11 -9 -10 -11 -12 -13 13 -15 -16 -17 -18 -19
leaf_value=19.555206148405986 13.326399899583947 -19.404554983465648 7.0075840755835959 -5.6583857267080377 7.477562365211849 6.8577992561805043 0.034107420226976132 -5.114009232433375 -14.03963666257807 16.310655869710605 14.444722682755712 6.835213778781311 14.241082277622114 18.562329502712117 2.9920476515581034 17.833683965737432 18.890403268836312 -19.55699891272479
leaf_weight=17.735294163227074 6.4872400015592566 5.2667007911950341 5.5738988760858783 5.8556017354130772 6.8957763705402613 3.8609893191605797 4.4939835313707572 3.973605476319789 10.350594103336332 6.0481442399322969 11.480948338285087 4.8446257188916206 6.8354426361620426 6.8838340491056424 9.8738386929035187 9.3745932355523092 14.349328666925436 21.943730713799599
leaf_count=13 6 19 19 22 13 15 21 10 13 18 27 7 19 9 26 13 24 37
internal_value=5.0017 -9.9605 13.6171 -16.3487 6.13294 17.0519 7.56477 2.486 -11.0113 11.6049 12.5354 3.56234 18.3077 16.4093 4.44095 18.9358 19.2579 -19.5275
internal_weight=162.128 59.2425 102.886 43.4166 32.3653 70.5204 15.8258 19.4213 16.2062 12.9439 15.3419 9.33861 55.1785 13.7193 15.4477 41.4592 32.0846 27.2104
internal_count=331 125 206 91 86 120 34 55 35 31 42 28 78 28 45 50 37 56
is_linear=0
shrinkage=0.0489891


Tree=14
num_leaves=14
num_cat=0
split_feature=37 27 9 23 24 53 50 15 51 28 24 54 33
split_gain=7.38671e+06 2.13667e+06 1.6847e+06 743366 509579 352107 267389 180452 105347 61231.7 59976.1 34545.6 2398.42
threshold=-107.45013427734374 869.35782605956513 -20.576923076922998 1018.1440433162319 336.50000000000006 3.7833251953125004 5.0333251953125009 146.00000000000003 41.483398437500007 -260.25822063206562 697.50000000000011 8.3791872062792869 126.60009765625001
decision_type=2 8 2 8 10 10 10 10 10 2 10 10 2
left_child=1 5 -2 7 9 -1 -3 10 11 -5 -4 -6 -7
right_child=2 6 3 4 8 12 -8 -9 -10 -11 -12 -13 -14
leaf_value=-8.446897541946921 -14.519916677429849 13.257689733757319 -5.8697555276653768 9.9307023506983541 15.609448022403667 -18.460847744321129 0.057405889097624646 8.9397932895244843 12.071689299527387 2.5395747863162152 3.2485563487668396 18.743969969743791 -19.55699889966435
leaf_weight=9.6435862705111486 5.4063974991440764 5.9125782176852217 2.7334532570093897 5.1129366811364889 10.182670550420879 6.1575005985796478 9.7653102222830039 18.403906762599945 7.5723411384969941 5.6765597667545062 4.7215483393520117 49.255248304456472 21.584133051335812
leaf_count=18 6 5 17 13 63 20 27 20 5 16 22 58 41
internal_value=4.8468 -10.1446 12.1405 13.531 15.9228 -16.5106 5.03561 6.33517 17.5137 6.04209 -0.0947658 18.207 -19.3137
internal_weight=162.128 53.0631 109.065 103.659 77.7998 37.3852 15.6779 25.8589 67.0103 10.7895 7.455 59.4379 27.7416
internal_count=331 111 220 214 155 79 32 59 126 29 39 121 61
is_linear=0
shrinkage=0.0489891


Tree=15
num_leaves=16
num_cat=0
split_feature=25 71 25 57 21 66 25 53 31 25 54 28 56 31 14
split_gain=7.80108e+06 966024 959821 801055 453419 228245 154619 66832.4 56617.4 52873.1 52158 45014.2 13585.8 12084.8 438.618
threshold=198.50000000000003 36.100036621093757 684.50000000000011 -24.666666666666661 -754.49999999999989 -0.17149241905311244 421.50000000000006 1.3833821614583337 -1.0000000180025095e-35 596.50000000000011 10.607696435075658 -420.12814450142105 0.22502747277066124 5.9500122070312509 -0.024420917193576312
decision_type=10 10 10 2 8 8 10 10 2 10 10 2 10 2 2
left_child=3 2 5 -1 14 6 -2 12 -9 -8 13 -7 -4 -6 -5
right_child=1 -3 7 4 10 11 9 8 -10 -11 -12 -13 -14 -15 -16
leaf_value=2.9766516702459587 2.1371422499809376 -4.837353165352817 19.340865486118894 -19.061790102320717 -7.35544487321852 18.79347372033385 6.6468976954255456 11.525652268385633 18.131584145277493 11.288617969146829 -11.382340773523993 11.181771710223735 17.450709571742102 -3.1100660034259491 -19.556998853488125
leaf_weight=6.577059604227542 13.121813612058757 7.5804222114384165 27.121440224349499 5.5660171546041957 2.7736684828996641 4.5495605356991291 12.915444435551764 6.6633374076336596 5.8451158553361902 10.826284002512692 5.4020514935255051 3.1594947073608628 13.754665326327084 3.8329165242612362 18.785815704613928
leaf_count=21 25 12 27 16 19 9 26 26 27 16 8 23 23 11 35
internal_value=4.84864 12.0111 13.315 -12.7563 -15.6022 8.00796 6.40483 17.746 14.6126 8.76353 -7.81189 15.6739 18.7048 -4.89242 -19.4438
internal_weight=148.475 105.538 97.9572 42.9375 36.3605 44.5726 36.8635 53.3846 12.5085 23.7417 12.0086 7.70906 40.8761 6.60659 24.3518
internal_count=324 214 202 110 89 99 67 103 53 42 38 32 50 30 51
is_linear=0
shrinkage=0.0489891


Tree=16
num_leaves=18
num_cat=0
split_feature=25 25 50 34 5 28 5 25 54 25 70 5 42 49 75 17 4
split_gain=7.57108e+06 908368 735341 615289 555298 284964 153629 139983 56569.8 53485.1 52131.1 27338.4 19765.9 17060.1 7047.19 1658.42 3923.85
threshold=198.50000000000003 603.50000000000011 1.0332845052083337 82.800048828125014 2.8703910825181302 -716.99572225498298 0.40403267785731573 745.00000000000011 10.607696435075658 403.00000000000006 192.50000000000003 0.55829436742094407 -1.0000000180025095e-35 0.50012207031250011 40.900146484375007 140.83333333333334 1.0541639019145153
decision_type=10 10 10 2 8 2 10 10 10 10 8 10 10 8 8 10 10
left_child=2 5 -1 8 7 -2 9 13 12 14 11 -9 -4 -3 -7 16 -5
right_child=1 4 3 15 -6 6 -8 10 -10 -11 -12 -13 -14 -15 -16 -17 -18
leaf_value=8.3401689297097192 18.690773392027104 13.332413430366842 -1.2649732392347082 -17.069844448439646 1.0241112791000484 5.0935355929630095 -0.81753057225294656 18.911720366549467 -10.659030637979045 8.5743470162456195 13.383721142191389 15.691831908706499 -5.9928036303023857 9.5675741060187711 2.6910459198616676 -19.55699882795107 -19.556996831425607
leaf_weight=3.6583068259060374 3.6802699565887442 7.4922639857977611 3.3057505637407294 2.3979886341840055 6.0564383752644053 6.6055836938321635 9.8671049233525974 35.351534090936184 5.2761027961969367 13.020041074603794 5.788768157362937 7.7082543745636931 5.9277395214885464 4.7011026181280613 5.2662170678377125 18.202416703104973 4.1692239195108414
leaf_count=11 4 23 22 14 11 21 26 63 7 24 7 17 17 11 7 20 19
internal_value=4.67653 11.7327 -12.667 -14.6235 15.1727 5.72791 4.3554 16.5764 -6.61243 6.40595 17.7485 18.3353 -4.30016 11.8809 4.02781 -19.3162 -18.6488
internal_weight=148.475 105.538 42.9375 39.2792 67.0984 38.4392 34.7589 61.0419 14.5096 24.8918 48.8486 43.0598 9.23349 12.1934 11.8718 24.7696 6.56721
internal_count=324 214 110 99 132 82 78 121 46 52 87 80 39 34 28 53 33
is_linear=0
shrinkage=0.0489891


Tree=17
num_leaves=16
num_cat=0
split_feature=1 32 66 71 48 77 2 35 39 4 47 5 72 15 7
split_gain=7.30108e+06 1.75791e+06 830521 464034 358453 163659 129646 122754 120815 44150.7 44020.2 39305.3 18260.6 5225.67 1200.3
threshold=76104.000000000015 -35.799804687499993 -0.17149241905311244 -89.799987792968736 2.2502441406250004 26.166748046875004 -8.5297154011839353 6.7497558593750009 -17.000061035156246 -1.1148915142969984 6.7497558593750009 0.096322206282851652 0.22341775579689591 176.50000000000003 21458.500000000004
decision_type=2 2 8 8 10 10 10 2 10 8 10 10 8 10 8
left_child=2 -2 4 -3 8 6 -4 -6 -1 -10 -8 13 -11 -7 -5
right_child=1 3 5 14 7 11 10 -9 9 12 -12 -13 -14 -15 -16
leaf_value=4.9710432673113507 6.3523161160759569 -7.5325400596576388 19.45651194608725 -19.556998802815443 5.7309060879921727 18.004439482669124 12.600983680604685 -1.6954280920590286 17.23719151048936 10.804405749589176 6.2299862929242309 15.135880376284396 14.792222804210356 19.428670666614142 -18.785801173485648
leaf_weight=4.9792168587446239 10.964617896825073 11.241315450519322 4.0587714519351712 20.698300015181307 15.902460236102344 8.9161540642380732 4.7980326842516643 8.0437479652464372 5.5198440179228783 9.1061197221279091 5.6887276470661163 8.1130922455340606 3.9516706559807124 20.169024549424648 6.3240118212997904
leaf_count=8 27 21 5 35 23 27 20 23 13 35 13 21 7 25 21
internal_value=4.48338 -10.9413 12.1343 -15.8969 7.45713 16.4282 12.0223 3.23633 11.7477 13.564 9.14492 18.151 12.0112 18.9921 -19.3765
internal_weight=148.475 49.2282 99.2469 38.2636 47.5031 51.7438 14.5455 23.9462 23.5569 18.5776 10.4868 37.1983 13.0578 29.0852 27.0223
internal_count=324 104 220 77 109 111 38 46 63 55 33 73 42 52 56
is_linear=0
shrinkage=0.0489891


Tree=18
num_leaves=16
num_cat=0
split_feature=25 71 25 53 25 28 25 6 60 5 47 45 26 74 50
split_gain=7.10144e+06 855897 939993 771037 353223 219426 144462 92336.1 88950.2 57543 38045.2 35468.2 21521 18958.5 2975.11
threshold=198.50000000000003 36.100036621093757 684.50000000000011 3.7166748046875004 -186.99999999999997 -716.99572225498298 403.00000000000006 12025.000000000002 4.9499816894531259 0.096322206282851652 -7.6000976562499991 2.0833435058593754 706.50000000000011 7.3000183105468759 7.3666992187500009
decision_type=10 10 10 10 8 2 10 2 8 10 10 8 10 10 10
left_child=3 2 5 -1 14 -2 12 -8 9 13 -11 -6 -7 -4 -5
right_child=1 -3 8 4 11 6 7 -9 -10 10 -12 -13 -14 -15 -16
leaf_value=-2.8823169318844384 18.504147084451745 -4.7450209569240531 19.256942567213034 -18.298122865376545 -8.4023020823801016 -0.3902157361743569 10.107327245979988 4.1078556010866896 10.398399784864154 17.171585820198111 11.773528160205625 0.37630975846904358 3.5832710428939336 16.954611252571834 -19.556998847546982
leaf_weight=13.614439539611338 3.7056014761328688 7.5804222114384165 21.875714642927051 5.9076910838484791 2.3326224721968201 5.7515565101057273 18.23469230346382 9.2949491292238218 4.8471460640430442 6.3303740918636322 6.2047332637011987 2.0980099774897099 7.5857978742569685 14.126590751111506 18.984765890985727
leaf_count=25 5 12 31 21 17 15 33 32 6 5 26 15 14 35 32
internal_value=4.28028 11.1141 12.3413 -12.5167 -16.9898 7.0894 6.05437 8.0817 16.7263 17.3582 14.4996 -4.24542 1.86976 18.3536 -19.2582
internal_weight=148.475 105.538 97.9572 42.9375 29.3231 44.5726 40.867 27.5296 53.3846 48.5374 12.5351 4.43063 13.3374 36.0023 24.8925
internal_count=324 214 202 110 85 99 94 65 103 97 31 32 29 66 53
is_linear=0
shrinkage=0.0489891


Tree=19
num_leaves=15
num_cat=0
split_feature=25 24 25 57 21 5 1 25 60 5 56 54 27 45
split_gain=6.85734e+06 832656 806670 748634 551577 523691 227544 104092 95884.7 58192.2 51659.2 46681.1 25436.5 10798.6
threshold=198.50000000000003 336.50000000000006 684.50000000000011 -24.666666666666661 -1176.9999999999998 4.1303928133325885 -389207.99999999994 588.50000000000011 4.9499816894531259 -0.83399314397952917 0.22502747277066124 9.4231173124319429 1869.5405690258094 -0.48333740234374994
decision_type=10 10 10 2 8 8 2 10 8 10 10 10 10 10
left_child=3 5 6 -1 -5 -2 -3 9 10 -8 13 -6 -12 -4
right_child=1 2 8 4 11 -7 7 -9 -10 -11 12 -13 -14 -15
leaf_value=2.7732174062771775 6.1140404658772489 19.526434362513776 16.780058485690777 -19.556998884739404 -3.5023807091730226 -14.466604102795433 8.1457807246446041 9.9559252317151898 9.8889910990258691 2.8526908168254579 12.977930578630575 -9.526534229059763 16.959239123964867 18.801785869238202
leaf_weight=6.577059604227542 9.158484645187853 3.2907844707369796 8.7244042698293907 23.851615063846111 5.5459470413625223 4.3893882036209098 6.8733149375766507 11.394759483635424 4.8471460640430442 18.141993390396241 8.399959918111561 6.9629072546958923 7.1121383011341086 23.205204633995894
leaf_count=21 26 4 18 50 27 9 17 25 6 41 24 12 9 35
internal_value=4.06948 10.7848 12.4547 -12.4363 -15.1874 -0.553902 7.18989 6.0749 16.4521 4.30704 17.1226 -6.85566 14.8033 18.2494
internal_weight=148.475 105.538 91.9897 42.9375 36.3605 13.5479 39.7009 36.4101 52.2889 25.0153 47.4417 12.5089 15.5121 31.9296
internal_count=324 214 179 110 89 35 87 83 92 58 86 39 33 53
is_linear=0
shrinkage=0.0489891


Tree=20
num_leaves=17
num_cat=0
split_feature=25 10 25 25 52 1 25 4 40 63 56 53 70 22 17 53
split_gain=6.5343e+06 1.1588e+06 974604 848409 420113 253117 226374 144356 108326 75950.4 57526.2 55012.3 36441.2 35470.6 27396.9 11567.5
threshold=198.50000000000003 0.0011462888742617141 684.50000000000011 -1066.4999999999998 1.5499267578125002 -253165.49999999997 -750.49999999999989 -1.028809916653308 -66.206638336181626 0.066665649414062514 0.086170826669549963 -1.2166748046874998 12.449707031250002 -3.6249999999999996 140.83333333333334 -1.3166503906249998
decision_type=10 2 10 8 10 2 8 10 2 8 10 8 10 8 8 10
left_child=3 2 5 -1 -5 -2 -6 9 13 -4 15 -8 -10 -7 -13 -9
right_child=1 -3 7 4 6 8 11 10 12 -11 -12 14 -14 -15 -16 -17
leaf_value=-19.556998923370305 13.765972538071402 -8.4264539024039493 8.4207038031079264 8.2902730032927767 -19.143157008515313 9.7270438846971974 -10.939797227732447 19.027297059478382 0.18716282664475087 15.387677505746176 14.311806075119538 -7.0078480668517384 4.0579196819836332 5.476791625343707 -2.0879880477009087 17.012516082189578
leaf_weight=20.72633034363389 9.0044853892177326 7.8507322315126649 8.6873814016580546 4.1025364156812456 4.1285375691950321 9.2574986368417722 4.2411578893661499 17.249036192893982 9.1474798098206573 6.6144965980201968 13.136243652552364 5.0588370785117123 16.129753986373544 9.5980827827006561 5.8665317669510886 11.331768199801447
leaf_count=43 18 18 14 9 10 14 3 15 15 20 22 18 36 15 33 27
internal_value=3.74414 9.75794 11.0539 -12.3395 -5.94592 6.28063 -8.97284 15.5023 4.75338 11.4323 16.9952 -6.20434 2.65715 7.56353 -4.36606 18.2285
internal_weight=162.131 118.007 110.156 44.1239 23.3976 53.1373 19.2951 57.0189 44.1328 15.3019 41.717 15.1665 25.2772 18.8556 10.9254 28.5808
internal_count=330 214 196 116 73 98 64 98 80 34 64 54 51 29 51 42
is_linear=0
shrinkage=0.0489891


Tree=21
num_leaves=17
num_cat=0
split_feature=1 32 53 71 79 21 61 26 15 51 72 26 30 11 9 41
split_gain=6.29926e+06 2.22842e+06 939022 435825 292000 165669 149047 136581 86097.7 62701.5 59903.3 50518.5 27644.1 23151.2 22424 19564.5
threshold=9386.5000000000018 -77.350097656249986 2.4666748046875004 -89.799987792968736 -5.8500061035156241 -305.49999999999994 2.3999938964843754 -60.499999999999993 176.50000000000003 35.200032552083336 0.83145723585163778 -750.49999999999989 2.6166585286458335 -0.00011129102032070291 -8.5493827160495943 -2.0499877929687496
decision_type=2 2 8 10 10 10 10 10 10 8 10 8 2 2 2 10
left_child=2 5 6 -3 10 -2 8 -6 14 13 -4 -5 -7 -9 -1 -10
right_child=1 3 4 11 7 12 -8 9 15 -11 -12 -13 -14 -15 -16 -17
leaf_value=15.819041876722045 11.694920848097684 -7.0663180696112322 3.2295314477590678 -19.556998947170772 4.4052032833711552 4.4112202734244406 10.676978575382801 10.500541581783283 19.491788416984349 8.883453634003601 -2.3469311141875306 -14.50864913120536 -0.64193944000300074 16.352279868968612 11.876508083455528 16.877033461340087
leaf_weight=5.7596400380134538 6.4872400015592602 10.674407847225664 15.093927817419173 24.449240833520889 9.3020586576312798 4.8881787434220296 14.006959334015844 2.2021526880562323 13.085655629634859 8.7664672397077101 6.6642734743654719 5.9064516425132778 5.5461900103837252 6.165086524561044 8.6801817491650599 14.452777713537214
leaf_count=4 6 24 23 53 19 10 20 18 11 12 22 10 18 37 26 17
internal_value=3.53558 -9.4114 10.7376 -15.5807 5.72472 5.54736 15.0529 9.18419 16.513 11.7787 1.52153 -18.5747 1.72531 14.8122 13.4491 18.1195
internal_weight=162.131 57.9517 104.179 41.0301 48.194 16.9216 55.9852 26.4358 41.9783 17.1337 21.7582 30.3557 10.4344 8.36724 14.4398 27.5384
internal_count=330 121 209 87 131 34 78 86 58 67 45 63 28 55 30 28
is_linear=0
shrinkage=0.0489891


Tree=22
num_leaves=16
num_cat=0
split_feature=25 9 25 25 27 62 22 60 25 16 45 67 74 46 49
split_gain=6.09914e+06 1.28762e+06 968124 856862 387518 252973 146149 136528 121315 76167.1 73144 42413.9 34949 23045.2 16028.5
threshold=125.00000000000001 -20.576923076922998 684.50000000000011 -1066.4999999999998 293.7004838825282 -4.0499877929687491 45.458333333333336 1.4999694824218752 596.50000000000011 -27.499999999999996 -1.1500040690104165 172.94134268199892 10.850036621093752 -0.39999898274739581 -2.3001708984374996
decision_type=10 2 10 8 8 10 8 10 10 8 10 10 10 10 8
left_child=3 -2 5 -1 -5 -3 13 10 11 -9 -4 -7 -12 -6 -10
right_child=1 2 7 4 6 8 -8 9 14 -11 12 -13 -14 -15 -16
leaf_value=-19.556998923370305 -14.585616909741862 14.506886635620921 12.299217703799572 -12.263856377709461 -6.1078835147137402 1.6142062541593587 9.0922607211515434 7.0664066275902293 9.9796909287279352 13.976689015912939 18.214018960742443 5.1074610978855022 14.575497225647187 -0.84651624410540649 6.632888032735428
leaf_weight=20.72633034363389 5.2696981504559508 6.7752185240387908 9.2312426492571813 11.297247707843782 3.4153219331055871 22.490175267681479 3.3619227930903426 7.1938442885875702 6.9506743662059307 8.1817378886044008 23.732678383588791 13.259454037994145 8.6427973918616754 4.8142402879893771 6.7883059307932836
leaf_count=43 5 13 14 25 18 53 11 10 12 19 32 18 28 13 16
internal_value=3.32169 9.08578 10.1873 -12.3412 -5.80705 5.62893 0.485852 14.6882 4.41349 10.7435 16.1459 2.90985 17.2427 -3.03002 8.32607
internal_weight=162.131 118.516 113.246 43.6151 22.8887 56.2638 11.5915 56.9823 49.4886 15.3756 41.6067 35.7496 32.3755 8.22956 13.739
internal_count=330 220 215 110 67 112 42 103 99 29 74 71 60 31 28
is_linear=0
shrinkage=0.0489891


Tree=23
num_leaves=17
num_cat=0
split_feature=25 8 25 53 1 4 65 67 40 40 63 70 13 53 22 8
split_gain=5.86577e+06 1.23907e+06 995371 941990 259926 147970 116989 103895 92835.6 85102.7 61099.6 32493.3 29738.9 28764.3 27393.6 272.377
threshold=58.000000000000007 -1.4699999999999915 684.50000000000011 3.7166748046875004 -253165.49999999997 -1.028809916653308 64.550048828125014 144.44899065903095 -66.206638336181626 -80.690734863281236 -0.16667175292968747 -32.499999999999993 -0.23295477302009157 -1.9499918619791665 -3.6249999999999996 -0.0075000000000002833
decision_type=10 2 10 10 2 10 2 10 2 2 8 10 10 8 8 2
left_child=3 -2 4 -1 -3 10 9 12 14 -5 -4 -10 -7 -9 -6 -8
right_child=1 2 5 6 8 7 15 13 11 -11 -12 -13 -14 -15 -16 -17
leaf_value=-2.4543344218292198 -14.521423978829121 12.765391863843547 7.2647838996844847 -18.016366900785332 8.2846879314311774 14.310490097801484 -19.182113873266623 18.643719214431986 -1.2025009062163738 -3.4432250925069474 13.546204318404191 2.8431986207796864 9.6476890431439077 15.478624031040042 4.5851009017577153 -19.556998753508807
leaf_weight=13.813540460541843 5.3456190526485434 9.0525827873498184 8.3657535165548307 1.8054850436747076 9.4612766206264478 6.981854397803545 6.4016819857060936 17.166957288980484 5.9102141559123984 2.0577605254948166 6.6870440170168868 24.574520314112313 6.1958260312676412 11.512024361640217 9.7565406877547485 17.042208697646856
leaf_count=22 6 20 13 13 16 19 20 13 10 21 22 58 11 24 17 25
internal_value=3.10552 8.53738 9.60308 -12.8794 5.13047 14.2207 -18.153 15.7188 3.73988 -10.254 10.0552 2.05884 12.1182 17.3732 6.40647 -19.4546
internal_weight=162.131 121.01 115.665 41.1207 58.7551 56.9095 27.3071 41.8567 49.7026 3.86325 15.0528 30.4847 13.1777 28.679 19.2178 23.4439
internal_count=330 229 223 101 121 102 79 67 101 34 35 68 30 37 33 45
is_linear=0
shrinkage=0.0489891


Tree=24
num_leaves=16
num_cat=0
split_feature=37 35 9 53 76 43 66 63 43 39 79 6 2 30 43
split_gain=5.45898e+06 1.47827e+06 1.1881e+06 603075 229948 208677 183234 89732.4 86231.6 75731 39749.2 32628.1 32388.6 12171.9 10685.9
threshold=-107.45013427734374 78.700195312500014 -20.576923076922998 -0.13334147135416666 -29.499999999999996 -1.1500091552734373 -0.10596117347612317 -0.23333485921223954 -2.6000213623046871 -4.0000305175781241 12.700012207031252 24000.000000000004 -5.0675257061268359 8.1833496093750018 -7.5500183105468741
decision_type=2 2 2 10 10 2 8 8 2 10 8 2 10 2 2
left_child=1 14 -2 4 9 13 8 10 -5 -4 -8 -10 -9 -3 -1
right_child=2 5 3 6 -6 -7 7 12 11 -11 -12 -13 -14 -15 -16
leaf_value=-17.154351399630869 -13.564755084948898 -6.6255680619041213 13.475949812385242 -1.07269799340449 9.5708696874112995 1.1626408447518466 4.9685786933869682 16.508567972530752 6.1653136762782079 18.218356869684342 11.256848366400083 2.0764016191866457 10.155776291891975 -10.404690593536074 -19.556998862510749
leaf_weight=5.7631471995264318 5.4063974991440764 4.2695961333811301 14.130608979612587 6.0775631964206687 20.387614425271749 16.13971671462059 6.6841451525688154 5.0595510508865118 23.273223148658875 18.876590587198734 3.7749863378703594 5.8635504934936753 3.1098799630999583 3.9263846967369318 19.387934366241097
leaf_count=14 6 26 13 15 26 22 24 23 53 18 6 17 21 6 40
internal_value=2.88447 -10.6778 8.84264 9.97231 13.6615 -2.07007 6.31386 10.2431 4.23528 16.1881 7.23819 5.34245 14.0902 -8.436 -19.0065
internal_weight=162.131 49.4868 112.644 107.238 53.3948 24.3357 53.8429 18.6286 35.2143 33.0072 10.4591 29.1368 8.16943 8.19598 25.1511
internal_count=330 108 222 216 57 54 159 74 85 31 30 70 44 32 54
is_linear=0
shrinkage=0.0489891


Tree=25
num_leaves=16
num_cat=0
split_feature=1 26 53 2 32 8 4 48 16 62 71 15 74 60 45
split_gain=5.75195e+06 1.3749e+06 759549 454707 186477 159629 147448 101306 89519.8 47976.6 38139.8 44340.9 23658.8 22692.6 1133.32
threshold=9386.5000000000018 -79.999999999999986 2.4666748046875004 4.990357016340238 -37.450195312499993 -0.21000000000000082 -0.98759109899731934 8.0498046875000018 -1.0000000180025095e-35 -0.54998779296874989 35.500061035156257 126.50000000000001 8.2500000000000018 -3.6000061035156246 -1.5666605631510413
decision_type=2 8 10 10 2 2 10 10 10 10 10 8 10 10 10
left_child=2 14 6 13 9 -5 -1 10 12 -4 11 -6 -8 -3 -2
right_child=1 3 4 5 7 -7 8 -9 -10 -11 -12 -13 -14 -15 -16
leaf_value=9.5388147416482063 -18.763366083697235 5.645158420019845 14.443316961570398 -13.788956152383978 2.500896740266795 -4.1438503800056337 14.178629771110545 0.066588967124776188 17.361840945547797 7.4235927181877255 1.4604827434936001 7.6723103050309449 10.022806479726651 1.4444207942836402 -19.556998878028544
leaf_weight=15.278673116117714 5.6123405620455769 6.1754363439977169 4.8802579045295715 8.1063993871212023 5.5137919336557433 8.3702272642403823 6.8638343811035138 14.104425612837074 20.540951423346996 4.4830848369747383 5.0415793843567362 14.296074651181698 6.3098512254655361 6.1695936769247073 18.738410118967295
leaf_count=23 16 11 15 13 16 19 9 26 23 13 10 48 21 19 35
internal_value=2.15311 -10.8038 9.23288 -3.56298 4.87474 -8.88918 13.5311 3.38269 15.3402 11.0823 5.26474 6.23292 12.1881 3.54578 -19.3741
internal_weight=150.485 53.1724 97.3125 28.8217 48.3192 16.4766 48.9933 38.9559 33.7146 9.36334 24.8514 19.8099 13.1737 12.345 24.3508
internal_count=317 113 204 62 128 32 76 100 53 28 74 64 30 30 51
is_linear=0
shrinkage=0.0489891


Tree=26
num_leaves=19
num_cat=0
split_feature=1 34 25 5 1 66 27 48 64 45 17 75 13 39 51 49 18 10
split_gain=5.5195e+06 1.34975e+06 748046 369354 250261 185737 128315 122943 83314.5 91408.9 56073 51305.3 31574.6 30694.3 20495.7 16536.2 7850.64 259.361
threshold=60026.500000000007 117.10034179687501 706.50000000000011 6.3910419952056055 -477340.49999999994 0.37988916098925035 2077.4857953181031 1.5502929687500002 -14.83333333333333 -1.6833292643229165 135.83333333333334 22.850097656250004 0.93175091375728747 -11.350006103515623 25.050130208333339 -2.5998535156249996 1.2931610410273753 -0.00020926594375669791
decision_type=2 2 10 8 2 10 10 10 2 10 10 10 10 8 10 8 10 2
left_child=2 3 4 5 -1 12 8 13 -4 -10 11 -9 16 -6 -11 -15 -2 -3
right_child=1 17 6 -5 7 -7 -8 10 9 14 -12 -13 -14 15 -16 -17 -18 -19
leaf_value=14.580801391942414 -0.68245020672788226 -19.163771850659177 16.486331017602687 -15.032321566960961 3.9502845203341979 -5.7580832229116625 17.766182747011371 -6.924893440242764 5.5412461746639377 10.809774958472913 2.8012618168667753 1.6881147471859845 5.9443323503760146 6.9391235288323534 13.935356679966945 10.82584838141794 2.5618156885152725 -19.556998876388192
leaf_weight=5.5942858159542075 3.5251566953957099 5.1291562765836742 7.2983746230602256 5.5435217916965511 6.2181717529892921 10.46228454262018 11.810626298189161 3.1176985427737263 6.5309171155095092 11.312494475394493 21.553912460803986 3.549383856356144 5.3313208371400833 8.172163210809229 9.0735383182764036 3.8716350141912725 3.6368832644075155 18.753406930714846
leaf_count=4 24 12 9 5 11 16 11 14 17 39 23 17 5 22 17 26 8 37
internal_value=1.95753 -10.8822 8.81322 -3.68335 4.79162 -0.942699 13.3636 3.61348 11.8439 10.5851 1.58677 -2.33955 3.08984 6.74544 12.2009 8.18856 0.964987 -19.4725
internal_weight=150.485 52.3817 98.1032 28.4992 52.0773 22.9556 46.026 46.483 34.2153 26.9169 28.221 6.66708 12.4934 18.262 20.386 12.0438 7.16204 23.8826
internal_count=317 107 210 58 117 53 93 113 82 73 54 31 37 59 56 48 32 49
is_linear=0
shrinkage=0.0489891


Tree=27
num_leaves=18
num_cat=0
split_feature=1 26 25 2 50 5 27 26 15 64 45 25 37 30 12 58 12
split_gain=5.30481e+06 1.37168e+06 698285 381083 279829 144832 134122 84644.8 83951.9 79032.1 83890.1 53500.7 47382.5 19911.2 15224 11633.5 1876.1
threshold=60026.500000000007 -79.999999999999986 706.50000000000011 4.990357016340238 4.100016276041667 3.0837963061002927 2077.4857953181031 58.000000000000007 -30.999999999999996 -14.83333333333333 -1.6833292643229165 388.50000000000006 1.0000000180025095e-35 -1.0000000180025095e-35 -0.050899999999999966 7.0474982844522156 -0.26084999999999992
decision_type=2 10 10 10 10 10 10 10 10 2 10 8 2 2 8 10 10
left_child=2 16 4 14 7 -5 9 -1 12 -4 -11 -10 -6 -12 -3 -13 -2
right_child=1 3 6 5 8 -7 -8 -9 11 10 13 15 -14 -15 -16 -17 -18
leaf_value=6.5345694012435791 -18.528904661809019 4.7625710608220579 15.853663583576523 -3.820454069418163 -8.6919535807819415 -13.166518426887128 17.386938203098623 14.624939582267134 1.4181580951934405 5.2741353580653607 12.759502369163473 6.6488714741935677 0.91302652987405664 9.5336149456827961 1.2830831778279372 4.1524229226020184 -19.556998829930514
leaf_weight=5.6469810772687179 5.5043274573981789 6.3912684172391891 7.2983746230602256 8.1005027219653112 2.219094054773449 7.8216171953827134 11.810626298189161 6.8907191157341003 16.454025857150558 6.5309171155095092 13.400082472711803 8.1591974794864637 2.7727298568934202 6.9859503209590939 5.7175913229584712 9.9345032125711423 18.846423223614693
leaf_count=10 15 11 9 19 16 9 11 20 24 17 39 15 19 17 17 13 36
internal_value=1.76837 -10.8191 8.4894 -3.43035 4.60386 -8.41164 12.8858 10.981 2.5817 11.3321 10.1061 3.43977 -3.35682 11.654 3.11962 5.27818 -19.3246
internal_weight=150.485 52.3817 98.1032 28.031 52.0773 15.9221 46.026 12.5377 39.5396 34.2153 26.9169 34.5477 4.99182 20.386 12.1089 18.0937 24.3508
internal_count=317 107 210 56 117 28 93 30 87 82 73 52 35 56 28 28 51
is_linear=0
shrinkage=0.0489891


Tree=28
num_leaves=14
num_cat=0
split_feature=1 21 25 2 32 46 27 54 77 61 16 48 21
split_gain=5.09582e+06 1.38241e+06 649213 362092 254999 146446 136829 78123.8 81262.5 75934.7 53168.8 37676.3 12050.9
threshold=60026.500000000007 -871.49999999999989 706.50000000000011 3.7315147949131462 -49.850097656249993 -0.93333435058593739 2077.4857953181031 12.522863234073698 -23.783284505208332 -5.9000244140624991 -27.499999999999996 2.2502441406250004 368.00000000000006
decision_type=2 10 10 10 2 8 10 8 10 10 8 10 10
left_child=2 -2 4 -3 -1 -5 9 8 -6 -4 -11 -10 -12
right_child=1 3 6 5 7 -7 -8 -9 11 10 12 -13 -14
leaf_value=14.034128980554673 -19.556998957484549 3.0350699973713891 13.670360136637104 -13.145244726756241 -5.1529326444431813 -4.0140763678015974 16.958016097855449 6.2336428953114824 5.1222370441754457 5.6457806675683102 11.863470531222639 1.4050069909328469 8.6916310971588118
leaf_weight=5.8806725703179827 23.551696386188269 11.803887210786344 13.67766275256872 7.6745967920869589 3.5252751857042268 9.3515499494969863 11.810626298189161 14.157314924523233 10.173795823007827 7.4228825271129608 8.8590811826288718 18.340192150324583 4.2556980699300757
leaf_count=19 49 27 15 14 12 17 11 13 37 20 30 36 17
internal_value=1.58527 -10.7518 8.17258 -3.55867 4.42606 -8.12998 12.4117 3.20298 1.86381 10.8424 8.95897 2.73132 10.8342
internal_weight=150.485 52.3817 98.1032 28.83 52.0773 17.0261 46.026 46.1966 32.0393 34.2153 20.5377 28.514 13.1148
internal_count=317 107 210 58 117 31 93 98 85 82 67 73 47
is_linear=0
shrinkage=0.0489891


Tree=29
num_leaves=14
num_cat=0
split_feature=26 6 23 65 28 13 69 24 40 79 67 51 72
split_gain=4.58636e+06 1.00469e+06 746583 333147 291467 215766 178833 143624 102596 81855.7 59901.6 21363.5 16580.5
threshold=-750.49999999999989 27100.000000000004 1056.5933601314478 41.499938964843757 838.1451869972783 -0.48832471060859689 689.50000000000011 649.00000000000011 -356.02677917480463 -8.1500244140624982 172.94134268199892 17.450032552083339 0.87459236735743484
decision_type=8 2 8 2 2 10 2 10 2 10 10 8 8
left_child=5 2 7 6 9 -1 8 -2 -4 -3 12 -11 -9
right_child=1 4 3 -5 -6 -7 -8 10 -10 11 -12 -13 -14
leaf_value=-8.8499972306452968 -6.8454471146171132 -4.043091865125608 4.8029164100588515 3.5456440626172756 -13.265780762656272 -19.556998880307642 17.970615162802712 1.5830716139361609 11.735823921555063 6.1709677436903512 4.8101145033543276 0.89049023490135282 -2.0026422258092613
leaf_weight=5.7952050603926208 4.235078837722539 8.3079876117408311 5.9424884505569926 13.481273887678979 6.0836429093033066 20.478487245738506 10.279889836907385 10.243188424035907 37.132906364277005 3.0300814248621437 16.363015245646238 4.6768319196999109 4.4348546043038377
leaf_count=18 17 15 6 27 9 33 7 22 90 16 22 17 18
internal_value=1.40012 5.33352 7.38315 10.4264 -4.13742 -17.1953 12.1649 1.61728 10.7794 -0.669797 2.77189 2.96659 0.499676
internal_weight=150.485 124.211 102.113 66.8366 22.0985 26.2737 53.3553 35.2761 43.0754 16.0149 31.0411 7.70691 14.678
internal_count=317 266 209 130 57 51 103 79 96 48 62 33 40
is_linear=0
shrinkage=0.0489891


Tree=30
num_leaves=14
num_cat=0
split_feature=34 27 28 45 79 16 47 2 62 76 56 12 58
split_gain=4.52708e+06 1.04544e+06 887407 304047 298315 184248 151810 130540 83349.1 32167.7 28285.3 18643.5 528.436
threshold=112.50000000000001 1973.3897915782316 285.70408796744181 1.883341471354167 -6.8499908447265616 47.500000000000007 12.050048828125002 16.460453795859326 -5.0999755859374991 -34.800048828124993 -0.74618597304387657 -0.016650000000000022 4.6173142902535877
decision_type=2 8 2 8 10 8 10 10 10 10 8 10 8
left_child=1 2 4 12 9 -3 8 10 -6 -1 -4 -11 -2
right_child=3 5 7 -5 6 -7 -8 -9 -10 11 -12 -13 -14
leaf_value=-0.49457861548988802 -18.959007543509014 10.032970840824913 -6.1699105878471698 -5.5339698410441267 11.354443704575324 18.055997741130046 1.4618221797759927 -11.848847843614786 6.974780877199219 4.4230292734474848 -1.0934270630299849 1.4707073700276341 -19.556998693839795
leaf_weight=12.361725464463232 4.4829715974628952 14.537690982222555 4.7405015602707863 4.5836974177509573 15.712046742439268 13.023485556244852 8.8855597991496307 7.3060708045959464 31.011267013847828 8.515089888125658 5.9281606301665324 12.925429582595825 16.998734479770064
leaf_count=26 8 15 11 11 19 14 15 5 111 11 20 21 39
internal_value=1.70268 5.31286 3.12841 -16.9881 5.12515 13.8241 7.33134 -6.80394 8.44757 1.4957 -3.34911 2.64322 -19.4322
internal_weight=161.012 134.947 107.386 26.0654 89.4111 27.5612 55.6089 17.9747 46.7233 33.8022 10.6687 21.4405 21.4817
internal_count=326 268 239 58 203 29 145 36 130 58 31 32 47
is_linear=0
shrinkage=0.0489891


Tree=31
num_leaves=13
num_cat=0
split_feature=26 27 1 25 1 12 8 35 71 19 39 17
split_gain=4.54908e+06 994198 886590 349365 217810 210477 125421 80526.8 68424.2 41488.1 36288.8 31732.2
threshold=-750.49999999999989 1973.3897915782316 342513.50000000006 745.00000000000011 -222097.49999999997 -0.35589999999999999 -1.0000000180025095e-35 45.400146484375007 10.899993896484377 -2.4989660565764087 8.7000427246093768 147.50000000000003
decision_type=8 10 2 10 2 10 2 2 10 10 10 10
left_child=5 2 3 7 -3 -1 -4 10 9 -5 -2 -9
right_child=1 4 6 8 -6 -7 -8 11 -10 -11 -12 -13
leaf_value=-9.2100888703235722 3.359431630008511 17.945546089793666 -9.6813126676835708 14.588098069007605 9.2298809622366562 -19.55699878503178 -2.1322449537451864 -3.5934013002291234 6.0763906624050685 9.6326541998028237 7.5542939405436957 1.316860447426256
leaf_weight=6.1692427825182703 34.009988158941269 13.421714346855881 10.68455225042999 5.4202479328960171 14.121576443314551 20.06112552061677 10.445402473211287 4.7541577517986289 10.626938436180351 16.09424092434347 5.7921058740466824 9.4111386239528638
leaf_count=10 90 15 17 7 13 41 13 30 13 49 19 9
internal_value=1.54228 5.17489 3.04257 5.2491 13.477 -17.1235 -5.9495 2.84096 9.29252 10.8811 3.96988 -0.331121
internal_weight=161.012 134.782 107.239 86.1088 27.5433 26.2304 21.13 53.9674 32.1414 21.5145 39.8021 14.1653
internal_count=326 275 247 217 28 51 30 148 69 56 109 39
is_linear=0
shrinkage=0.0489891


Tree=32
num_leaves=12
num_cat=0
split_feature=26 27 1 25 53 12 8 77 71 39 55
split_gain=4.45352e+06 960029 812342 317766 261043 218654 117111 77681.5 62776.3 53234.5 30650.9
threshold=-750.49999999999989 1973.3897915782316 342513.50000000006 745.00000000000011 -6.7666422526041661 -0.35589999999999999 -1.0000000180025095e-35 -28.850016276041661 10.899993896484377 10.000000000000002 13.799926757812502
decision_type=8 10 2 10 8 10 2 10 10 8 10
left_child=5 2 3 7 -3 -1 -4 -2 10 -9 -5
right_child=1 4 6 8 -6 -7 -8 9 -10 -11 -12
leaf_value=-9.011012805949715 -5.3357948158018589 17.843360778161895 -9.3224672208977264 8.7369564353167757 8.3038670133655739 -19.55699878503178 -2.027788194028032 2.5949256495566817 5.7787138794667898 7.7456041612673578 12.46072582708552
leaf_weight=6.1692427825182703 2.7363580055534831 13.976149559020994 10.68455225042999 12.016641588881614 13.567141231149437 20.06112552061677 10.445402473211287 45.850115101784468 10.626938436180351 5.380917301401495 9.4978472683578712
leaf_count=10 11 8 17 36 20 41 13 111 13 26 20
internal_value=1.39201 4.98626 2.8909 5.00302 13.1444 -17.0766 -5.71641 2.70636 8.85925 3.13591 10.3809
internal_weight=161.012 134.782 107.239 86.1088 27.5433 26.2304 21.13 53.9674 32.1414 51.231 21.5145
internal_count=326 275 247 217 28 51 30 148 69 137 56
is_linear=0
shrinkage=0.0489891


Tree=33
num_leaves=14
num_cat=0
split_feature=26 27 1 25 1 12 12 6 15 79 75 70 41
split_gain=4.35983e+06 927045 743097 290192 233713 226805 97210.6 78541.7 53122.1 45989.1 45229.4 22049.1 10216.9
threshold=-750.49999999999989 1973.3897915782316 342513.50000000006 603.50000000000011 -222097.49999999997 -0.35589999999999999 -0.035499999999999997 -8249.9999999999982 107.00000000000001 0.54998779296875011 -68.300048828124986 16.350097656250004 1.8500366210937502
decision_type=8 10 2 10 2 10 10 2 8 10 10 8 8
left_child=5 2 3 8 -3 -1 -4 10 11 -10 -5 -2 -9
right_child=1 4 6 7 -6 -7 -8 12 9 -11 -12 -13 -14
leaf_value=-8.8162398995030564 -3.8653898112860916 17.44440659545722 -9.0633797911455467 12.71093388839218 8.4161572399323923 -19.55699878503178 -2.4005129684083695 3.8001502081266492 1.7168905291353638 5.6701520786751578 8.074240353772387 1.2487967166781011 6.6024010397189317
leaf_weight=6.1692427825182703 4.5389583334326726 13.421714346855881 9.8058528359979409 6.6187947690486935 14.121576443314551 20.06112552061677 11.324101887643335 9.6580870021134597 26.051559519022703 9.6887436211109144 21.28805329836905 3.6502421274781227 4.6143790315836659
leaf_count=10 17 15 14 7 13 41 16 28 56 28 53 13 15
internal_value=1.24253 4.79876 2.73972 4.75981 12.8156 -17.0308 -5.49257 7.66215 1.97311 2.78857 9.17395 -1.5858 4.70614
internal_weight=161.012 134.782 107.239 86.1088 27.5433 26.2304 21.13 42.1793 43.9295 35.7403 27.9068 8.1892 14.2725
internal_count=326 275 247 217 28 51 30 103 114 84 60 30 43
is_linear=0
shrinkage=0.0489891


Tree=34
num_leaves=12
num_cat=0
split_feature=25 54 28 25 77 12 35 48 63 23 15
split_gain=4.23395e+06 933299 797547 421623 269431 131768 87573.3 83966.3 67218.1 54019.8 32496.4
threshold=-750.49999999999989 29.287523682044036 285.70408796744181 745.00000000000011 -20.049967447916661 -0.15514999999999998 48.700195312500007 9.2497558593750018 0.40000152587890631 1570.3569738466488 158.00000000000003
decision_type=8 10 2 10 10 10 2 10 10 8 10
left_child=4 2 3 7 -1 -4 8 9 -5 -2 -9
right_child=1 -3 5 6 -6 -7 -8 10 -10 -11 -12
leaf_value=-7.6056423859844786 2.7860604895949042 19.556997897672154 -12.03591265554221 5.0094111295522685 -19.556998900181149 -3.1151733445558367 13.056202681287091 -3.0421641777349775 9.3245004466757599 7.1423166410579952 1.2787563711241192
leaf_weight=5.8159484192729023 35.43457462452352 9.3194987773895246 5.7645692415535477 14.223870433866976 20.426883907988667 12.792131595313547 8.9115813188254815 6.7577891983091858 22.16360229998827 8.4633520152419788 10.938629686832426
leaf_count=14 81 4 14 24 36 27 15 26 46 31 8
internal_value=1.09418 4.5997 3.48854 5.11603 -16.9083 -5.88637 8.7037 2.47751 7.63773 3.62593 -0.371287
internal_weight=161.012 134.77 125.45 106.893 26.2428 18.5567 45.2991 61.5943 36.3875 43.8979 17.6964
internal_count=326 276 272 231 50 41 85 146 70 112 34
is_linear=0
shrinkage=0.0489891


Tree=35
num_leaves=12
num_cat=0
split_feature=26 15 28 68 64 8 37 60 5 54 74
split_gain=4.33051e+06 773287 747445 346833 272796 159210 127338 70459 68152.2 30698 29173.4
threshold=-750.49999999999989 333.50000000000006 285.70408796744181 84.500000000000014 -11.83333333333333 -1.4699999999999915 -125.79998779296874 -8.3000183105468732 -1.1322841754242599 10.276132509282363 17.699890136718754
decision_type=8 10 2 8 2 2 2 8 10 10 10
left_child=4 2 3 6 -1 -4 10 -5 -8 -7 -2
right_child=1 -3 5 7 -6 9 8 -9 -10 -11 -12
leaf_value=-7.5195799151911995 -2.8653501271823787 19.154376351737742 -12.373380409902881 7.6572917307022434 -19.556999022322351 0.017744699419609565 5.893576856177881 12.986060215313351 2.7637717351186404 -4.5982269341651039 1.5183971961307907
leaf_weight=5.679314203560355 7.6903304941952211 7.7784083709120742 5.7044886648654964 13.283402264118193 22.10089585185051 5.8959361035376778 31.973671423271298 10.794001726433637 34.947414943948388 8.3609243631362897 6.9231545329093933
leaf_count=6 28 7 7 9 49 24 61 19 98 12 5
internal_value=0.499725 4.16534 3.23687 4.88002 -17.0961 -5.45678 3.35444 10.0462 4.25914 -2.68929 -0.788545
internal_weight=161.132 133.352 125.573 105.612 27.7802 19.9613 81.5346 24.0774 66.9211 14.2569 14.6135
internal_count=325 270 263 220 55 43 192 28 159 36 33
is_linear=0
shrinkage=0.0489891


Tree=36
num_leaves=13
num_cat=0
split_feature=26 1 1 77 64 8 66 0 47 58 35 26
split_gain=4.24431e+06 901382 579058 297296 280857 145533 117554 77431.6 66548.2 49583.9 33719.7 19086.2
threshold=-750.49999999999989 342513.50000000006 -477340.49999999994 26.166748046875004 -11.83333333333333 -0.0075000000000002833 -0.22054340277925941 7.8000000000000052 0.75000000000000011 6.892485671440439 17.699951171875004 -114.49999999999999
decision_type=8 2 2 8 2 2 8 2 10 8 2 8
left_child=4 2 -2 8 -1 -3 11 -8 9 -4 -10 -5
right_child=1 5 3 6 -6 -7 7 -9 10 -11 -12 -13
leaf_value=-7.3430230075602045 18.883746142038813 -9.2568247330330209 8.9841608561401252 1.9402447380610846 -19.556999022322351 -1.3602295074715556 7.8407086305611271 13.378920743869207 2.3911201149417085 2.1368488750212955 -0.52183539217651664 5.3602421947928107
leaf_weight=5.679314203560355 7.5735581927001467 10.204256100580098 5.3633851762860987 6.3083960264921188 22.10089585185051 12.416972219943998 27.575213998556137 7.7647096402943125 25.905998084694147 4.8180178441107282 15.093696668744085 10.327528934925796
leaf_count=6 7 16 27 8 49 15 52 17 52 8 40 28
internal_value=0.359811 3.98876 5.80921 4.8493 -17.06 -4.92232 7.45905 9.05754 2.19903 5.74389 1.31874 4.06337
internal_weight=161.132 133.352 110.731 103.157 27.7802 22.6212 51.9758 35.3399 51.1811 10.1814 40.9997 16.6359
internal_count=325 270 239 232 55 31 105 69 127 35 92 36
is_linear=0
shrinkage=0.0489891


Tree=37
num_leaves=12
num_cat=0
split_feature=25 1 1 25 4 12 16 25 47 5 22
split_gain=4.12977e+06 804021 573798 304931 254556 128465 106119 68132.4 61537.6 38741.1 1735.46
threshold=-750.49999999999989 342513.50000000006 -477340.49999999994 706.50000000000011 0.97161212237781414 -0.035499999999999997 -27.499999999999996 984.50000000000011 16.250244140625004 -1.1322841754242599 13.29166666666667
decision_type=8 2 2 10 10 10 8 10 10 10 8
left_child=4 2 -2 8 -1 -3 -5 -8 9 -4 -6
right_child=1 5 3 6 10 -7 7 -9 -10 -11 -12
leaf_value=-7.709056434448792 18.527750669939444 -8.7810212852224332 4.5580835721401174 4.3088079563832595 -19.556998810533251 -1.299026545941725 7.6258191662001504 12.635218980467741 -2.7396202072890583 1.679618377371513 -18.505240354563284
leaf_weight=5.6904837340116527 7.5735581927001467 10.091873733326794 16.923885246738791 16.830022566020489 17.288262162357569 12.123727507889269 21.481589926406745 9.3530744351446611 5.6579711548984042 33.303566100075841 4.8139281831681755
leaf_count=6 7 15 38 25 39 16 50 17 13 90 9
internal_value=0.22953 3.81015 5.51105 4.55902 -16.949 -4.69787 7.43759 9.14532 2.1039 2.6495 -19.3279
internal_weight=161.132 133.339 111.124 103.55 27.7927 22.2156 47.6647 30.8347 55.8854 50.2275 22.1022
internal_count=325 271 240 233 54 31 92 67 141 128 48
is_linear=0
shrinkage=0.0489891


Tree=38
num_leaves=12
num_cat=0
split_feature=26 1 15 64 77 12 57 35 49 53 26
split_gain=4.08933e+06 767696 564573 296549 247767 125266 93412.8 55950.6 51400.2 30810.4 26986.9
threshold=-750.49999999999989 342513.50000000006 333.50000000000006 -11.83333333333333 26.166748046875004 -0.052849999999999987 130.66666666666671 17.699951171875004 -20.600097656249996 0.49995930989583343 745.00000000000011
decision_type=8 2 10 2 8 8 2 2 10 10 10
left_child=3 2 4 -1 7 -3 8 9 -6 -2 -9
right_child=1 5 -4 -5 6 -7 -8 10 -10 -11 -12
leaf_value=-7.0064592244800421 4.8453158689595321 -8.9314862643626611 18.075928686683724 -19.556999022322351 12.564397093124352 -1.5180780266607152 3.2935073713913932 -3.4643799248630658 7.3107509824626415 1.8854195807779592 0.90402218039791493
leaf_weight=5.679314203560355 14.038678634911774 9.2639516592025739 7.7784083709120742 22.10089585185051 5.1705116890370837 13.357276661321523 13.595052465796469 4.8795536458492306 32.957127843052149 21.163390709087253 11.147781208157538
leaf_count=6 18 11 7 49 6 20 14 25 83 69 17
internal_value=0.10763 3.66971 5.34975 -16.9912 4.38824 -4.55405 6.78002 1.97342 8.0232 3.06583 -0.425946
internal_weight=161.132 133.352 110.731 27.7802 102.952 22.6212 51.7227 51.2294 38.1276 35.2021 16.0273
internal_count=325 270 239 55 232 31 103 129 89 87 42
is_linear=0
shrinkage=0.0489891


Tree=39
num_leaves=12
num_cat=0
split_feature=21 15 5 77 64 16 0 33 52 16 42
split_gain=3.98276e+06 698708 592089 327152 303721 95878.3 74749.2 70590.1 40451.7 27935.9 26299.6
threshold=-1176.9999999999998 333.50000000000006 3.0837963061002927 18.050130208333339 -11.83333333333333 -27.499999999999996 6.6999999999999966 29.150390625000004 1.0000000180025095e-35 17.500000000000004 3.4500122070312504
decision_type=8 10 10 8 2 8 2 2 8 10 10
left_child=4 2 3 7 -1 8 -7 10 -5 -9 -2
right_child=1 -3 -4 5 -6 6 -8 9 -10 -11 -12
leaf_value=-6.4852233928393961 2.9994945535293702 17.720815899345769 -8.2094635782572922 5.6706543539184819 -19.556999022322351 6.1657490364497649 10.865890742415111 0.02941129566155188 1.4602490985523457 -3.7204654608669929 -0.14979352922956235
leaf_weight=5.2861511483788517 25.662393718957901 7.7784083709120742 11.106030488386748 10.681931316852568 22.10089585185051 27.290809597820044 11.560371324419974 12.094341078773143 11.237383618950846 7.8707513511180869 8.4624750763177854
leaf_count=5 42 7 27 14 49 62 25 34 16 15 29
internal_value=-0.0136502 3.47161 2.59172 3.6361 -17.0339 6.10271 7.5643 0.864845 3.5121 -1.44889 2.21852
internal_weight=161.132 133.745 125.966 114.86 27.387 60.7705 38.8512 54.09 21.9193 19.9651 34.1249
internal_count=325 271 264 237 54 117 87 120 30 49 71
is_linear=0
shrinkage=0.0489891


Tree=40
num_leaves=15
num_cat=0
split_feature=33 67 23 12 24 66 6 2 76 56 3 1 76 73
split_gain=3.36077e+06 879384 495142 323087 257199 157401 87913.6 64915.5 48786.1 43154.9 27813.2 22984.7 19768.2 576.952
threshold=122.75000000000001 227.92933564295978 1056.5933601314478 -0.38344999999999979 336.50000000000006 -0.22054340277925941 -24874.999999999996 2.659746985797304 -42.099853515624993 1.1281050650062274 10.755040137897348 -79072.999999999985 -34.800048828124993 10.119524384906127
decision_type=2 10 8 10 10 8 2 10 8 10 10 2 10 10
left_child=1 2 4 -2 -1 9 8 11 -7 12 -8 -6 -4 -5
right_child=3 -3 5 13 7 6 10 -9 -10 -11 -12 -13 -14 -15
leaf_value=-13.043995604267124 -5.8195874581535909 18.289045204207195 1.8486067879557246 -18.989698221262952 -0.99117288642770218 10.944112050635578 6.1721508406496302 -3.1210424383522675 6.5770615846745279 0.053725781511224417 2.5568901342494907 1.8953430357294558 5.0451802031912445 -19.556998663019257
leaf_weight=4.0253709014505139 5.5227112509310272 9.3194987773895246 7.4571966826915768 6.939099699258807 9.348731109872455 13.425170388072727 11.975486146286132 12.404739573597906 11.31246765330434 11.398781042546032 8.9044570624828321 22.686033852398399 12.303171008825304 11.329878903925417
leaf_count=20 14 4 11 20 36 14 24 22 31 19 33 37 36 13
internal_value=0.770085 3.77104 2.69072 -16.2027 -1.18624 5.13803 6.97125 -0.112155 8.94707 2.45416 4.63039 1.05297 3.83885 -19.3415
internal_weight=158.353 134.561 125.242 23.7917 48.4649 76.7767 45.6176 44.4395 24.7376 31.1591 20.8799 32.0348 19.7604 18.269
internal_count=334 287 283 47 115 168 102 95 45 66 57 73 47 33
is_linear=0
shrinkage=0.0489891


Tree=41
num_leaves=14
num_cat=0
split_feature=26 54 25 51 70 38 4 5 11 54 34 33 22
split_gain=3.73474e+06 833502 427455 290627 122147 71755.6 61342.4 61649.4 50434 27560.1 27227.6 18643.7 14513.9
threshold=-750.49999999999989 29.287523682044036 745.00000000000011 35.883300781250007 21.350097656250004 16.141627813694299 -1.028809916653308 0.096322206282851652 -2.6178356153039314e-05 10.396445406136976 -17.150146484374996 11.750000000000002 -2.7083333333333326
decision_type=8 10 10 10 10 2 10 8 2 8 2 2 8
left_child=3 2 4 -1 5 9 11 8 -8 -2 -6 -4 -12
right_child=1 -3 6 -5 10 -7 7 -9 -10 -11 12 -13 -14
leaf_value=-7.2479081038623345 0.5144501854445227 18.058970358839471 6.0739884256287411 -19.555366830893725 4.8445342067530328 -6.2457207192134501 6.9298561685035338 3.7842420976553219 11.330845467617831 -2.9787841523302441 3.1255809434357742 2.5296294389224618 0.9885911055816845
leaf_weight=6.0544086452573564 17.932157218456272 9.3194987773895246 5.7265795283019534 19.22992211394012 8.0168280731886608 6.6648756116628638 14.83429069072008 7.6964427940547457 10.797966491431 7.7684804499149314 11.263905150815843 9.4214155226945859 23.626022985205054
leaf_count=21 57 4 13 30 25 23 22 17 18 10 25 20 49
internal_value=0.651201 3.93068 2.86668 -16.6083 0.55609 -1.7161 6.45446 7.6293 8.78384 -0.541442 2.27005 3.86955 1.6785
internal_weight=158.353 133.068 123.749 25.2843 75.2723 32.3655 48.4767 33.3287 25.6323 25.7006 42.9068 15.148 34.8899
internal_count=334 283 279 51 189 90 90 57 40 67 99 33 74
is_linear=0
shrinkage=0.0489891


Tree=42
num_leaves=12
num_cat=0
split_feature=25 54 47 25 4 6 25 56 46 60 62
split_gain=3.64029e+06 922487 601739 342435 82844 57942.9 57956.8 47334.3 20642.4 12385.6 17.5842
threshold=-1066.4999999999998 29.287523682044036 24.150146484375004 745.00000000000011 0.95057616339928408 -8249.9999999999982 965.50000000000011 1.1304532947758152 -1.1499989827473958 -10.249999999999998 6.4500122070312509
decision_type=8 10 10 10 10 2 10 10 10 10 8
left_child=10 2 3 4 7 6 -5 -2 -6 -7 -1
right_child=1 -3 -4 5 8 9 -8 -9 -10 -11 -12
leaf_value=-19.55699884684541 2.3441839460737288 16.480339047485142 -10.678169249233045 5.600861375196148 -5.1120825182065124 5.2850121254397227 9.688639581359805 -1.9330866851689168 -1.1741189334234616 2.2242586873562478 -19.448665157497601
leaf_weight=14.226250190287827 45.862785585224628 11.648331642150877 8.2971699647605401 21.468982815742493 4.1730468459427383 5.1514251828193656 13.595000077039002 7.1815889310091725 13.624682214111088 8.2612869516015035 4.8622436523437527
leaf_count=33 119 5 13 36 18 6 19 12 37 29 7
internal_value=0.533262 3.28319 2.0786 2.96567 0.7947 6.13826 7.18577 1.76509 -2.09746 3.3998 -19.5294
internal_weight=158.353 139.264 127.616 119.319 70.8421 48.4767 35.064 53.0444 17.7977 13.4127 19.0885
internal_count=334 294 289 276 186 90 55 131 55 35 40
is_linear=0
shrinkage=0.0489891


Tree=43
num_leaves=15
num_cat=0
split_feature=26 3 25 13 5 25 4 7 61 52 73 13 78 2
split_gain=3.64254e+06 786164 345633 320409 107997 61938 54094.6 52590.3 38263 28440 24462.9 18998.2 13228.1 14.748
threshold=-750.49999999999989 18.280579075111294 745.00000000000011 -0.48832471060859689 3.0837963061002927 249.00000000000003 -1.028809916653308 4752.0000000000009 -5.0499877929687491 2.5499877929687504 7.0281110056250586 -0.60038741847189214 -13.900009155273436 -0.96092137857576709
decision_type=8 10 8 10 8 10 10 8 8 10 10 8 10 10
left_child=3 2 4 -1 5 9 11 12 -9 -2 -7 -4 -8 -5
right_child=1 -3 6 13 -6 10 7 8 -10 -11 -12 -13 -14 -15
leaf_value=-6.1286691664056923 1.6928395036178605 17.154164020305767 5.4065058005881896 -19.46733208212423 -4.870137602423311 4.7624980608492287 3.6166556233463418 11.761333294466281 6.7887799324814502 -2.1819279788413808 1.6836434906157751 1.8955539718504422 6.2806170125942966 -19.5569987181056
leaf_weight=5.4650280214846161 6.5263932012021568 9.6038950346410257 6.4554863497614861 6.7245732471346917 7.9765046164393416 7.3958601597696534 7.6402834616601494 6.9060929864645004 8.0343704223632795 14.982232026755808 38.093087129294872 8.661715239286421 10.792542666196821 13.094729490578169
leaf_count=18 13 11 12 9 18 36 11 6 26 46 63 22 19 24
internal_value=0.41442 3.65316 2.60297 -16.6307 0.518436 1.15998 5.82599 6.92723 9.0873 -1.0062 2.18422 3.39483 5.17642 -19.5266
internal_weight=158.353 133.068 123.465 25.2843 74.9741 66.9976 48.4905 33.3733 14.9405 21.5086 45.4889 15.1172 18.4328 19.8193
internal_count=334 283 272 51 176 158 96 62 32 59 99 34 30 33
is_linear=0
shrinkage=0.0489891


Tree=44
num_leaves=14
num_cat=0
split_feature=26 54 13 25 5 35 6 25 39 22 30 39 2
split_gain=3.57246e+06 805834 326014 315001 100848 61011 48921.5 48733.2 26247 21708.3 21016.4 12119.9 67.6983
threshold=-750.49999999999989 29.287523682044036 -0.48832471060859689 745.00000000000011 3.0837963061002927 47.599853515625007 -8249.9999999999982 951.50000000000011 6.1000366210937509 6.4583333333333348 0.58331298828125011 29.600006103515629 -0.96092137857576709
decision_type=8 10 10 10 10 2 2 8 8 8 2 8 10
left_child=2 3 -1 4 5 8 7 10 -2 -7 -5 -8 -4
right_child=1 -3 12 6 -6 9 11 -9 -10 -11 -12 -13 -14
leaf_value=-5.9774499013855111 1.4193387990355091 17.408670371487752 -19.365578120827099 6.7635821340065707 -4.6918525625216274 -0.19449999857139538 4.151910854168757 8.8081504727328657 4.0986423535636849 -3.8760846793652362 3.6808921639128722 1.0939086676016512 -19.5569987181056
leaf_weight=5.4650280214846161 34.527380898594856 9.3194987773895246 6.7245732471346917 9.6027823388576561 8.057541696354745 15.848212137818335 8.510708235204218 13.595000077038998 11.764628686010836 5.0745060704648521 11.86620047688484 4.902003899216651 13.094729490578169
leaf_count=18 84 4 9 21 22 31 19 19 31 21 15 16 24
internal_value=0.309405 3.51684 -16.571 2.47065 0.487146 1.10799 5.55055 6.51307 2.10026 -1.08742 5.05974 3.03429 -19.4921
internal_weight=158.353 133.068 25.2843 123.749 75.2723 67.2147 48.4767 35.064 46.292 20.9227 21.469 13.4127 19.8193
internal_count=334 283 51 279 189 167 90 55 115 52 36 35 33
is_linear=0
shrinkage=0.0489891


Tree=45
num_leaves=13
num_cat=0
split_feature=25 22 41 66 25 28 63 7 47 47 54 71
split_gain=3.32446e+06 688421 460197 348243 234840 71347.4 56736 53033.7 49655.1 23718.5 20390.5 339.397
threshold=-1066.4999999999998 45.458333333333336 8.1499633789062518 0.95889971392095952 745.00000000000011 285.70408796744181 0.40000152587890631 4752.0000000000009 8.2501220703125018 -0.34985351562499994 10.607696435075658 18.850036621093754
decision_type=8 10 10 8 10 2 10 8 8 8 10 10
left_child=11 2 4 8 5 9 -6 -8 -4 -2 -7 -1
right_child=1 -3 3 -5 6 10 7 -9 -10 -11 -12 -13
leaf_value=-19.097361313163926 4.2477221139910304 13.779968410103407 2.1654144818822032 -19.55699676092307 2.9786237567986023 -0.53168620052147586 4.5882782428286308 9.0352374343768727 -5.5471460066070568 1.0595887680768192 -4.0458536945968016 -19.556732809579486
leaf_weight=5.3891634587198523 6.4323593620210886 11.800041005015371 3.8574311677366486 3.9845761470496646 16.224578320980072 7.8644919209182245 13.717567022889851 12.125081801787021 4.1681670621037474 43.294989321380854 7.9869013279676437 13.621864182874559
leaf_count=9 30 10 13 3 22 27 29 25 16 88 10 34
internal_value=-0.278374 2.49081 1.37751 -7.71803 2.39231 0.55967 5.24922 6.67474 -1.84017 1.47198 -2.30234 -19.4265
internal_weight=150.467 131.456 119.656 12.0102 107.646 65.5787 42.0672 25.8426 8.0256 49.7273 15.8514 19.011
internal_count=316 273 263 32 231 155 76 54 29 118 37 43
is_linear=0
shrinkage=0.0489891


Tree=46
num_leaves=12
num_cat=0
split_feature=25 1 74 25 25 63 7 49 6 71 70
split_gain=3.24101e+06 701248 472287 233628 70602.3 56363.5 47163.4 34338.4 33575.4 1397.08 2.97589
threshold=-1066.4999999999998 -477340.49999999994 -10.400024414062498 745.00000000000011 198.50000000000003 0.40000152587890631 4752.0000000000009 6.3997802734375009 35200.000000000007 18.850036621093754 -50.449707031249993
decision_type=8 2 8 10 10 10 8 10 2 10 8
left_child=9 -2 -3 4 7 -5 -7 -4 -6 -1 -11
right_child=1 2 3 5 8 6 -8 -9 -10 10 -12
leaf_value=-18.610118517600618 14.614753771946841 -10.919697232309005 -0.87190562211507427 2.7607453683731871 1.799014413133607 4.4030197674682681 8.5926092198176836 -5.4402762204356812 -1.8446289921557943 -19.556998332496423 -19.505454540099695
leaf_weight=5.3891634587198523 10.330180009827016 7.1235840916633606 13.899178063496949 17.42318831384182 44.230398131534457 13.77408095449209 12.125081801787021 5.515735672786831 7.0347574204206458 9.6549304313957673 3.9669337514787903
leaf_count=9 8 16 40 24 88 30 25 20 22 21 13
internal_value=-0.371525 2.36268 1.31777 2.08244 0.346189 4.91512 6.36444 -2.16977 1.29902 -19.2778 -19.542
internal_weight=150.467 131.456 121.126 114.002 70.6801 43.3224 25.8992 19.4149 51.2652 19.011 13.6219
internal_count=316 273 265 249 170 79 55 60 110 43 34
is_linear=0
shrinkage=0.0489891


Tree=47
num_leaves=13
num_cat=0
split_feature=26 1 2 32 77 79 42 35 19 74 66 2
split_gain=2.95848e+06 606827 389081 364965 170686 56139.5 60565.5 50190.1 24591.3 19339.1 10248.4 8098.59
threshold=-750.49999999999989 -477340.49999999994 20.57723895912574 32.000000000000007 26.166748046875004 7.0499877929687509 2.1500854492187504 17.699951171875004 -0.70955747252063051 9.0000610351562518 -0.074593428400350562 -1.4387776384822601
decision_type=8 2 8 2 8 10 8 2 10 8 10 10
left_child=3 -2 4 -1 7 6 -6 8 -3 -9 -7 -5
right_child=1 2 -4 11 5 10 -8 9 -10 -11 -12 -13
leaf_value=-2.7340476494097996 15.605643130069003 3.4194157859090688 -11.462217623897125 -17.40228466659557 4.9165497135727767 1.4923111982385899 10.971384560153112 -2.052266415102789 0.85713530200979349 0.55780572508041948 3.6262311899211288 -19.556998543804394
leaf_weight=4.0178191661834743 8.0013471450656635 14.308136060833926 5.1807152032852164 5.9661566335707965 19.864268913865089 9.2799549624323863 4.9534698110073832 15.751159500330685 24.182131575420502 12.005767975002529 12.923011008650063 14.03327414579689
leaf_count=2 7 29 4 15 49 20 17 35 60 20 21 37
internal_value=-0.445479 2.54827 1.66623 -16.2075 2.2667 4.52398 6.12506 0.664544 1.80962 -0.923326 2.73434 -18.9142
internal_weight=150.467 126.45 118.449 24.0172 113.268 47.0207 24.8177 66.2472 38.4903 27.7569 22.203 19.9994
internal_count=316 262 255 54 251 107 66 144 89 55 41 52
is_linear=0
shrinkage=0.0489891


Tree=48
num_leaves=11
num_cat=0
split_feature=25 15 74 25 5 51 63 22 49 2
split_gain=3.08735e+06 624600 448101 185776 68055.1 51164.1 47983.6 39069 30845.8 6022.54
threshold=-1066.4999999999998 439.50000000000006 -10.400024414062498 745.00000000000011 0.89256033773292653 10.966634114583336 0.40000152587890631 -9.7083333333333304 12.400024414062502 -0.96092137857576709
decision_type=8 10 8 10 8 10 10 10 8 10
left_child=9 2 -2 4 5 -4 -5 -8 -6 -1
right_child=1 -3 3 6 8 -7 7 -9 -10 -11
leaf_value=-17.680769619972441 -10.7255346145073 14.03023041630299 6.6650400840403661 2.4792352779088977 -1.0417061152279825 0.71823955875600298 8.5469038397764958 4.4842548634946331 -6.116704212143957 -19.556998519671339
leaf_weight=5.9989551063627031 7.1235840916633606 9.836417615413664 3.7056708168238393 17.42318831384182 7.831139372661708 55.096161767840385 8.4149758107960242 17.484186945483088 4.5408597253262997 13.012072535231708
leaf_count=13 16 5 24 24 29 108 17 38 12 30
internal_value=-0.512276 2.15633 1.19598 1.9377 0.39815 1.093 4.46702 5.80426 -2.90437 -18.965
internal_weight=150.467 131.456 121.62 114.496 71.1738 58.8018 43.3224 25.8992 12.372 19.011
internal_count=316 273 268 252 173 132 79 55 41 43
is_linear=0
shrinkage=0.0489891


Tree=49
num_leaves=9
num_cat=0
split_feature=25 1 22 25 25 15 63 2
split_gain=3.01373e+06 627377 432081 242274 130861 45156.4 44819.2 9576.38
threshold=-1066.4999999999998 -477340.49999999994 -57.81166666666666 -217.49999999999997 745.00000000000011 -53.999999999999993 0.40000152587890631 -0.96092137857576709
decision_type=8 2 10 10 10 8 10 10
left_child=7 -2 -3 -4 5 -5 -6 -1
right_child=1 2 3 4 6 -7 -8 -9
leaf_value=-17.191106618328124 13.646289875618477 -16.888117700984107 -6.6864150970637661 -3.0501185510895765 2.3457032675129121 1.1942122229040244 5.5199172281224058 -19.556998519671339
leaf_weight=5.9989551063627031 10.330180009827016 3.1325887013226739 7.9979367740452281 6.695882149040699 18.161815673112869 59.238618396222591 25.899162756279111 13.012072535231708
leaf_count=13 8 11 17 15 26 141 55 30
internal_value=-0.579093 2.0575 1.06916 1.5459 2.14449 0.763185 4.21152 -18.8104
internal_weight=150.467 131.456 121.126 117.993 109.995 65.9345 44.061 19.011
internal_count=316 273 265 254 237 156 81 43
is_linear=0
shrinkage=0.0489891


Tree=50
num_leaves=12
num_cat=0
split_feature=21 53 8 65 77 37 26 62 53 26 36
split_gain=3.43918e+06 895331 368650 259448 120562 47482.4 40469.8 21623.4 21356.5 20136.8 3813.56
threshold=-1176.9999999999998 -17.483325195312496 -1.4699999999999915 99.099975585937514 21.350016276041668 22.649963378906254 922.50000000000011 -2.8999938964843746 -5.6333414713541661 717.50000000000011 0.98186482852588364
decision_type=8 8 2 2 8 2 8 10 10 10 2
left_child=3 -2 -3 10 5 9 8 -7 -6 -4 -1
right_child=1 2 4 -5 6 7 -8 -9 -10 -11 -12
leaf_value=-19.556998801214146 19.556997665262131 -10.368296433576321 -2.4071567954368338 -8.397806183288349 5.7194113903531623 4.7393092243359991 5.7671210186839303 1.1739809784573092 2.3757598804013305 0.56584819929549768 -18.105896493331088
leaf_weight=15.176247963681822 6.926342248916626 6.0261165499687186 13.678478330373766 7.2278613895177832 5.3452090024948111 4.700463054701685 16.423154117539525 31.051823195070028 32.211135873571038 9.1084680259227735 6.0911318510770789
leaf_count=29 3 8 45 7 4 16 27 67 72 14 17
internal_value=-1.05242 2.4368 1.4365 -16.4163 2.06873 0.528859 3.73867 1.64273 2.85165 -1.21878 -19.1414
internal_weight=153.966 125.471 118.545 28.4952 112.519 58.5392 53.9795 35.7523 37.5563 22.7869 21.2674
internal_count=309 256 253 53 245 142 103 83 76 59 46
is_linear=0
shrinkage=0.0489891


Tree=51
num_leaves=11
num_cat=0
split_feature=26 3 17 10 77 1 26 25 16 43
split_gain=3.33486e+06 775222 344014 240724 91515.3 45241.2 45015.9 33646.6 14308.1 11514.7
threshold=-750.49999999999989 18.280579075111294 -134.16666666666666 -0.00021216067410012582 18.050130208333339 -456807.99999999994 934.50000000000011 198.50000000000003 -27.499999999999996 2.9499969482421879
decision_type=8 10 8 2 8 2 8 10 8 2
left_child=3 2 -2 -1 5 -4 8 -7 -6 -5
right_child=1 -3 4 9 6 7 -8 -9 -10 -11
leaf_value=-8.1363253979558596 -9.6053942120732998 15.783748270049777 11.376295740553719 -19.556998759725179 1.017112763085543 -1.799637858475297 5.4849109009067671 1.0262968490559277 3.0668356980197635 -17.20161857760873
leaf_weight=6.7646370716393021 6.6024894416332245 9.5375488065183145 0.90467724204063316 13.997470425441863 12.030896812677382 13.414159484207628 16.423154117539525 41.069163786247373 25.489100707694888 7.7331337071955195
leaf_count=12 12 10 2 26 22 46 27 74 63 15
internal_value=-1.07753 2.35836 1.25389 -16.2066 1.90968 0.510948 3.34588 0.330533 2.40959 -18.7188
internal_weight=153.966 125.471 115.934 28.4952 109.331 55.388 53.9432 54.4833 37.52 21.7306
internal_count=309 256 246 53 234 122 112 120 85 41
is_linear=0
shrinkage=0.0489891


Tree=52
num_leaves=14
num_cat=0
split_feature=21 67 22 65 77 25 6 7 62 70 60 31 70
split_gain=3.22224e+06 730231 371712 286845 84643.7 35318.2 26404.4 25018.5 21918.8 12493.9 12168.4 7370.12 1.6045
threshold=-1176.9999999999998 227.92933564295978 -33.874999999999993 99.099975585937514 21.999918619791668 198.50000000000003 -30074.999999999996 7887.0000000000009 -0.95001220703124989 88.600097656250014 -16.799957275390621 1.8999938964843752 -91.499999999999986
decision_type=8 10 10 2 10 10 2 8 10 8 8 2 8
left_child=3 2 -2 9 5 11 7 -6 -7 12 -8 -4 -1
right_child=1 -3 4 -5 6 8 10 -9 -10 -11 -12 -13 -14
leaf_value=-19.55699853967657 -11.456058111809732 14.441679829350452 -2.4845163963143673 -7.5429950895901099 3.0438494314787343 3.6820523319325691 3.9456010054200061 6.2035696292418958 0.71214388163522313 -16.842310680187612 1.4908938850923008 -0.31294639535000368 -19.522378597183561
leaf_weight=10.49164644628763 5.3706235997378817 10.817539930343626 8.63502932153642 7.2278613895177832 14.390314459800718 7.1219621859490791 6.5075657367706299 10.331900782883169 36.676657987758524 5.5537582449615064 18.988334624096755 6.6312617696821681 5.2219751235097638
leaf_count=16 21 5 29 7 31 23 4 12 60 10 52 19 20
internal_value=-1.10281 2.27457 1.12661 -15.9742 1.74497 0.487826 3.22359 4.36436 1.19507 -18.8396 2.11743 -1.54125 -19.5455
internal_weight=153.966 125.471 114.654 28.4952 109.283 59.0649 50.2181 24.7222 43.7986 21.2674 25.4959 15.2663 15.7136
internal_count=309 256 251 53 230 131 99 43 83 46 56 48 36
is_linear=0
shrinkage=0.0489891


Tree=53
num_leaves=13
num_cat=0
split_feature=21 53 9 54 25 6 62 36 25 74 37 53
split_gain=3.11363e+06 921459 338019 313791 85361.2 46026.5 32390.8 24613.8 18729.8 11634.9 9258.94 4.76474
threshold=-1176.9999999999998 -17.483325195312496 -20.576923076922998 15.071226808633417 198.50000000000003 -42549.999999999993 -5.0999755859374991 -0.77446078526313233 -1189.4999999999998 9.4500122070312518 -375.74999999999994 8.9833577473958339
decision_type=8 8 2 10 10 2 8 2 8 8 2 8
left_child=3 -2 -3 8 9 7 -7 -6 11 10 -4 -1
right_child=1 2 4 -5 5 6 -8 -9 -10 -11 -12 -13
leaf_value=-19.55699859477793 19.556997665262131 -10.391714540082752 -0.24948637990411815 -6.8946112486121951 2.1349124386954812 4.320715552829836 1.0969982223554049 4.8556342936034493 -16.112747440976186 0.75980043469501768 -3.2325414803612689 -19.499149944657869
leaf_weight=11.180511659011239 6.926342248916626 5.7693399563431731 3.5667554140090934 7.1829837560653678 13.186827680096028 8.6581641435623151 54.973833562806249 20.210885472595692 5.0048087574541631 3.8523341286927453 8.3267077915370447 5.1269370317459169
leaf_count=25 3 7 3 5 21 9 125 32 12 16 40 11
internal_value=-1.13117 2.1888 1.17401 -15.7498 1.76568 2.30862 1.53564 3.78138 -18.7343 -1.58006 -2.33795 -19.5388
internal_weight=153.966 125.471 118.545 28.4952 112.776 97.0297 63.632 33.3977 21.3123 15.7458 11.8935 16.3074
internal_count=309 256 253 53 246 187 134 53 48 59 43 36
is_linear=0
shrinkage=0.0489891


Tree=54
num_leaves=10
num_cat=0
split_feature=25 53 21 29 79 26 79 23 53
split_gain=3.04846e+06 990027 505950 351292 99022 38978.3 33665.8 29142.3 22.0372
threshold=-1066.4999999999998 -17.483325195312496 -1176.9999999999998 -43.600036621093743 -9.0999908447265607 684.50000000000011 4.1000061035156259 1226.2499082200593 8.7166748046875018
decision_type=8 8 10 2 10 10 10 10 8
left_child=6 -2 -3 -4 5 -5 8 -6 -1
right_child=1 2 3 4 7 -7 -8 -9 -10
leaf_value=-19.556998527866561 17.092373435359672 -15.252940883300482 -15.395112101903377 -2.0391817499533054 1.2331451007460428 1.0477969623361028 -15.312791176053784 3.2560419188246712 -19.432914195074201
leaf_weight=9.5276369359344244 9.2551751136779785 4.7183686029165974 3.0176010504364958 19.197363570332527 25.908014928922057 20.088623331859708 6.6067396625876418 50.223189253360033 5.4237191528081903
leaf_count=21 4 15 5 33 65 27 10 117 12
internal_value=-1.14149 1.63998 0.478702 1.10544 1.53685 -0.460676 -18.2251 2.56764 -19.512
internal_weight=153.966 132.408 123.153 118.435 115.417 39.286 21.5581 76.1312 14.9514
internal_count=309 266 262 247 242 60 43 182 33
is_linear=0
shrinkage=0.0489891


Tree=55
num_leaves=13
num_cat=0
split_feature=26 53 2 3 23 16 68 15 22 26 26 32
split_gain=2.9709e+06 612904 449307 330139 117482 50395.6 52638.1 44298.3 32772.2 30784.5 25656.6 191.713
threshold=-750.49999999999989 -17.483325195312496 20.57723895912574 12.734608370045299 1217.5692650099452 -1.0000000180025095e-35 84.500000000000014 111.50000000000001 -4.8749999999999991 -2825.4999999999995 973.50000000000011 840.40014648437511
decision_type=8 10 8 10 8 8 8 8 8 10 10 2
left_child=3 -2 4 9 7 10 -7 -3 -9 -1 -6 -11
right_child=1 2 -4 -5 5 6 -8 8 -10 11 -12 -13
leaf_value=-15.425977744737578 19.428698443049843 -3.6234962238488051 -17.47564901328084 -6.1677849945904448 1.1407191627553583 3.1741174202063673 7.4552696302363843 2.845227549752547 -0.11794365276650071 -19.198850381105217 4.0842781759436972 -19.556998333126387
leaf_weight=6.5480450391769454 4.6635628007352343 6.7022451385855675 2.9734500646591178 7.1974587012082329 26.324257083237171 20.162893699482087 10.472424531355498 11.990006621927021 35.417818063870072 5.6000720933079728 9.7342921122908574 9.9978567678481323
leaf_count=6 4 25 3 16 42 76 16 23 71 10 12 25
internal_value=-1.21869 1.99435 1.33747 -15.2827 1.80054 3.17661 4.63759 0.104443 0.631478 -18.245 1.93536 -19.4284
internal_weight=157.784 128.441 123.777 29.3434 120.804 66.6939 30.6353 54.1101 47.4078 22.146 36.0585 15.5979
internal_count=329 272 268 57 265 146 92 119 94 41 54 35
is_linear=0
shrinkage=0.0489891


Tree=56
num_leaves=13
num_cat=0
split_feature=34 53 24 8 23 68 69 56 42 22 61 30
split_gain=2.79927e+06 623043 430389 393468 103020 44479.9 41538.9 40618.9 26411.2 13826 7971.5 232.382
threshold=117.10034179687501 -17.483325195312496 668.50000000000011 -1.3299999999999981 1056.5933601314478 165.39996337890628 411.00000000000006 0.22502747277066124 2.3499755859375004 -4.8749999999999991 -1.4999847412109373 7.0833740234375009
decision_type=2 10 8 2 8 8 2 8 10 8 10 2
left_child=1 -1 6 -3 8 7 11 -6 9 -5 -10 -2
right_child=2 3 -4 4 5 -7 -8 -9 10 -11 -12 -13
leaf_value=19.50408042164355 -19.155095644420381 -13.351722599021771 -3.856760994392217 2.1823250781885526 3.6827411529037639 7.9437411133107609 -14.898520145074537 1.2566404476388766 -3.2827262187515127 0.049647087794915792 -0.90611896114794299 -19.55699858268617
leaf_weight=4.6458957828581324 5.0917536523193183 4.287059321999549 6.6254438180476418 11.437855221331118 38.30222831107676 4.0109016094356766 7.0108433961868277 29.178822372108698 4.8003527075052288 20.143181940540675 11.504582738503812 10.745461845770476
leaf_count=3 26 9 14 19 79 4 7 70 8 39 35 16
internal_value=-1.23553 1.8918 -14.8502 1.23014 1.7538 2.9316 -18.038 2.63369 -0.00462741 0.82205 -1.60582 -19.4278
internal_weight=157.784 128.311 29.4735 123.665 119.378 71.492 22.8481 67.4811 47.886 31.581 16.3049 15.8372
internal_count=329 266 63 263 254 153 49 149 101 58 43 42
is_linear=0
shrinkage=0.0489891


Tree=57
num_leaves=13
num_cat=0
split_feature=26 53 2 3 23 67 16 68 15 22 44 41
split_gain=2.75158e+06 622990 435584 330491 98222.5 54561.2 43082 44477.1 38925 27237.9 23961.1 6.52398
threshold=-750.49999999999989 -17.483325195312496 20.57723895912574 12.734608370045299 1217.5692650099452 164.27973855384911 -1.0000000180025095e-35 84.500000000000014 111.50000000000001 -4.8749999999999991 -8.3999938964843732 10.399963378906252
decision_type=8 10 8 10 8 8 8 8 8 8 10 8
left_child=3 -2 4 5 8 11 10 -8 -3 -10 -6 -1
right_child=1 2 -4 -5 6 -7 7 -9 9 -11 -12 -13
leaf_value=-19.556998201152215 19.418493682895743 -3.410415756211123 -17.344565131498126 -5.666063406418103 4.2619355541672874 -14.427970535121489 2.8987620489247972 6.8340741449985023 2.5963479729636494 -0.1050629894441355 1.1117878661687675 -19.489081288381776
leaf_weight=8.6272049490362424 4.6635628007352343 6.7022451385855675 2.9734500646591178 7.1974587012082329 7.2543073743581763 7.7268151044845572 20.162893699482087 10.472424531355498 11.990006621927021 35.417818063870072 28.804241821169853 5.7919538468122509
leaf_count=18 4 25 3 16 6 11 76 16 23 71 48 12
internal_value=-1.25088 1.84128 1.17903 -14.7858 1.63496 -17.7497 2.8932 4.24402 0.0841187 0.578156 1.74554 -19.5297
internal_weight=157.784 128.441 123.777 29.3434 120.804 22.146 66.6939 30.6353 54.1101 47.4078 36.0585 14.4192
internal_count=329 272 268 57 265 41 146 92 119 94 54 30
is_linear=0
shrinkage=0.0489891


Tree=58
num_leaves=11
num_cat=0
split_feature=25 67 74 25 66 25 68 77 30 18
split_gain=2.79209e+06 573569 490258 153787 78153.4 75975 54918 41786.2 26126 204.058
