tree
version=v4
num_class=1
num_tree_per_iteration=1
label_index=0
max_feature_idx=59
objective=huber
feature_names=CB_Consumer_Confidence_chg_3m_lag_3m CCNSA_max_spike_chg_12m CCNSA_max_spike_diff_zscore_3m_lag_12m CCNSA_max_spike_pct_chg_rolling_mean_3m CCNSA_monthly_avg_diff CCNSA_monthly_avg_diff_lag_3m CCSA_max_spike_pct_chg_rolling_mean_3m CCSA_monthly_avg_diff FedFunds_close_pct_chg_rolling_mean_3m Financial_Stress_monthly_min_diff ISM_NonManufacturing_Index_diff_zscore_3m_lag_6m NFP_Consensus_Mean NFP_Forecast_CONTINUUM_ECON_chg_6m NFP_Forecast_CONTINUUM_ECON_rolling_mean_3m NFP_Forecast_DANSKE_BK_diff NOAA_Human_Impact_Index_chg_3m_lag_12m NatGas_close_diff_zscore_3m_lag_1m NatGas_close_pct_chg_rolling_mean_3m_lag_3m SP500_max_5d_drop_chg_3m_lag_3m SP500_max_drawdown_lag_3m Treasury_10Y_implied_rate_pct_chg_lag_12m VIX_mean_pct_chg_rolling_mean_3m_lag_3m is_jan nfp_nsa_accel_abs_rolling_6m nfp_nsa_accel_lag6 nfp_nsa_accel_vol_3m nfp_nsa_mom_abs_lag1 nfp_nsa_mom_abs_rolling_6m nfp_nsa_mom_lag6 nfp_nsa_mom_same_month_lag1y nfp_nsa_mom_vol_3m rev_master_mean total_government_federal_except_postal_nsa_diff_lag_6m total_government_federal_postal_nsa total_government_local_excluding_education_nsa_chg_3m_lag_12m total_government_local_excluding_education_nsa_chg_3m_lag_6m total_government_local_excluding_education_nsa_diff_lag_1m total_government_local_excluding_education_nsa_diff_zscore_3m_lag_1m total_government_state_education_nsa_chg_3m_lag_6m total_nsa_chg_12m total_private_goods_construction_nsa_pct_chg_lag_3m total_private_goods_manufacturing_durable_computer_electronic_nsa_chg_3m total_private_goods_manufacturing_durable_furniture_nsa_rolling_mean_3m_lag_3m total_private_goods_manufacturing_durable_machinery_nsa_chg_3m_lag_12m total_private_goods_manufacturing_durable_miscellaneous_nsa_pct_chg_lag_6m total_private_goods_manufacturing_durable_nonmetallic_nsa_lag_12m total_private_goods_manufacturing_nondurable_chemicals_nsa_chg_3m_lag_12m total_private_goods_mining_logging_mining_oil_gas_nsa_rolling_std_6m_lag_12m total_private_services total_private_services_education_health_health_social_health_care_hospitals_nsa total_private_services_education_health_health_social_health_care_hospitals_nsa_chg_3m total_private_services_education_health_health_social_health_care_hospitals_nsa_diff total_private_services_education_health_health_social_health_care_hospitals_nsa_rolling_mean_3m total_private_services_education_health_health_social_health_care_nsa_rolling_mean_3m total_private_services_education_health_health_social_health_care_nursing_nsa total_private_services_education_health_health_social_health_care_nursing_nsa_rolling_mean_3m total_private_services_education_health_health_social_social_assistance_nsa total_private_services_education_health_health_social_social_assistance_nsa_chg_6m_lag_6m total_private_services_education_health_health_social_social_assistance_nsa_diff_zscore_3m_lag_12m total_private_services_financial_finance_insurance_insurance_nsa_rolling_std_6m_lag_12m
feature_infos=[-46.699999999999989:29.499999999999996] [-1832742:17339806] [-1.1545467091663024:1.1546829959959573] [-21.382585893049377:179.29145808304963] [-2692366.8000000007:1241733.4500000002] [-2109740.6666666679:13013139.1] [-24.666499381901502:213.95233192957588] [-3668833.333333334:637125] [-0.34027000542123192:0.68822907165237235] [-1.7633000000000001:5.7972999999999999] [-1.1529024051236594:1.1547005383792512] [-653:2905] [-565:3615] [-9900:1766.6666666666667] [-2800:14000] [-6.2059740385457687:5.5272018235313336] [-1.1545067546185797:1.1546680806333789] [-19.433906991832263:27.226965862061558] [-16.676118117950182:12.837302609449928] [-52.578452227881812:-0.29484269954764941] [-388.88888888888886:988.88888888888891] [-17.6494271786685:78.760471343600372] [0:1] [555.5:3358.0900000000001] [-3000:4309] [42.217689815232461:4948.0487915372596] [1:5103] [373.33333333333331:2242.0383333333334] [-3570:1224] [-3570:1224] [36.473734842146328:4041.9204774751975] [-8208.5419520689029:10735.00477827653] [-639.099853515625:360.999755859375] [-56.20001220703125:48.5] [-438.89990234375:205.69970703125] [-438.89990234375:206] [-341.7998046875:250.1005859375] [-1.1543984748188796:1.1546888879268387] [-441.7001953125:635.30029296875] [-1396:4473] [-9500:3933.333251953125] [-34.7999267578125:29.300048828125] [-25.566660563151043:5] [-31.7000732421875:20.0999755859375] [-3398.8408203125:5801.46533203125] [-21.100006103515625:15.100006103515625] [-19.9998779296875:12.59991455078125] [0.40701967861955335:14.21332942120546] [-541:4263] [-37.69970703125:44] [-69.39990234375:158.2001953125] [-73:93.00048828125] [-53.799967447916664:29.433268229166668] [-412.13346354166669:277.533203125] [-30.39990234375:28] [-55.099934895833336:15.766682942708334] [-405.699951171875:85.599853515625] [-527.89990234375:521.099853515625] [-1.154689932329932:1.1546853851449188] [0.9451174915825904:42.605028060313209]
tree_sizes=1539 1354 1551 1654 1542 1458 1647 1549 1641 1645 1642 1646 1252 1638 1741 1453 1555 1451 1452 1454 1453 1746 1639 1549 1744 1643 1549 1950 1746 1948 1445 1637 1352 1555 1449 1248 1446 1543 1644 1538 1333 1146 1248 1543 1341 1360 1357 1250 1154 1245 1249 1649 1349 1347 1045 1151 1152 953 1148 1147 1248 1258 954 1154 1142 1145 962 1056 1061 1154 956 1059 1458 1155 1150 1047 1049 1252 1053 1153 1158 957 962 1055 1059 1048 1059 1255 1258 1254 961 953 855 1356 1152 1160 1148 863 1063 958 1056 956 858 1154 859 962 766 966 861 861 1168 766 863 864 766 869 770 867 1063 866 770 959 1067 968 959 771 962 868 766 860 873 866 967 861 863 960 861 864 1059 1072 966 959 962 1175 1058 1076 860 865 868 870 963 1068 862 866 766 768 771 771 867 1181 1080 1188 1075 1069 1066 771 866 870 869 868 864 869 867 766 869 871 867 871 869 866 963 1071 1073 869 769 764 773 1072 967 871 872 874 1064 971 1066 975 1069 1172 870 864 1166 956 864 868 768 966 769 867 869 874 870 971 770 770 766 770 861 861 761 872 867 873 865 870 871 765 865 766 972 1064 1169 966 1067 1064 960 857 861 1261 860 869 1263 1159 868 963 1272 1270 867 862 867 772 769 770 1063

Tree=0
num_leaves=14
num_cat=0
split_feature=4 41 55 34 27 56 56 9 4 55 45 14 56
split_gain=1.25617e+07 2.27854e+06 1.31009e+06 842923 345435 297242 231034 79095.7 70105.3 62929.7 27369.5 9015.44 113.579
threshold=16780.625000000004 -3.4000244140624996 7.016642252604167 -80.849365234374986 669.83333333333348 -25.949951171874996 -23.350036621093746 0.12040000000000002 -211336.32499999992 5.1833089192708348 0.39997863769531256 -184.99999999999997 3.9000244140625004
decision_type=2 10 10 2 10 10 10 8 2 10 2 10 8
left_child=2 -2 6 4 -3 -4 -1 12 -7 11 -10 -8 -5
right_child=1 3 5 7 -6 8 9 -9 10 -11 -12 -13 -14
leaf_value=209.99312324371579 209.41267162967065 198.17799375265548 205.19271523281228 192.86128204070934 212.06043580924324 215.01545051274076 216.66582523482367 196.11731582560367 208.98733999435643 215.28317990323353 211.80123057607571 217.62253781061247 193.00037207400811
leaf_weight=3.6097703017294398 10.498127770610152 2.6510734073817721 8.6291789524257201 21.381442978978164 2.7134684082120657 3.4801961230114093 8.7309237113222462 7.1629760032519654 4.7090164218097907 11.870030947029589 5.7386976974084973 47.682947620749474 6.372077837586402
leaf_count=10 17 18 14 34 11 18 51 17 12 24 17 48 12
internal_value=209.034 198.063 214.933 195.106 205.2 209.182 216.737 193.555 211.653 217.094 210.533 217.474 192.893
internal_weight=145.23 50.7792 94.4508 40.281 5.36454 22.5571 71.8937 34.9165 13.9279 68.2839 10.4477 56.4139 27.7535
internal_count=303 109 194 92 29 61 133 63 47 123 29 99 46
is_linear=0
shrinkage=1


Tree=1
num_leaves=12
num_cat=0
split_feature=4 26 56 34 4 53 6 25 36 14 33
split_gain=1.2438e+07 3.46713e+06 1.29135e+06 281971 318203 263410 289897 118341 54165.8 17609 467.677
threshold=16780.625000000004 880.50000000000011 -25.949951171874996 1.0000000180025095e-35 301003.00000000006 39.250162760416679 -0.87364819511373104 373.2108413752307 115.20043945312501 -184.99999999999997 -1.5499877929687498
decision_type=2 8 10 2 2 10 8 8 2 10 2
left_child=2 3 -1 4 -2 7 -7 -4 10 -9 -5
right_child=1 -3 5 8 -6 6 -8 9 -10 -11 -12
leaf_value=1.3093585635252041 2.8899169922413992 6.7983909006744092 7.6258173264143885 -12.127666575746836 -11.219978785670497 11.452541375054739 5.2298185238540507 10.92089885689308 -9.9707096137831108 12.333432508053153 -12.413498231386791
leaf_weight=12.238949254155157 2.2464743647724381 10.514765639789401 4.7251267954707137 5.6609752252697936 2.5564060769975185 11.066567591391502 11.341302822344007 7.6777871409431091 9.9529607798904163 47.401028171181679 19.847584319300953
leaf_count=24 17 17 16 11 16 14 14 73 15 53 33
internal_value=3.72926 -7.18756 9.59843 -10.8399 -4.62021 10.8324 8.30305 11.7802 -11.6823 12.1365 -12.3501
internal_weight=145.23 50.7792 94.4508 40.2644 4.80288 82.2118 22.4079 59.8039 35.4615 55.0788 25.5086
internal_count=303 109 194 92 33 170 28 142 59 126 44
is_linear=0
shrinkage=0.027352


Tree=2
num_leaves=14
num_cat=0
split_feature=4 26 55 34 4 56 56 26 29 9 30 52 56
split_gain=1.23218e+07 3.39125e+06 1.35309e+06 279471 309891 270065 232881 125090 90527.2 59349.1 31900.3 16630.6 1568.65
threshold=16780.625000000004 880.50000000000011 7.016642252604167 1.0000000180025095e-35 301003.00000000006 -25.949951171874996 -23.350036621093746 336.50000000000006 562.00000000000011 0.11745000000000001 180.04908688877103 12.883382161458334 0.90002441406250011
decision_type=2 8 10 2 2 10 10 10 8 8 8 10 8
left_child=2 3 6 4 -2 -4 -1 -8 -7 12 -9 -10 -5
right_child=1 -3 5 9 -6 8 7 10 11 -11 -12 -13 -14
leaf_value=4.5968295431836221 2.8177809705347938 6.6585653999243073 -0.11291803955192344 -12.413497068915049 -11.106603910379967 4.610086473436124 7.3364924044275872 9.8199297250323063 11.420329055523249 -9.7106028741336985 12.206735539414055 7.921113355442829 -11.946466169933929
leaf_weight=3.6097703017294398 2.2464743647724381 10.514765639789401 8.6291789524257201 18.797376282513149 2.5564060769975185 9.7850901335477811 4.5357083566486827 4.5100679881870738 1.7911364557221521 9.0365814073011226 59.238125934265554 2.351683652959764 7.6275626346468917
leaf_count=10 17 17 14 29 16 18 8 14 23 16 101 6 14
internal_value=3.69221 -7.1735 9.53389 -10.7857 -4.5936 3.68928 11.3677 11.7256 6.045 -11.6243 12.0379 9.43409 -12.2787
internal_weight=145.23 50.7792 94.4508 40.2644 4.80288 22.5571 71.8937 68.2839 13.9279 35.4615 63.7482 4.14282 26.4249
internal_count=303 109 194 92 33 61 133 123 47 59 115 29 43
is_linear=0
shrinkage=0.027352


Tree=3
num_leaves=15
num_cat=0
split_feature=4 29 37 25 29 50 6 9 50 29 29 12 14 48
split_gain=1.38237e+07 1.58344e+06 1.35487e+06 312201 294816 192437 146319 133963 52372.2 31297.9 31239.1 24773.3 1348.15 22.4063
threshold=111456.80000000006 346.00000000000006 1.0000000180025095e-35 1647.0225219866959 588.50000000000011 13.650146484375002 -0.78549514880390336 0.22770000000000004 3.1999511718750004 706.50000000000011 -397.49999999999994 -27.499999999999996 -27.499999999999996 83.000000000000014
decision_type=2 10 2 8 10 10 10 8 8 10 10 10 10 2
left_child=1 3 -2 5 6 8 -3 10 -1 11 13 -6 -11 -4
right_child=2 4 7 -5 9 -7 -8 -9 -10 12 -12 -13 -14 -15
leaf_value=4.4690121315819482 1.0486879724438367 10.890482096516761 -12.326126227698124 8.3154893790241857 9.1674606476193983 -3.8442842507238808 5.5090022589481968 -6.659651836007134 0.8306659151985929 12.031631820584991 -10.648095850862973 11.695514651335179 12.409316853529578 -12.413496515853359
leaf_weight=6.0567789403721708 8.1397143648937327 6.4606382790952912 4.3406128361821166 5.573541563935577 4.5276430044323197 4.7116038128733626 9.110696889460085 4.2564593125134698 5.7893817238509691 8.9536008387804014 11.55076150223613 8.0771020054817182 35.261285692453384 18.279236290603876
leaf_count=18 12 10 14 9 20 13 19 13 19 48 22 13 36 31
internal_value=3.10948 9.11882 -9.08839 2.71612 11.0762 0.831279 7.74184 -11.2357 2.69094 11.99 -11.8057 10.7875 12.3328 -12.3967
internal_weight=141.089 94.5223 46.5668 22.1313 72.391 16.5578 15.5713 38.4271 11.8462 56.8196 34.1706 12.6047 44.2149 22.6198
internal_count=297 205 92 59 146 50 29 80 37 117 67 33 84 45
is_linear=0
shrinkage=0.027352


Tree=4
num_leaves=14
num_cat=0
split_feature=4 29 29 23 56 29 54 29 3 14 27 48 24
split_gain=1.36066e+07 1.58717e+06 1.05358e+06 516574 288929 109412 85545.6 37298.7 21434.9 2196.55 3600.31 41.624 2.9358
threshold=111456.80000000006 588.50000000000011 26.000000000000004 1238.5833333333337 -16.249999999999996 -397.49999999999994 2.1499023437500004 706.50000000000011 -1.6779369709647998 -27.499999999999996 1017.2500000000001 66.500000000000014 332.50000000000006
decision_type=2 10 8 10 10 10 8 10 8 10 10 2 8
left_child=1 3 5 4 -1 11 -6 8 -3 10 -9 -2 -11
right_child=2 7 -4 -5 6 -7 -8 9 -10 12 -12 -13 -14
leaf_value=-0.59573935088490071 -12.299407479644753 11.453147507029044 -1.7215026254002339 10.203600697766415 8.353094808630896 -9.1447810369039075 3.9259442392993265 12.271610144645411 9.0958410884389895 12.37438111260168 11.063152551310626 -12.41349855160284 12.413501312097374
leaf_weight=11.13726567849517 3.7506854794919482 8.1259484253823739 11.223322345875202 9.5072929561138135 4.4010220058262348 11.466927571222188 12.657060569152238 6.3392316661775094 4.478796584531664 12.202671378850935 2.6143691726028919 20.125848909839988 23.058614313602448
leaf_count=23 14 17 24 9 14 19 42 44 16 15 4 35 21
internal_value=3.0792 9.04115 -9.02249 4.69005 2.8309 -11.3409 5.06818 11.9283 10.6156 12.3025 11.9188 -12.3956 12.4
internal_weight=141.089 94.5223 46.5668 37.7026 28.1953 35.3435 17.0581 56.8196 12.6047 44.2149 8.9536 23.8765 35.2613
internal_count=297 205 92 88 79 68 56 117 33 84 48 49 36
is_linear=0
shrinkage=0.027352


Tree=5
num_leaves=13
num_cat=0
split_feature=29 11 53 29 29 23 31 53 12 29 15 14
split_gain=1.20267e+07 1.77754e+06 1.49451e+06 1.16667e+06 350748 263169 189118 103472 85436.4 34907.4 24472.9 3410.23
threshold=153.00000000000003 -163.49999999999997 12.03336588541667 588.50000000000011 -750.49999999999989 1238.5833333333337 32.844194584126448 39.250162760416679 17.500000000000004 706.50000000000011 0.87547156127923309 -12.499999999999998
decision_type=10 8 10 10 8 8 2 8 10 10 10 10
left_child=2 -2 -1 5 -4 7 -6 -3 -8 10 -5 -11
right_child=1 3 4 9 6 -7 8 -9 -10 11 -12 -13
leaf_value=9.0658109258196582 -3.6884891138868223 6.4107312995018271 -12.413501618224185 9.4123574004804613 -2.1756920196459117 10.208425309027977 -6.4587722368709226 2.8149006202374762 -10.952350178782769 11.848284174032926 11.858498487192163 12.409180213683618
leaf_weight=3.2286823233589521 8.3106104061007482 9.4967807214707136 23.727251848205924 6.1896276287734491 4.1378264343366054 6.7617224454879752 5.8161034090444428 16.201130859553814 6.9474653452634811 10.759245619177817 6.056969104334712 33.455640912055969
leaf_count=5 9 40 52 18 18 7 26 17 7 52 14 32
internal_value=3.04527 8.40859 -8.8452 9.5392 -10.2686 5.40712 -7.25735 4.14377 -8.90475 11.9147 10.6222 12.2727
internal_weight=141.089 97.2317 43.8573 88.9211 40.6286 32.4596 16.9014 25.6979 12.7636 56.4615 12.2466 44.2149
internal_count=297 189 108 180 103 64 51 57 33 116 32 84
is_linear=0
shrinkage=0.027352


Tree=6
num_leaves=15
num_cat=0
split_feature=4 26 55 28 29 49 9 55 56 3 46 4 29 13
split_gain=1.29256e+07 3.34238e+06 1.16037e+06 301143 198653 178617 159305 95347.4 129667 82889.4 61994.3 36195 24953.2 1085.66
threshold=16780.625000000004 880.50000000000011 7.016642252604167 403.00000000000006 346.00000000000006 14.949951171875002 -0.068399999999999975 1.3833821614583337 5.2500000000000009 -2.0349200299554702 3.7499694824218754 -145721.33333333323 -1023.4999999999999 147.50000000000003
decision_type=2 8 10 10 10 8 8 10 10 10 10 2 8 10
left_child=2 3 4 12 -1 9 -5 13 -9 11 -8 -4 -2 -6
right_child=1 -3 5 6 7 -7 10 8 -10 -11 -12 -13 -14 -15
leaf_value=6.7291275221954701 -12.413502273669122 6.3187200214902655 9.7623729971771489 -11.184648525649182 12.090290929136017 -2.4483381501991843 -1.9716854719717982 6.1596658592121116 11.189871415903708 3.2397024025232142 -6.8462732276884664 5.3878147486619579 -10.40966214017004 12.413507118064269
leaf_weight=6.9091135123744598 24.725495832040906 11.015044291503726 2.5936222579330206 4.2938503064215183 10.16003694757819 3.0891990475356605 3.5720342490822059 4.738813370466235 20.084985310211778 9.9384459508582914 4.3042134046554565 3.1153435688465843 5.7295507183298495 34.920323260128498
leaf_count=16 48 15 17 9 24 8 25 16 47 22 4 12 14 33
internal_value=3.63284 -7.11237 9.66504 -10.5832 11.1537 3.56198 -6.94627 11.591 10.2296 4.74859 -4.6356 7.37528 -12.0365 12.3407
internal_weight=149.19 53.6402 95.5499 42.6251 76.8133 18.7366 12.1701 69.9042 24.8238 15.6474 7.87625 5.70897 30.455 45.0804
internal_count=310 115 195 100 136 59 38 120 63 51 29 29 62 57
is_linear=0
shrinkage=0.027352


Tree=7
num_leaves=14
num_cat=0
split_feature=4 26 29 23 28 49 9 7 4 46 29 53 13
split_gain=1.27616e+07 3.26292e+06 1.09357e+06 519884 311108 163103 159425 82292.9 81294.8 58575.9 30685.6 13587.6 320.679
threshold=16780.625000000004 880.50000000000011 588.50000000000011 1238.5833333333337 403.00000000000006 15.749877929687502 -0.068399999999999975 19625.000000000004 -237766.94999999992 3.7499694824218754 -1023.4999999999999 29.983398437500004 149.16666666666671
decision_type=2 8 10 10 10 8 8 2 2 10 8 10 10
left_child=2 4 3 5 10 8 -6 11 -1 -8 -2 12 -4
right_child=1 -3 7 -5 6 -7 9 -9 -10 -11 -12 -13 -14
leaf_value=7.5933170142299282 -12.413502273669122 6.1814950558750805 12.233779170318407 10.30623911441298 -11.061667852603771 -2.6538281314309606 -1.9207203188380089 8.9053846311395048 3.2738555380706345 -6.6590139670196464 -10.19149492396676 11.317569991132665 12.413227349966387
leaf_weight=4.1242977976799038 24.725495832040906 11.015044291503726 10.213016392663119 12.024992048740385 4.2938503064215183 3.0136577002704135 3.5720342490822059 6.588372513651847 15.554367316886784 4.3042134046554565 5.7295507183298495 11.71342329494655 32.317756161093712
leaf_count=12 48 15 33 11 9 8 25 24 48 4 14 18 41
internal_value=3.58786 -7.08898 9.58167 5.70825 -10.5183 3.27168 -6.82169 11.7922 4.17916 -4.51016 -11.9955 12.1429 12.3701
internal_weight=149.19 53.6402 95.5499 34.7173 42.6251 22.6923 12.1701 60.8326 19.6787 7.87625 30.455 54.2442 42.5308
internal_count=310 115 195 79 100 68 38 116 60 29 62 92 74
is_linear=0
shrinkage=0.027352


Tree=8
num_leaves=15
num_cat=0
split_feature=4 28 41 55 29 20 28 49 55 3 25 34 46 13
split_gain=1.25962e+07 2.4526e+06 1.31688e+06 1.16715e+06 228905 175667 169981 160315 103943 76679.7 73380.4 40748 11201.8 681.257
threshold=16780.625000000004 603.50000000000011 3.5499877929687504 7.016642252604167 697.50000000000011 -6.0968656755655433 -79.999999999999986 14.949951171875002 -4.7500406901041661 -2.0349200299554702 1495.2697353702144 57.000000000000007 2.5000305175781254 135.83333333333334
decision_type=2 8 10 10 10 2 10 8 10 8 8 2 8 10
left_child=3 6 8 4 5 -1 -2 9 -3 11 -7 -5 13 -6
right_child=1 2 -4 7 12 10 -8 -9 -10 -11 -12 -13 -14 -15
leaf_value=4.6524978779162307 -12.409153995216135 9.6558553641621394 -8.6808760293190286 9.4875535281513681 12.110872712720946 8.4134359609387239 -8.2036815420096989 -2.3188043043307616 4.4185226632042642 3.0481774282163423 11.444457584378592 4.8562717912885196 11.164648887906825 12.403377877977448
leaf_weight=5.417267560958865 25.608773631975055 5.0377486748620877 6.510406586341559 2.6743193874135613 7.4594315849244586 10.733283871784808 9.998398691415785 3.0891990475356605 6.4848612174391755 9.9384459508582932 13.485384953208266 3.0346464393660426 7.0281411595642558 32.689763270318508
leaf_count=17 54 4 12 20 24 22 23 8 22 22 20 9 14 39
internal_value=3.54131 -7.06608 1.1524 9.49613 10.9892 9.10521 -11.2283 3.37527 6.70835 4.49945 10.1012 7.02583 12.1726 12.349
internal_weight=149.19 53.6402 18.033 95.5499 76.8133 29.6359 35.6072 18.7366 11.5226 15.6474 24.2187 5.70897 47.1773 40.1492
internal_count=310 115 38 195 136 59 77 59 26 51 42 29 77 63
is_linear=0
shrinkage=0.027352


Tree=9
num_leaves=15
num_cat=0
split_feature=29 29 26 6 28 10 49 29 29 51 53 37 33 1
split_gain=1.1525e+07 1.27281e+06 934252 283513 249840 127638 108651 93741 68297.9 53043.8 17079.5 11638.3 3955.23 2282.24
threshold=214.00000000000003 596.50000000000011 785.00000000000011 0.40403267785731573 403.00000000000006 0.45942256761114159 11.750000000000002 380.00000000000006 745.00000000000011 5.9497070312500009 38.216552734375007 -0.52175821345803042 -1.5499877929687498 -34290.999999999993
decision_type=8 10 10 10 8 10 10 8 10 8 8 2 2 8
left_child=2 3 4 5 12 7 -5 -2 9 11 13 -3 -1 -10
right_child=1 8 -4 6 -6 -7 -8 -9 10 -11 -12 -13 -14 -15
leaf_value=-11.500627639940332 3.1395092614319609 10.27501504978383 0.55847638154210655 3.5124834326078034 -6.5744688288563662 8.9392659308697517 -2.3848803662538853 7.4488311243296126 12.383943562630403 7.4860827109988319 10.535151808982663 11.977718930359208 -12.413496834987759 11.739349455290021
leaf_weight=4.4095207676291492 9.0148301925510186 7.2483419869095096 6.5738598406314841 5.3672443302348238 7.8088158462196615 9.7446972429752332 4.1399029586464167 6.4997884621843687 34.063125628978014 4.4046155661344555 4.5586431026458731 5.1368686184287045 18.552151251584291 4.7040177136659613
leaf_count=13 20 22 22 22 19 13 9 21 60 11 4 10 39 23
internal_value=4.07025 9.13632 -8.80126 4.97055 -10.8009 6.48589 0.944424 4.94491 11.5455 10.0644 12.1195 10.9813 -12.2382 12.3057
internal_weight=132.226 94.8821 37.3443 34.7665 30.7705 25.2593 9.50715 15.5146 60.1156 16.7898 43.3258 12.3852 22.9617 38.7671
internal_count=308 215 93 85 71 54 31 41 130 43 87 32 52 83
is_linear=0
shrinkage=0.027352


Tree=10
num_leaves=15
num_cat=0
split_feature=29 29 4 28 4 6 29 29 37 52 55 19 33 0
split_gain=1.134e+07 1.28125e+06 974636 328668 281450 205047 78972.7 75343.3 61138.1 43912.7 16947.9 17172.5 6721.45 380.35
threshold=214.00000000000003 596.50000000000011 -69430.874999999985 440.00000000000006 -237766.94999999992 0.49537733101091036 745.00000000000011 403.00000000000006 1.0855279795404571 4.100016276041667 2.4666748046875004 -5.832952938241311 -2.3999938964843746 -3.8999999999999839
decision_type=8 10 2 10 2 10 10 8 2 8 10 10 2 2
left_child=2 4 -1 12 -2 7 9 -6 -7 -3 13 -12 -4 -8
right_child=1 6 3 -5 5 8 10 -9 -10 -11 11 -13 -14 -15
leaf_value=2.4338267120510686 9.4625938144541433 11.418026661497704 -11.127885713868036 -6.0369824065428919 3.3799727793509415 -2.7944349181636676 12.178983599361901 6.7696988448939033 2.185519726102191 8.6044389164678279 9.5966478421292187 12.017502016733108 -12.405236125750502 12.401162454393784
leaf_weight=5.0391079634428015 7.7278491444885722 7.5118596944957972 3.6616322677582493 8.9335604328662139 10.247478259727361 3.7486180542036882 7.6938691437244406 9.4119448130950349 3.6305729150772095 9.2779664769768733 3.7303355969488621 5.3254257291555387 19.710047041997317 26.576155975461006
leaf_count=12 18 18 11 25 22 23 10 19 3 25 11 26 45 40
internal_value=4.01354 9.03878 -8.75425 -10.4994 4.85922 3.54353 11.4559 5.00282 -0.344235 9.86328 12.0731 11.0203 -12.2051 12.3513
internal_weight=132.226 94.8821 37.3443 32.3052 34.7665 27.0386 60.1156 19.6594 7.37919 16.7898 43.3258 9.05576 23.3717 34.27
internal_count=308 215 93 81 85 67 130 41 26 43 87 37 56 50
is_linear=0
shrinkage=0.027352


Tree=11
num_leaves=15
num_cat=0
split_feature=29 29 4 24 31 56 29 29 51 12 1 52 52 8
split_gain=1.1162e+07 1.28804e+06 955175 345437 290915 221428 90388.9 89632.8 54219.5 51703.8 20822.8 19742.2 14942.2 1300.53
threshold=214.00000000000003 596.50000000000011 -69430.874999999985 -523.99999999999989 -716.99572225498298 -43.700012207031243 745.00000000000011 403.00000000000006 5.9497070312500009 17.500000000000004 -92922.999999999985 5.4000244140625009 3.0166422526041674 2.1782813275361694e-06
decision_type=8 10 2 10 2 10 10 10 8 10 10 10 10 2
left_child=2 4 -1 -4 -2 -6 8 -7 12 -5 13 -12 -3 -8
right_child=1 6 3 9 5 7 10 -9 -10 -11 11 -13 -14 -15
leaf_value=2.3672563551812584 12.107685519413295 11.725603200234524 -12.405996551084979 -4.6589799283754036 -2.0256144180537543 3.2217822658881459 12.403537693731996 6.3699819287591408 7.0572821861289823 -8.5117455157553934 12.112603779738647 9.3803389588237103 9.794855360308123 12.009277900713327
leaf_weight=5.0391079634428015 3.6069088680669656 5.1065563242882472 21.75425673276186 5.8520633708685619 4.094499588012698 13.503876053728165 27.164560014382005 13.561178676784037 4.4046155661344555 4.6989196389913559 3.9981305710971347 3.9211501367390156 7.2786542810499668 8.2419457230716926
leaf_count=12 5 10 49 23 7 38 41 35 11 9 17 10 22 19
internal_value=3.95864 8.94429 -8.70856 -10.4362 4.75369 3.9024 11.3678 4.79923 9.66396 -6.37486 12.0281 10.7598 10.591 12.3118
internal_weight=132.226 94.8821 37.3443 32.3052 34.7665 31.1596 60.1156 27.0651 16.7898 10.551 43.3258 7.91928 12.3852 35.4065
internal_count=308 215 93 81 85 80 130 73 43 32 87 27 32 60
is_linear=0
shrinkage=0.027352


Tree=12
num_leaves=11
num_cat=0
split_feature=38 11 26 5 25 28 52 23 40 11
split_gain=9.94948e+06 1.9702e+06 1.89299e+06 639177 400885 246486 186078 126231 29205.5 18099.7
threshold=-107.45013427734374 -76.499999999999986 868.00000000000011 27933.250000000004 1699.1857504914067 -1.0000000180025095e-35 7.8333333333333348 1285.7500000000002 -282.20237731933588 136.50000000000003
decision_type=2 8 8 8 10 10 10 8 2 10
left_child=2 -2 5 4 7 -1 -4 -3 -5 -10
right_child=1 3 6 8 -6 -7 -8 -9 9 -11
leaf_value=-12.413500696642226 -2.7574501282658295 4.784234722057052 4.5587956490317261 10.115161559172854 11.750800359672446 -6.9287231469043258 -1.7677462108020787 9.1315362749791653 10.892743687082916 12.36843999751766
leaf_weight=22.606359583325684 10.735334746539591 25.32362604234368 6.5531696779653412 6.4749541580677024 10.784801162779329 8.4110184907913226 7.4119065627455711 6.2257367223501197 7.6536398883908978 33.279591761529446
leaf_count=52 17 68 9 6 18 20 23 5 53 41
internal_value=3.53007 8.31643 -7.16123 9.64113 7.19834 -10.9262 1.20098 5.64211 11.8225 12.0925
internal_weight=145.46 100.478 44.9825 89.7423 42.3342 31.0174 13.9651 31.5494 47.4082 40.9332
internal_count=312 208 104 191 91 72 32 73 100 94
is_linear=0
shrinkage=0.027352


Tree=13
num_leaves=15
num_cat=0
split_feature=4 26 55 35 4 5 33 56 55 51 47 52 52 59
split_gain=1.03708e+07 2.94745e+06 1.32658e+06 351828 299731 291849 218838 144728 59315.6 54986.4 49887.5 43222.5 17468.1 53.9174
threshold=16780.625000000004 880.50000000000011 5.516642252604167 85.799804687500014 388797.9250000001 -164564.62499999997 -0.89999389648437489 -21.899963378906246 2.4666748046875004 21.599609375000004 1.8213527051196226 9.9000651041666696 6.699991861979167 4.725861533973597
decision_type=2 8 10 2 2 8 2 10 10 8 2 10 8 8
left_child=2 3 7 4 -2 11 -7 -1 9 -9 -10 -4 -8 -5
right_child=1 -3 5 13 -6 6 12 8 10 -11 -12 -13 -14 -15
leaf_value=5.8422738489810495 -1.3305329434554083 5.4787500228681125 2.5418223905913853 -12.295670336448367 -9.4967947031447526 3.2956474145667709 10.61057311751275 12.073396885823149 11.277214803987293 9.6303673089265889 7.6070455846363529 -0.89196467493243381 8.1129500612736418 -12.413496027257256
leaf_weight=3.8901604264974585 4.753245176747444 11.721220751293002 4.6591007858514768 4.544142413884404 11.49340710416436 9.5372204408049601 4.1633211728185415 42.539138281717896 5.6248839087784273 8.2274632453918439 5.4627939406782389 6.6664367094635963 4.2216970669105667 17.95590737182647
leaf_count=8 25 17 12 7 19 21 15 66 33 5 6 18 15 45
internal_value=3.48047 -6.53934 8.80385 -10.1749 -7.10764 3.95771 6.12969 10.9598 11.2816 11.6775 9.46899 0.520591 9.35312 -12.3897
internal_weight=145.46 50.4679 94.9922 38.7467 16.2467 29.2478 17.9222 65.7444 61.8543 50.7666 11.0877 11.3255 8.38502 22.5
internal_count=312 113 199 96 44 81 51 118 110 71 39 30 30 52
is_linear=0
shrinkage=0.027352


Tree=14
num_leaves=16
num_cat=0
split_feature=4 26 29 30 28 3 29 29 3 30 49 14 28 6 58
split_gain=1.02141e+07 2.8787e+06 1.40504e+06 420244 384113 299100 147522 142630 140601 54532.6 45795.6 35562.7 37070.7 33472.8 570.281
threshold=16780.625000000004 880.50000000000011 588.50000000000011 1495.8981454909219 -79.999999999999986 12.684391422097567 706.50000000000011 243.00000000000003 4.990357016340238 910.33736997585913 5.7501220703125009 -12.499999999999998 562.00000000000011 -0.11155712167138833 0.041662701255995652
decision_type=2 8 10 8 10 10 10 10 10 10 8 10 8 10 10
left_child=2 4 3 7 -2 8 10 13 -6 -9 -4 12 -8 -1 -13
right_child=1 -3 6 -5 5 -7 11 9 -10 -11 -12 14 -14 -15 -16
leaf_value=-4.0074413790719445 -12.41327815553972 5.3579069999830633 9.8449021022637186 10.129062215149281 2.3374173166996588 -10.795966434033815 9.0398134305957463 4.9288987561804136 -5.5307613628991366 2.088004618690491 6.7073168749247207 12.406204432376404 12.039213568661298 0.37512154061271197 12.179791580024705
leaf_weight=2.2989557050168514 22.606359583325684 11.721220751293002 10.366628300398586 6.777196845971047 2.3544837217777985 7.6823082566261283 5.9303671829402465 10.15598161891103 6.1035505048930645 10.066006295382975 5.2407696135342112 19.742226660251617 6.4242537356913054 3.0116819478571442 14.978148072957991
leaf_count=10 52 17 25 11 17 5 25 22 22 14 9 18 33 16 16
internal_value=3.42466 -6.51918 8.70768 4.0743 -10.1121 -6.88906 11.096 2.46715 -3.34043 3.51479 8.79137 11.86 10.5995 -1.522 12.3085
internal_weight=145.46 50.4679 94.9922 32.3098 38.7467 16.1403 62.6824 25.5326 8.45803 20.222 15.6074 47.075 12.3546 5.31064 34.7204
internal_count=312 113 199 73 96 44 126 62 39 36 34 92 58 26 34
is_linear=0
shrinkage=0.027352


Tree=15
num_leaves=13
num_cat=0
split_feature=29 9 53 29 29 40 50 1 25 7 40 53
split_gain=9.95064e+06 1.26135e+06 1.25194e+06 1.14899e+06 433227 378787 120664 110767 72127 52051.2 15141 435.836
threshold=153.00000000000003 -0.98414999999999997 16.916666666666671 706.50000000000011 -397.49999999999994 -67.873527526855455 7.3000488281250009 50265.000000000007 699.24063375122421 -5274.9999999999991 -189.99999237060544 38.083170572916679
decision_type=8 10 10 10 10 2 8 10 10 2 2 10
left_child=2 -2 -1 5 11 8 -7 -6 -3 10 -5 -4
right_child=1 3 4 9 7 6 -8 -9 -10 -11 -12 -13
leaf_value=7.3663965639743267 -9.5135564419285199 6.9514219290937147 -12.127864766400277 10.769949627641537 -3.299883426726149 5.0653427766835932 1.5894374492339729 -8.6532570304314067 10.258625619586196 9.5600815467467211 12.363207897857366 -12.413496380300332
leaf_weight=3.3166761249303809 3.0593522377312174 10.13609408773482 5.32617901824415 5.2586017847061148 5.9888442251831275 19.491425676271319 12.116938512772323 5.5917528662830591 9.6142142396420223 7.1429332792758933 29.637868449091911 18.170388884842396
leaf_count=7 27 18 24 7 21 48 16 16 11 23 57 26
internal_value=3.08076 7.76836 -8.69596 8.33446 -10.2147 5.58971 3.73288 -5.88482 8.56135 11.6877 12.1231 -12.3488
internal_weight=134.851 96.4574 38.3938 93.3981 35.0772 51.3587 31.6084 11.5806 19.7503 42.0394 34.8965 23.4966
internal_count=301 207 94 180 87 93 64 37 29 87 64 50
is_linear=0
shrinkage=0.027352


Tree=16
num_leaves=14
num_cat=0
split_feature=29 11 4 29 28 6 54 29 37 14 9 13 29
split_gain=9.78651e+06 1.33191e+06 1.23255e+06 1.11666e+06 312998 242056 145238 123908 55551.3 43461.2 7742.04 403.221 792.078
threshold=153.00000000000003 -76.499999999999986 -69430.874999999985 603.50000000000011 323.00000000000006 -2.21540444981505 8.7999267578125018 706.50000000000011 1.1521766407926186 -17.499999999999996 0.04935000000000004 127.50000000000001 -1300.4999999999998
decision_type=8 8 2 10 10 10 10 10 2 10 8 10 10
left_child=2 -2 -1 5 11 -3 -7 10 -6 -9 -5 12 -4
right_child=1 3 4 7 8 6 -8 9 -10 -11 -12 -13 -14
leaf_value=3.0475080357685775 -5.5971402164809598 10.120477013585537 -12.413391167552414 9.0591828030345383 -4.1676831276212196 3.0055621577821809 7.3131312769577734 10.354288530592349 -8.4805842857443317 12.294423920706247 7.5812430287372292 -12.413496760043602 -11.723253158400343
leaf_weight=5.7269570827484122 5.3464277759194374 5.6851524431258431 3.1666001547127962 6.5560647659003717 4.4226780794560892 25.185106576420367 7.6303069861605755 12.246264532208441 4.5164571888744831 29.346694588661194 4.4614105988293886 18.455352269113064 2.1057963445782688
leaf_count=14 11 9 18 14 20 50 23 57 8 31 12 22 12
internal_value=3.02225 7.67103 -8.65694 8.44962 -10.7089 4.9099 4.00718 11.04 -6.3468 11.7232 8.46074 -12.3523 -12.1378
internal_weight=134.851 96.4574 38.3938 91.111 32.6669 38.5006 32.8154 52.6104 8.93914 41.593 11.0175 23.7277 5.2724
internal_count=301 207 94 196 80 82 73 114 28 88 26 52 30
is_linear=0
shrinkage=0.027352


Tree=17
num_leaves=13
num_cat=0
split_feature=4 26 5 26 41 9 39 28 7 27 24 38
split_gain=9.30315e+06 2.39322e+06 1.09735e+06 519146 317760 184914 136856 113727 102453 43530.9 9292.81 193.469
threshold=16780.625000000004 725.50000000000011 -183515.39999999988 359.50000000000006 4.5999755859375009 -0.13454999999999995 13.000000000000002 875.50000000000011 -5274.9999999999991 893.00000000000011 -1502.9999999999998 90.000122070312514
decision_type=2 10 8 10 8 8 2 10 2 10 10 2
left_child=2 4 9 5 6 -4 -2 8 -5 -1 -6 -9
right_child=1 -3 3 7 10 -7 -8 11 -10 -11 -12 -13
leaf_value=-0.41403493888830806 -2.4949293355203102 4.140090793044191 2.008491707212027 10.563467982145529 -12.413497383242509 8.0757933743315053 -9.0331076546746534 12.229426882405674 7.3945363271423652 2.6635650336572403 -11.195961700378085 12.413483012819913
leaf_weight=7.2258619964122754 4.0883819609880465 10.986408863216637 7.8640676438808441 30.761911600828167 19.020580114796758 7.1979019762948138 5.7837728895246983 7.6561552025377777 10.152880814857783 6.5594780035316944 6.2363453879952422 11.317522931843994
leaf_count=18 20 18 10 57 36 24 13 15 43 14 18 15
internal_value=2.9637 -7.00189 8.14276 9.44723 -10.4865 4.908 -6.32548 10.5888 9.77712 1.05035 -12.1129 12.3392
internal_weight=134.851 46.1155 88.7358 74.9504 35.1291 15.062 9.87215 59.8885 40.9148 13.7853 25.2569 18.9737
internal_count=301 105 196 164 87 34 33 130 100 32 54 30
is_linear=0
shrinkage=0.027352


Tree=18
num_leaves=13
num_cat=0
split_feature=29 11 4 29 25 28 29 7 55 55 40 7
split_gain=1.01337e+07 1.41642e+06 1.18303e+06 1.15944e+06 466893 341728 198342 58798.7 51460.9 46871.9 31568.6 564.495
threshold=153.00000000000003 -191.99999999999997 16780.625000000004 706.50000000000011 1699.1857504914067 288.50000000000006 403.00000000000006 -8249.9999999999982 1.4499918619791667 -0.56669108072916652 -189.99999237060544 -29099.999999999996
decision_type=10 8 2 10 10 8 8 2 8 10 2 2
left_child=2 -2 -1 4 6 11 -3 10 -7 -9 -5 -4
right_child=1 3 5 7 -6 8 -8 9 -10 -11 -12 -13
leaf_value=2.533809283957519 -3.8304320073088101 2.2516192406035254 -12.071868700937644 10.113255250822517 10.576647815719436 -7.970050956235073 5.9769819115300766 11.516506617321072 -4.1209396894288091 7.688986997849903 12.289930761143006 -12.413497490732171
leaf_weight=6.1313634309917679 7.7786734998226166 19.690237758681182 4.5918819345533839 5.9400626420974723 11.050616879016159 6.9858022443950158 23.397450853139159 4.629105806350708 4.1386297438293695 4.9588456712663156 31.075179114937782 19.155302388593558
leaf_count=21 6 38 19 8 22 8 50 5 25 26 55 33
internal_value=3.03817 7.41513 -8.54607 8.28345 5.56095 -10.4942 4.27457 11.4461 -6.5381 9.53697 11.9406 -12.3475
internal_weight=149.523 108.52 41.003 100.741 54.1383 34.8716 43.0877 46.6032 11.1244 9.58795 37.0152 23.7472
internal_count=316 210 106 204 110 85 88 94 33 31 63 52
is_linear=0
shrinkage=0.027352


Tree=19
num_leaves=13
num_cat=0
split_feature=29 31 29 55 29 31 29 3 12 9 14 29
split_gain=9.9508e+06 1.26801e+06 1.20559e+06 1.1317e+06 512820 420922 297222 111213 61039.2 31557.8 5733.84 73.2581
threshold=153.00000000000003 1182.138110749217 706.50000000000011 -4.2166748046874991 -750.49999999999989 -716.99572225498298 403.00000000000006 2.1837872317188869 -27.499999999999996 -0.028800000000000044 42.500000000000007 -1066.4999999999998
decision_type=10 2 10 10 8 2 8 8 8 8 8 8
left_child=3 2 5 -1 11 -2 -7 -6 -4 -9 -10 -5
right_child=1 -3 8 4 7 6 -8 9 10 -11 -12 -13
leaf_value=7.1690936493384783 12.179795819512021 -3.5881733823279496 9.8858724166052081 -12.413495950627878 -2.0411415705314058 1.9338251664401731 6.2902184326363866 -8.5635895482661013 12.256941496769374 -5.555162712036168 11.454844540523576 -12.285302650998192
leaf_weight=3.1806696262210599 6.0145650897175065 7.4321451950818291 14.658968456089495 17.86840782314539 4.1150800492614517 19.828414073213938 28.641854632645842 6.3475728631019592 22.424585551023487 4.4304456505924428 9.5196392275392991 5.0608037300407913
leaf_count=5 6 6 24 40 23 41 63 8 23 21 47 9
internal_value=2.97858 7.31585 8.11754 -8.50062 -9.81838 5.35498 4.5081 -5.86648 11.3473 -7.32697 12.0179 -12.3852
internal_weight=149.523 108.52 101.088 41.003 37.8223 54.4848 48.4703 14.8931 46.6032 10.778 31.9442 22.9292
internal_count=316 210 204 106 101 110 104 52 94 29 70 49
is_linear=0
shrinkage=0.027352


Tree=20
num_leaves=13
num_cat=0
split_feature=29 11 29 30 25 29 29 7 12 52 40 29
split_gain=9.75912e+06 1.34566e+06 1.1624e+06 1.10985e+06 470756 395195 176055 73059.1 46693.7 43933.3 41562.9 112.355
threshold=153.00000000000003 -191.99999999999997 706.50000000000011 869.35782605956513 1699.1857504914067 -750.49999999999989 403.00000000000006 -8249.9999999999982 -42.499999999999993 6.9833984375000009 -189.99999237060544 -1066.4999999999998
decision_type=10 8 10 8 10 8 8 2 8 10 2 8
left_child=3 -2 4 5 6 11 -3 10 -9 -7 -4 -1
right_child=1 2 7 -5 -6 9 -8 8 -10 -11 -12 -13
leaf_value=-12.413495950627878 -3.7521513404646574 2.1316700803205197 9.6764971406768066 2.8268670338534809 10.365673159008074 -3.8601730006810651 5.641500348195164 6.885806546350703 10.744276174671027 -7.3968090056949816 12.173946569446763 -12.259065089062398
leaf_weight=17.86840782314539 7.7786734998226166 19.690237758681182 5.9400626420974723 5.6284877639263859 11.050616879016159 3.7706091534346333 23.397450853139159 4.1011412516236305 5.4868102259933931 8.6746712718158943 31.075179114937782 5.0608037300407913
leaf_count=40 6 38 8 19 22 22 50 8 23 16 55 9
internal_value=2.91359 7.20889 8.05524 -8.45451 5.32927 -10.2495 4.03759 11.222 9.0939 -6.32533 11.7732 -12.3794
internal_weight=149.523 108.52 100.741 41.003 54.1383 35.3745 43.0877 46.6032 9.58795 12.4453 37.0152 22.9292
internal_count=316 210 204 106 110 87 88 94 31 38 63 49
is_linear=0
shrinkage=0.027352


Tree=21
num_leaves=16
num_cat=0
split_feature=4 36 55 36 28 6 19 51 33 13 48 53 11 32 19
split_gain=9.29511e+06 2.20619e+06 1.3993e+06 365377 352058 195117 158934 118454 84720.9 74280 50617.2 30092 22827.5 5127.12 1229.86
threshold=16780.625000000004 13.699951171875002 2.4666748046875004 78.700195312500014 323.00000000000006 -1.1322841754242599 -6.2705588475247866 21.599609375000004 -0.89999389648437489 154.16666666666671 108.50000000000001 35.433268229166679 171.50000000000003 -2.6500244140624996 -9.8793752550079983
decision_type=2 2 10 2 10 10 10 8 2 10 2 10 10 2 10
left_child=2 6 7 5 14 11 -2 9 -7 10 -1 -4 -5 -11 -3
right_child=1 4 3 12 -6 8 -8 -9 -10 13 -12 -13 -14 -15 -16
leaf_value=7.7179998970095083 -0.68889014231506163 -11.945441645112549 9.7057130874293431 -0.82761161653732995 -6.1241790255753106 2.3874293133630129 5.8726432514283973 7.9154604137781277 6.3972087070455137 11.6945825067993 11.215973597265029 7.1686058782084592 1.5229098397235523 12.383823221561824 -12.413497080416452
leaf_weight=5.704065475612877 4.5626797238364816 5.4827361386269322 5.7718167304992667 6.3740429673343879 9.6145486794412118 10.740162737667562 6.9965925123542529 8.5950623853132111 6.2285763341933515 14.021013073623179 6.7689082529395819 8.8823828427121025 6.0012813657522202 19.152715563774109 18.809698450379077
leaf_count=16 19 17 19 19 23 28 14 7 36 18 22 12 7 14 36
internal_value=3.18883 -7.03653 7.92121 4.29667 -10.5545 5.85594 3.28264 10.8612 3.85929 11.4159 9.61633 8.16792 0.312216 12.0925 -12.3079
internal_weight=143.706 45.4663 98.24 43.9983 33.907 31.6229 11.5593 54.2418 16.9687 45.6467 12.473 14.6542 12.3753 33.1737 24.2924
internal_count=307 109 198 121 76 95 33 77 64 70 38 31 26 32 53
is_linear=0
shrinkage=0.027352


Tree=22
num_leaves=15
num_cat=0
split_feature=29 29 30 6 28 55 7 39 12 2 7 20 13 7
split_gain=9.93067e+06 1.18563e+06 910952 493579 488505 195473 166566 128064 93618.3 58328.9 12070.9 4941.75 1407.08 2587.28
threshold=198.50000000000003 706.50000000000011 646.15985233745369 -1.165814088224512 306.00000000000006 0.15002441406250003 -66784.060681629213 -198.99999999999997 -27.499999999999996 0.9618246289907203 -10466.666666666742 -4.146765709291965 127.50000000000001 -70674.999999999985
decision_type=8 10 10 8 10 10 2 2 8 8 2 2 10 2
left_child=2 3 4 6 12 -5 -2 -7 -3 -6 11 -10 13 -1
right_child=1 8 -4 5 9 7 -8 -9 10 -11 -12 -13 -14 -15
leaf_value=-11.148060902024039 11.695194245161346 9.1842806547707081 1.0279927776192448 6.8949010335546221 -7.0224829744851593 -2.1966896928828299 6.406532210057251 2.8986365027193473 11.446812940372537 -2.9304030145186437 10.715175083665248 12.302776443545699 -12.413496828738937 -12.413382372841639
leaf_weight=2.0582885723561049 7.7956581395119455 16.241425074636936 6.5443262867629519 8.3540804525837284 5.9524310193955881 4.3154270406812456 10.398932127282022 25.472545408643782 7.2782978862524095 4.6362017802894115 6.544511515647172 16.594446629285812 18.55424552410841 2.965465776622298
leaf_count=9 10 25 18 11 12 24 20 58 21 15 23 21 20 20
internal_value=3.11589 7.63641 -8.32063 4.96569 -10.1113 3.19743 8.67254 2.16046 10.8611 -5.23082 11.7564 12.0418 -12.303 -11.895
internal_weight=143.706 102.995 40.711 56.3366 34.1666 38.1421 18.1946 29.788 46.6587 10.5886 30.4173 23.8727 23.578 5.02375
internal_count=307 213 94 123 76 93 30 82 90 27 65 42 49 29
is_linear=0
shrinkage=0.027352


Tree=23
num_leaves=14
num_cat=0
split_feature=29 29 4 29 13 56 29 12 39 2 42 58 48
split_gain=9.73807e+06 1.18365e+06 1.03112e+06 479459 433303 314601 126194 100492 80641.4 67132.1 18908.7 14017.2 285.039
threshold=153.00000000000003 706.50000000000011 -69430.874999999985 -750.49999999999989 250.83333333333334 6.2000732421875009 403.00000000000006 -27.499999999999996 -65.499999999999986 0.9618246289907203 -2.600001017252604 0.22502747277066124 90.500000000000014
decision_type=8 10 2 10 10 8 8 8 2 8 10 8 2
left_child=2 4 -1 12 5 8 -7 -3 -2 -5 -9 -12 -4
right_child=1 7 3 9 -6 6 -8 10 -10 -11 11 -13 -14
leaf_value=2.5047949872163051 -2.3295095057620365 8.9928949081880685 -12.171317324805008 -7.1967743888481408 11.749157245205778 2.664577952652404 6.3404759650444626 9.8741663151406254 2.0286876361084278 -2.9369356730728029 12.315051442139081 10.920763905444918 -12.41349650643377
leaf_weight=5.6651800274848929 4.7431135075166813 16.241425074636936 4.804930396378043 7.2753651626408082 6.0689242482185355 9.473857160657646 26.62258657161146 3.8819653913378742 9.6153101958334428 4.4677823148667812 18.991202358156439 7.5440882816910806 18.310552543029189
leaf_count=12 21 25 17 18 4 24 57 6 19 14 36 23 31
internal_value=3.04364 7.50575 -8.31787 -10.0768 4.84409 4.01352 5.37571 10.7302 0.588987 -5.57612 11.6578 11.9187 -12.3632
internal_weight=143.706 103.182 40.5238 34.8586 56.5238 50.4549 36.0964 46.6587 14.3584 11.7431 30.4173 26.5353 23.1155
internal_count=307 215 92 80 125 121 81 90 40 32 65 59 48
is_linear=0
shrinkage=0.027352


Tree=24
num_leaves=16
num_cat=0
split_feature=4 28 55 26 52 25 32 28 12 44 35 11 37 49 10
split_gain=8.58503e+06 2.46491e+06 1.1559e+06 681478 216637 206453 115607 111087 174319 95629.4 62950.7 28268.2 27371.6 4522.45 226.228
threshold=16780.625000000004 403.00000000000006 6.1499837239583348 624.50000000000011 5.4833577473958348 1018.1440433162319 7.0000610351562509 894.00000000000011 -27.499999999999996 75.833129882812514 82.800048828125014 120.00000000000001 -0.78536085854130866 8.5498046875000018 -0.10771436819702886
decision_type=2 8 10 8 8 8 2 10 8 8 2 8 2 10 10
left_child=2 10 5 9 -4 -1 12 8 -7 -3 -2 -8 -6 -9 -12
right_child=1 3 4 -5 6 7 11 13 -10 -11 14 -13 -14 -15 -16
leaf_value=3.5378797985058168 -8.9582619588072916 -2.2049364466325803 7.2435842977910694 4.6389668722404327 1.684242817972007 6.8941053441064293 3.0306108348894663 11.479209170029103 10.48415726275476 -7.3111039507383708 -12.200440862562187 6.5088619233478715 -0.70953414358664468 12.381160190329824 -12.41349501846477
leaf_weight=3.8557574264705172 4.9661119058728245 5.6993201375007647 7.2077296376228333 12.697805688716469 6.4775043418631002 14.626601062715052 3.7797626331448546 7.7211719453334835 32.837188174016774 5.292240365408361 5.1318742427975002 3.2531408099457622 7.9713619640097031 9.0707324892282468 17.125252954661843
leaf_count=11 9 21 20 23 8 26 12 21 65 7 23 14 22 9 28
internal_value=2.96347 -6.1289 7.74562 0.322724 3.1403 9.68544 1.76351 10.0543 9.37784 -4.6635 -11.7431 4.63957 0.363581 11.9665 -12.3644
internal_weight=147.714 50.9126 96.801 23.6894 28.6895 68.1115 21.4818 64.2557 47.4638 10.9916 27.2232 7.0329 14.4489 16.7919 22.2571
internal_count=319 111 208 51 76 132 56 121 91 28 60 26 30 30 51
is_linear=0
shrinkage=0.027352


Tree=25
num_leaves=15
num_cat=0
split_feature=29 29 4 54 6 35 29 7 54 25 42 8 49 35
split_gain=8.85352e+06 1.14273e+06 965836 891043 899301 578064 213616 89080 78802.1 46781.6 45157.4 14222.1 8395.27 2112.3
threshold=153.00000000000003 745.00000000000011 -69430.874999999985 -13.499877929687498 4.1303928133325885 82.800048828125014 588.50000000000011 -8249.9999999999982 -15.849975585937498 536.18112638586626 -1.5499979654947913 0.0083454764087239255 9.7500000000000018 141.44995117187503
decision_type=8 10 2 8 10 2 10 2 10 8 10 2 10 2
left_child=2 3 -1 -2 6 9 -5 10 -9 -4 -3 -10 -12 -7
right_child=1 7 5 4 -6 13 -8 8 11 -11 12 -13 -14 -15
leaf_value=2.4444869143760455 12.268176430881404 9.2963247211446163 -7.021927501913213 3.1488691611233568 -7.9668389269075623 -11.755108475409271 7.1189571681322192 10.816749636097288 8.0690190657747625 -3.6650769434528359 11.33542123460707 5.5341628982511804 12.390706632390428 -12.413495818619101
leaf_weight=5.7894247323274604 9.6635792255401594 7.523871690034869 5.1819541938602898 32.790451284497976 4.8687864188104859 4.6287131980061558 14.678630659356712 5.7633129358291626 2.6779597811400873 7.7548586204648027 15.464877072721722 4.3443877696990967 8.8985729515552503 17.684175245463848
leaf_count=13 6 10 9 77 13 15 42 4 11 21 36 19 8 35
internal_value=2.88682 7.04024 -7.90932 4.63724 3.22827 -9.60984 4.37653 10.3754 8.44635 -5.00972 11.1488 6.50088 11.7209 -12.2769
internal_weight=147.714 106.674 41.0391 62.0014 52.3379 35.2497 47.4691 44.673 12.7857 12.9368 31.8873 7.02235 24.3635 22.3129
internal_count=319 226 93 138 132 80 119 88 34 30 54 30 44 50
is_linear=0
shrinkage=0.027352


Tree=26
num_leaves=14
num_cat=0
split_feature=29 29 4 55 11 28 29 28 12 25 42 58 35
split_gain=8.67405e+06 1.10584e+06 947066 905793 738301 611812 215812 93104.9 125442 63948.4 20671.4 5261 3074.21
threshold=153.00000000000003 745.00000000000011 -69430.874999999985 -8.4832763671874982 -163.49999999999997 323.00000000000006 588.50000000000011 894.00000000000011 -27.499999999999996 536.18112638586626 -1.9500020345052083 -0.42304534110078501 141.44995117187503
decision_type=8 10 2 8 8 10 10 10 8 8 10 8 2
left_child=2 3 -1 -2 -5 12 -6 8 -3 -7 -10 -9 -4
right_child=1 7 5 4 6 9 -8 11 10 -11 -12 -13 -14
leaf_value=2.3823814940664634 12.413475061553878 6.5682662694541332 -11.640677151886262 -6.6472341404259963 2.9952437900891136 -6.8572700753887776 6.9722036480766221 12.348948124979175 9.1074492755368048 -2.9467433373323644 11.056023358411643 11.358657723154185 -12.413495818619101
leaf_weight=5.7894247323274604 9.3393917083740217 8.8670192211866361 4.9499367009848383 5.1677883490920067 32.639945102855563 5.7447432540357086 14.854322427883742 8.3260583318769914 5.7595705017447498 6.8708460573107013 13.935170140117409 7.7851640060544041 17.684175245463848
leaf_count=13 4 17 15 10 81 12 43 8 10 18 35 18 35
internal_value=2.81583 6.92694 -7.87032 4.56304 3.17079 -9.55424 4.23909 10.2078 9.26989 -4.72751 10.4862 11.8705 -12.2445
internal_weight=147.714 106.674 41.0391 62.0014 52.6621 35.2497 47.4943 44.673 28.5618 12.6156 19.6947 16.1112 22.6341
internal_count=319 226 93 138 134 80 124 88 62 30 45 26 50
is_linear=0
shrinkage=0.027352


Tree=27
num_leaves=18
num_cat=0
split_feature=4 36 55 36 55 32 13 1 56 10 45 49 44 45 45 36 5
split_gain=7.67391e+06 2.06154e+06 1.21324e+06 510048 211162 132495 115478 113483 78111.8 61012.1 57487.4 47820.2 29336.2 29141.9 21433.5 13229.1 83.9904
threshold=11274.833333333374 -11.549804687499998 6.383341471354167 101.09985351562501 -0.56669108072916652 4.8502197265625009 179.16666666666671 -491448.49999999994 -21.899963378906246 0.93175091375728747 -1.5999908447265623 15.749877929687502 -105.68912887573241 -2.6000213623046871 0.39997863769531256 21.299804687500004 -59092.824999999946
decision_type=2 2 10 2 8 2 10 8 10 10 2 8 8 2 2 2 8
left_child=2 9 4 15 6 11 -1 -6 -9 13 -5 14 -7 -2 -4 -3 -17
right_child=1 3 5 10 7 12 -8 8 -10 -11 -12 -13 -14 -15 -16 16 -18
leaf_value=8.5754245593507719 0.029098419770744247 -10.736803466822273 0.53388585843692771 -7.0155822018910259 10.937527260499845 6.9061266224746021 11.481356140235967 0.96894489006550866 6.7592895658607084 5.9939568025978787 -3.3616772030670767 -1.3518231284475106 3.4756344666794967 3.6004957621435154 2.8042653559985058 -12.413488979421263 -12.265571201795627
leaf_weight=16.746363237500191 3.1153456578031182 4.6209947057068375 5.660327672958374 6.597118342295289 4.6294060945510864 3.7922950927168131 26.301823079586029 1.9489299058914245 16.505298032425344 4.8415257930755615 6.2965428307652456 5.1304592452943369 3.6709682224318376 3.7879186142235977 6.9079450201243162 13.677590292878447 4.3995953854173449
leaf_count=19 14 6 15 19 13 16 24 3 65 3 9 9 10 14 14 37 8
internal_value=2.64024 -6.29673 7.27415 -9.57568 9.2191 2.16231 10.3509 7.10839 6.1478 3.63989 -5.23125 0.873408 5.21882 1.98883 1.78179 -12.0435 -12.3775
internal_weight=138.63 47.3366 91.2938 35.5918 66.1318 25.162 43.0482 23.0836 18.4542 11.7448 12.8937 17.6987 7.46326 6.90326 12.5683 22.6982 18.0772
internal_count=298 110 188 79 124 64 43 81 68 31 28 38 26 28 29 51 45
is_linear=0
shrinkage=0.027352


Tree=28
num_leaves=16
num_cat=0
split_feature=4 36 55 36 55 29 13 1 53 56 10 11 29 9 27
split_gain=7.49552e+06 2.00753e+06 1.17939e+06 524681 215312 131535 121428 108305 96780 74343.2 57720 53283.1 16777 13920.5 10647.6
threshold=11274.833333333374 -11.549804687499998 6.383341471354167 101.09985351562501 -0.56669108072916652 288.50000000000006 179.16666666666671 -491448.49999999994 39.250162760416679 -21.899963378906246 0.93175091375728747 165.50000000000003 -750.49999999999989 1.0000000180025095e-35 714.16666666666686
decision_type=2 2 10 2 8 8 10 8 10 10 10 8 8 8 8
left_child=2 10 4 12 6 -4 -1 -6 13 -9 14 -5 -3 -7 -2
right_child=1 3 5 11 7 8 -8 9 -10 -11 -12 -13 -14 -15 -16
leaf_value=8.3868360673898756 0.65116412140612434 -12.413495415481533 -0.59327109721486848 -6.9727137240456969 10.674015195265552 5.3346081665715035 11.366674102038363 0.94244230267790574 2.2221014950449587 6.5913868760157053 5.8300100659922549 -3.4482776936688619 -10.652802157435383 8.3152432704660093 2.8338018189093126
leaf_weight=16.746363237500191 2.844706539064644 17.417916223406792 8.7844559252262098 6.022864952683447 4.6294060945510864 2.2747216336429155 26.301823079586029 1.9489299058914245 11.681496761739252 16.505298032425344 4.8415257930755615 6.8707962203770876 5.2802641605958369 2.4213209329172996 4.0585577329620719
leaf_count=19 17 43 21 11 13 9 24 3 17 65 3 17 8 17 11
internal_value=2.56725 -6.26524 7.14697 -9.50095 9.0646 2.10694 10.2075 6.93325 3.55529 5.99483 3.54033 -5.09464 -12.0039 6.87154 1.93444
internal_weight=138.63 47.3366 91.2938 35.5918 66.1318 25.162 43.0482 23.0836 16.3775 18.4542 11.7448 12.8937 22.6982 4.69604 6.90326
internal_count=298 110 188 79 124 64 43 81 43 68 31 28 51 26 28
is_linear=0
shrinkage=0.027352


Tree=29
num_leaves=18
num_cat=0
split_feature=4 36 55 36 55 31 32 1 58 10 11 49 19 58 58 55 42
split_gain=7.31791e+06 1.95556e+06 1.14404e+06 539213 218017 130524 122424 103267 74722.7 54605.5 50678.9 43972.2 24719.7 21732.1 19999.2 13473 134.319
threshold=11274.833333333374 -11.549804687499998 6.383341471354167 101.09985351562501 -0.56669108072916652 -223.78334655827445 4.8502197265625009 -491448.49999999994 -0.74618597304387657 0.93175091375728747 165.50000000000003 15.849975585937502 -5.9090932725436183 0.44465362372430112 0.33184198873638332 8.4000244140625018 -1.0499979654947913
decision_type=2 2 10 2 8 2 2 8 10 10 8 8 10 10 8 10 10
left_child=2 9 4 14 5 -1 11 -6 -9 12 -5 13 -2 -4 16 -8 -3
right_child=1 3 6 10 7 -7 15 8 -10 -11 -12 -13 -14 -15 -16 -17 -18
leaf_value=11.610611978613461 0.16710720960391953 -12.238497549186368 2.9835000427439224 -6.7925764179574815 10.414734734771521 8.5967926791053895 6.1815757072013549 10.629580927058804 5.2123782649588231 5.6705474891686274 -3.3553422099506811 -1.3360456211802827 3.444262012418382 0.69193547277269674 -10.31950740638705 3.856221413711495 -12.413488188525799
leaf_weight=20.853139266371727 3.29199502710253 4.9503923431038865 5.4399839174002409 6.022864952683447 4.6294060945510864 22.195047050714493 3.6456688884645692 2.1572868181392613 16.296941120177507 4.8415257930755615 6.8707962203770876 5.0714925304055258 3.6112692449241859 7.1872554905712605 4.4451466081663957 3.8175944266840816 13.302641432732347
leaf_count=21 13 20 12 11 13 22 10 7 61 3 17 8 15 18 11 16 20
internal_value=2.49289 -6.23432 7.01803 -9.42788 8.9067 10.0567 2.05412 6.76201 5.84567 3.4435 -4.96097 0.815175 1.88153 1.6792 -11.9653 4.99217 -12.3661
internal_weight=138.63 47.3366 91.2938 35.5918 66.1318 43.0482 25.162 23.0836 18.4542 11.7448 12.8937 17.6987 6.90326 12.6272 22.6982 7.46326 18.253
internal_count=298 110 188 79 124 43 64 81 68 31 28 38 28 30 51 26 40
is_linear=0
shrinkage=0.027352


Tree=30
num_leaves=13
num_cat=0
split_feature=29 8 36 55 29 3 50 54 7 6 45 35
split_gain=8.02459e+06 1.93521e+06 896169 814756 286577 220516 213047 198074 106318 91575.7 45231.1 45142.7
threshold=153.00000000000003 0.44723529379957866 78.700195312500014 -0.13334147135416666 611.50000000000011 -4.970697069197656 -8.6999511718749982 2.5499877929687504 -34774.999999999993 0.40403267785731573 -1.5999908447265623 137.05004882812503
decision_type=8 2 2 8 10 10 10 10 2 10 2 2
left_child=2 3 11 5 9 -2 -7 -4 -6 -5 -9 -1
right_child=1 -3 7 4 8 6 -8 10 -10 -11 -12 -13
leaf_value=-9.5409563951697294 11.718888414677258 -8.903609909372511 1.5618915287669419 4.0005542813969575 10.045200692984356 10.720929939048489 5.2829885746107879 -7.0041847989441255 5.871626404837075 0.65768034820873378 -3.3958831465682788 -12.413496750944356
leaf_weight=5.2577814590185907 22.651515383273363 5.9940285328775635 4.5096935331821433 21.190043017268184 6.7078530136495855 10.234809830784799 11.387374885380266 5.4994634222239247 14.3066364005208 8.6272214194759709 4.9291547238826743 18.497748881578445
leaf_count=15 21 10 6 44 17 11 16 24 51 26 12 36
internal_value=2.11598 6.17017 -8.47683 7.1202 4.7575 9.83287 7.85704 -3.22757 7.20386 3.03335 -5.29874 -11.7777
internal_weight=139.793 101.099 38.6938 95.1055 50.8318 44.2737 21.6222 14.9383 21.0145 29.8173 10.4286 23.7555
internal_count=289 196 93 186 138 48 27 42 68 70 36 51
is_linear=0
shrinkage=0.027352


Tree=31
num_leaves=15
num_cat=0
split_feature=4 26 25 24 26 8 28 23 12 4 28 44 37 12
split_gain=7.21112e+06 2.70054e+06 784160 530358 449736 295538 221796 185375 180882 82902.8 54516.8 25757.9 36394.4 21719
threshold=16780.625000000004 880.50000000000011 1056.5933601314478 -871.49999999999989 336.50000000000006 0.49743159143162596 875.50000000000011 1255.0833333333337 207.50000000000003 328107.54999999999 706.50000000000011 -281.85966491699213 0.95964588610261237 17.500000000000004
decision_type=2 8 8 10 10 2 10 10 10 2 10 8 2 10
left_child=2 3 7 -2 10 9 8 11 -6 -5 -4 -1 -13 -8
right_child=1 -3 4 5 6 -7 13 -9 -10 -11 -12 12 -14 -15
leaf_value=1.200654517336686 -12.413500504134502 4.2562165356934187 0.79258592811375106 -0.17671876608647571 6.946121632055462 -11.292130897717032 10.621870504501651 5.5944117139748046 11.958789359152474 -5.1364672747709701 4.851379118807559 1.1347909696104803 -3.4712812298332585 12.351487742159604
leaf_weight=7.7206526696681976 22.360814541578289 14.236716632731257 4.6307012224569899 3.8918626084923797 28.030818832106888 5.2101578637957564 11.66196643933654 7.5745021551847449 6.6668691337108603 7.1606285814195871 5.3209584355354309 2.430697154253723 2.7187035884708166 10.177274644374846
leaf_count=9 48 18 12 20 70 5 22 7 7 19 16 15 12 9
internal_value=2.04 -5.92666 6.88417 -9.6801 8.32467 -5.92171 9.26847 2.19942 7.90928 -3.39005 2.96278 0.201303 -1.29698 11.4279
internal_weight=139.793 52.8602 86.9331 38.6235 66.4886 16.2626 56.5369 20.4446 34.6977 11.0525 9.95166 12.8701 5.1494 21.8392
internal_count=289 110 179 92 136 44 108 43 77 39 28 36 27 31
is_linear=0
shrinkage=0.027352


Tree=32
num_leaves=12
num_cat=0
split_feature=29 54 6 29 35 54 49 29 38 58 1
split_gain=7.71119e+06 1.03569e+06 1.55802e+06 871271 495434 288660 220256 162607 128553 102827 46439.8
threshold=153.00000000000003 -8.3498535156249982 5.4114913790655965 -1066.4999999999998 -80.849365234374986 1.5499267578125002 23.500000000000004 403.00000000000006 233.20001220703128 -0.55415901709556536 -219309.49999999997
decision_type=8 8 10 10 2 10 8 10 2 8 10
left_child=3 9 4 -1 8 -5 10 -6 -3 -2 -7
right_child=1 2 -4 5 7 6 -8 -9 -10 -11 -12
leaf_value=-12.413498236371089 11.877065285641859 6.9085114864297372 -9.2627607535590819 3.4140212282299554 1.4107755692756208 -2.2118687764629326 -11.464223274440473 4.9130907391965533 11.156137596096437 8.677121369756307 -5.6265262123192583
leaf_weight=19.88297918625176 14.189718835055826 12.495830019004645 5.9517236091196528 3.1082149203866747 15.429057115688918 6.0796739142388105 3.7780635952949533 27.766171390190721 9.2972960788756591 15.969685435295107 5.8449104037135804
leaf_count=41 10 31 8 4 36 18 5 64 29 18 25
internal_value=1.96258 5.93682 4.13173 -8.42132 5.35843 -4.20159 -5.70906 3.6621 8.72064 10.1827 -3.88562
internal_weight=139.793 101.099 70.9401 38.6938 64.9884 18.8109 15.7026 43.1952 21.7931 30.1594 11.9246
internal_count=289 196 168 93 160 52 48 100 60 28 43
is_linear=0
shrinkage=0.027352


Tree=33
num_leaves=14
num_cat=0
split_feature=35 25 26 26 13 3 6 55 46 24 11 52 39
split_gain=7.25498e+06 1.87348e+06 1.07768e+06 667088 436697 439430 399123 272587 189541 173021 67731.7 42703.9 30446.5
threshold=112.50000000000001 1056.5933601314478 346.00000000000006 649.00000000000011 -46.333333333333321 -5.8608089952647751 2.1232185900212386 -5.6333414713541661 -1.0000000180025095e-35 -209.49999999999997 165.50000000000003 13.550048828125002 -76.499999999999986
decision_type=2 8 10 10 10 10 8 8 8 10 8 10 2
left_child=1 3 6 10 5 -2 -3 -4 -9 12 -1 -11 -5
right_child=4 2 7 9 -6 -7 -8 8 -10 11 -12 -13 -14
leaf_value=-6.4949459668836012 4.6094671351407923 3.7284438096264747 11.951212136646014 5.6986615459240708 -12.413500382507305 -11.604661025806067 -6.4513233353250365 9.3325007542990921 5.7752505207596307 1.5552901006800268 -2.4503161112263689 -1.4028399799475622 3.3860626947723125
leaf_weight=7.5131569281220418 2.5101710455492166 8.4578466061502677 16.71848937869072 7.7658624574542072 22.212668769061565 2.491835112683475 4.3703423645347348 27.392359506338835 18.965651978738606 9.8051930516958219 5.2710754759609699 5.8168638218194237 9.4351640697568637
leaf_count=16 7 23 12 9 31 25 11 58 52 23 20 13 17
internal_value=1.9957 4.85464 7.48725 0.47315 -10.7693 -3.4678 0.260342 8.95702 7.87719 2.53764 -4.82733 0.453806 4.43017
internal_weight=148.727 121.512 75.9047 45.6073 27.2147 5.00201 12.8282 63.0765 46.358 32.8231 12.7842 15.6221 17.201
internal_count=317 254 156 98 63 32 34 122 110 62 36 36 26
is_linear=0
shrinkage=0.027352


Tree=34
num_leaves=13
num_cat=0
split_feature=29 55 54 6 38 24 29 30 48 28 19 2
split_gain=8.13796e+06 991737 846023 1.03453e+06 549218 355905 203240 169786 100728 90011.3 73747.3 68188.7
threshold=125.00000000000001 3.7166748046875004 -3.0999755859374996 4.1303928133325885 225.20007324218753 -1176.9999999999998 403.00000000000006 1900.9308236874908 106.00000000000001 922.50000000000011 -10.403686105026766 -0.92055980937964443
decision_type=10 10 10 8 2 8 10 10 2 10 10 8
left_child=1 -1 7 4 6 -3 -4 9 -6 11 -7 -2
right_child=2 5 3 -5 8 10 -8 -9 -10 -11 -12 -13
leaf_value=-2.0004552740951596 8.0557384888240229 -12.413501975044502 1.2895895882765411 -7.8875423352561462 6.3637845080070834 -8.0732133204436689 4.977038505403244 12.011706273890093 11.472586171356252 10.181704086268029 -1.2174922340113645 4.332484899547647
leaf_weight=13.059867992997168 11.029420480132101 24.312722597271204 16.694076938554645 4.9607954286038867 4.1344516035169354 2.0979938246309757 33.872111523523927 11.546687841415403 9.5751467365771514 9.2545517068356258 2.6653424398973611 5.5235114526003661
leaf_count=20 18 52 32 12 11 11 76 6 28 14 22 15
internal_value=1.91448 -8.26173 5.9372 4.14732 5.07617 -11.074 3.75966 9.25477 9.93194 8.02126 -4.23715 6.81336
internal_weight=148.727 42.1359 106.591 69.2366 64.2758 29.0761 50.5662 37.3542 13.7096 25.8075 4.76334 16.5529
internal_count=317 105 212 159 147 85 108 53 39 47 33 33
is_linear=0
shrinkage=0.027352


Tree=35
num_leaves=11
num_cat=0
split_feature=35 4 55 37 5 4 38 38 57 37
split_gain=7.07443e+06 1.77516e+06 847150 459420 449028 278446 237453 208230 123927 403.817
threshold=117.10034179687501 160774.60000000012 2.3833414713541674 1.1339119817258829 -35428.324999999946 -204074.34999999995 -107.45013427734374 127.50012207031251 10.349975585937502 0.072239590862655897
decision_type=2 2 10 2 8 2 2 2 8 2
left_child=1 2 5 -3 9 -1 -4 -7 -8 -2
right_child=4 3 6 -5 -6 7 8 -9 -10 -11
leaf_value=10.905603094608427 -12.138572907822121 3.3944209752172423 -0.31558074819899024 -5.8094285743073133 -2.8002529465264905 8.5251858557296192 3.3797271580538557 4.2715973521514954 6.9799816318233017 -12.413495146510323
leaf_weight=20.103067126125097 5.4245257936418083 5.8418577034026411 10.393327429890631 13.282771665602921 4.3990650353953269 22.474141358397901 25.639267092570662 13.958272550255058 9.9209633655846101 17.289421445690095
leaf_count=25 10 18 25 20 12 45 62 19 43 38
internal_value=1.83529 4.65198 6.07948 -2.99798 -10.7988 8.32145 3.32122 6.89553 4.38417 -12.3479
internal_weight=148.727 121.614 102.489 19.1246 27.113 56.5355 45.9536 36.4324 35.5602 22.7139
internal_count=317 257 219 38 60 89 130 64 105 48
is_linear=0
shrinkage=0.027352


Tree=36
num_leaves=13
num_cat=0
split_feature=4 36 25 36 13 58 53 5 3 43 19 6
split_gain=8.31991e+06 1.42858e+06 886006 615687 251293 221737 114911 72945.4 72626.9 44146.1 32477.1 18056.1
threshold=16780.625000000004 -11.549804687499998 1056.5933601314478 101.09985351562501 179.16666666666671 -1.06923703480217 35.883300781250007 94205.20833333327 -6.7705339365443287 1.6500244140625002 -2.7113649140566527 2.7454725070743966
decision_type=2 2 8 2 10 8 10 10 8 8 10 10
left_child=2 9 8 11 5 -4 -7 -6 -1 -2 -5 -3
right_child=1 3 4 10 7 6 -8 -9 -10 -11 -12 -13
leaf_value=3.1886984283768185 3.2634744855016451 -12.413501061523984 11.395689655387141 -5.8799165644545601 7.9109343480362249 6.2914858927959045 2.6342699897470192 10.62302911000009 -0.25755015807296139 -0.36974540671502842 -2.8822961839014978 -10.759898456528227
leaf_weight=7.3125555515289307 5.2585501670837385 23.073934313841168 5.3215907476842403 5.586151622235775 12.770059436559679 26.428820034489036 8.4935327051207405 17.713187836110592 12.219685446470978 4.7726286286488175 5.2422805745154601 6.291775280609726
leaf_count=21 8 46 6 23 17 88 19 20 25 21 9 11
internal_value=1.22411 -7.69906 6.18946 -10.0036 7.61357 6.19459 5.40202 9.48689 1.03265 1.53482 -4.42874 -12.0592
internal_weight=140.485 50.2253 90.2594 40.1941 70.7272 40.2439 34.9224 30.4832 19.5322 10.0312 10.8284 29.3657
internal_count=314 118 196 89 150 113 107 37 46 29 32 57
is_linear=0
shrinkage=0.027352


Tree=37
num_leaves=14
num_cat=0
split_feature=4 56 29 4 31 55 7 24 42 46 46 49 1
split_gain=8.11933e+06 1.51586e+06 858816 365830 345690 171147 131515 109279 87020 50154.9 44316.1 40832.4 36528.4
threshold=16780.625000000004 11.850097656250002 697.50000000000011 251782.80000000008 -1004.0319360051436 7.016642252604167 -8249.9999999999982 -477.49999999999994 -1.5499979654947913 -1.4500122070312498 0.74996948242187511 15.849975585937502 -491448.49999999994
decision_type=2 8 10 2 2 10 2 10 10 10 8 10 10
left_child=2 7 4 -3 -1 12 8 -2 -4 -10 -8 -7 -6
right_child=1 3 6 -5 5 11 10 -9 9 -11 -12 -13 -14
leaf_value=12.41337395703734 -12.413501633634354 2.1465046954759295 6.8169478827463212 -5.2323520863517494 7.0785154008512796 1.415200019682874 7.3783328647567394 -8.3096378883038362 10.911415064572592 8.5951583861520078 3.9895892360067755 -1.3713925589000275 3.7523241867263417
leaf_weight=2.7907574772834769 23.838685815222565 9.1800005249679106 8.3608430027961713 11.110184521414338 2.9112604735419181 13.256688384339215 6.9816081672906858 6.0964497253298751 17.449527714401484 11.676399014890196 4.9240841921418905 5.5940062776207915 16.314257053658366
leaf_count=2 54 22 12 21 12 37 16 21 24 29 15 9 40
internal_value=1.14932 -7.66563 6.05445 -1.89388 3.12126 2.4402 8.48134 -11.5777 9.27676 9.98286 5.97681 0.588248 4.25602
internal_weight=140.485 50.2253 90.2594 20.2902 40.867 38.0762 49.3925 29.9351 37.4868 29.1259 11.9057 18.8507 19.2255
internal_count=314 118 196 43 100 98 96 75 65 53 31 46 52
is_linear=0
shrinkage=0.027352


Tree=38
num_leaves=15
num_cat=0
split_feature=4 28 25 4 58 46 52 2 23 11 34 9 48 57
split_gain=7.92658e+06 1.51284e+06 818146 389832 245608 172254 146712 87766 73183.9 66098.8 64327.4 55569.7 34477.3 456.688
threshold=16780.625000000004 363.00000000000006 1056.5933601314478 328107.54999999999 -0.15643973923656992 3.2500000000000004 14.41666666666667 -0.97161701913195908 1179.7500000000002 169.50000000000003 66.850097656250014 0.044800000000000041 147.50000000000003 -36.800048828124993
decision_type=2 8 8 2 8 8 10 8 8 8 2 8 2 10
left_child=2 10 8 11 5 9 7 -6 12 -4 -2 -3 -1 -12
right_child=1 3 4 -5 6 -7 -8 -9 -10 -11 13 -13 -14 -15
leaf_value=-2.3325058236844658 -8.9146246239800373 2.8192552464081961 7.8201304487472978 -6.2483901215975424 8.6636013200160633 4.9263424304967067 2.066810247360213 5.5059245693986298 3.0136280135784261 10.745537621383955 -12.104698251742869 -0.9317403283347907 0.74086838472143501 -12.413497380305605
leaf_weight=4.3470709472894686 4.9144079033285406 6.5715654715895671 8.1825011074542999 9.703778690658508 9.8468721956014615 6.4517025556415311 6.6838092608377329 19.885490959510211 7.8411422353237858 19.676814680919051 4.5701410677284064 5.3684864351525903 7.3440278153866529 19.096941018477079
leaf_count=19 14 15 17 25 19 11 14 55 11 34 8 15 16 41
internal_value=1.07809 -7.6316 5.92465 -2.17651 7.29314 8.95369 5.72856 6.55171 0.969253 9.88634 -11.7625 1.1327 -0.401862 -12.3539
internal_weight=140.485 50.2253 90.2594 21.6438 70.7272 34.311 36.4162 29.7324 19.5322 27.8593 28.5815 11.9401 11.6911 23.6671
internal_count=314 118 196 55 150 62 88 74 46 51 63 30 35 49
is_linear=0
shrinkage=0.027352


Tree=39
num_leaves=14
num_cat=0
split_feature=4 28 30 29 3 6 23 54 4 6 4 24 51
split_gain=7.33864e+06 1.99549e+06 644698 541334 527152 162616 129183 123125 85609.5 62409.9 47878.2 35249.7 34705.7
threshold=16780.625000000004 372.00000000000006 2077.4857953181031 603.50000000000011 2.659746985797304 1.8616647567667091 1238.5833333333337 0.90002441406250011 -225123.19999999992 0.061335350641126947 -248076.52499999988 -1595.9999999999998 7.2501220703125009
decision_type=2 10 10 10 10 8 8 10 2 8 2 10 10
left_child=2 11 3 6 12 -6 10 9 -9 -5 -1 -2 -3
right_child=1 4 -4 7 5 -7 -8 8 -10 -11 -12 -13 -14
leaf_value=3.2979139872457957 -12.413499254234862 4.5264465582226254 10.775374967841403 9.1301731655421854 -2.3713326373467805 -8.548953850652472 5.4900626808508743 7.1425013357979878 3.9117377226072167 6.0296106016946336 0.1713795013241039 -10.054886881992996 1.5968942210899963
leaf_weight=4.7340288050472799 20.886875740252439 5.2585956975817698 17.883746020495892 15.926714615896342 7.3603100683540088 5.6237855926156044 5.8013198589906088 11.382038665935399 13.315268505364655 6.9891192503273514 16.217549867928028 6.1351325605064622 7.12529999576509
leaf_count=11 46 6 14 28 16 11 13 38 28 14 52 12 21
internal_value=1.46963 -6.70582 6.1126 4.99127 -1.19638 -5.04707 1.87801 6.74055 5.40069 8.18455 0.877842 -11.878 2.84091
internal_weight=144.64 52.39 92.2498 74.366 25.368 12.9841 26.7529 47.6131 24.6973 22.9158 20.9516 27.022 12.3839
internal_count=310 112 198 184 54 27 76 108 66 42 63 58 27
is_linear=0
shrinkage=0.027352


Tree=40
num_leaves=12
num_cat=0
split_feature=29 7 5 31 25 34 29 55 40 49 59
split_gain=7.21096e+06 1.69346e+06 867928 434152 409786 198647 181725 177527 132904 120889 33471.4
threshold=-186.99999999999997 32325.000000000004 4993.0416666666288 838.1451869972783 1699.1857504914067 66.850097656250014 403.00000000000006 -5.6333414713541661 -189.99999237060544 9.7500000000000018 7.3271670408995275
decision_type=8 2 10 2 8 2 8 10 2 10 8
left_child=5 2 4 9 6 -1 -2 -4 -9 10 -3
right_child=1 3 7 -5 -6 -7 -8 8 -10 -11 -12
leaf_value=-6.2938846581751342 0.055549954297653484 6.0320902248067503 11.049896482411809 -10.024647499130324 7.6116305974735372 -12.40519533410661 3.7099138796102915 4.444517772080272 8.4186643023488212 -2.4157145456297329 0.79305456049055045
leaf_weight=4.8447744622826603 18.959919381886724 1.8947848193347483 13.93803298473358 5.2955803647637358 12.879381785169242 22.2792260479182 21.986376799643036 8.60419999621808 23.467777988873426 8.7298154076561314 1.7599152065813539
leaf_count=17 50 18 10 9 21 42 38 10 65 18 12
internal_value=1.39835 4.33243 5.71417 -3.46997 3.35629 -11.3136 2.01779 8.47258 7.3525 -0.667181 3.50935
internal_weight=144.64 117.516 99.8357 17.6801 53.8257 27.124 40.9463 46.01 32.072 12.3845 3.6547
internal_count=310 251 194 57 109 59 88 85 75 48 30
is_linear=0
shrinkage=0.027352


Tree=41
num_leaves=10
num_cat=0
split_feature=29 4 55 4 29 35 29 7 29
split_gain=7.10416e+06 1.97638e+06 746462 356534 343950 181082 132462 89902.7 67574.7
threshold=-186.99999999999997 301003.00000000006 0.15002441406250003 -280652.27499999985 588.50000000000011 124.39990234375001 745.00000000000011 -32124.999999999996 288.50000000000006
decision_type=8 2 8 2 10 2 10 2 10
left_child=5 2 3 -2 8 -1 -5 -6 -4
right_child=1 -3 4 6 7 -7 -8 -9 -10
leaf_value=-6.8377215555586179 11.197242294550749 -6.1668569519410754 -0.68474695145931586 3.8279765396607504 7.9745816781593888 -12.413499995161818 7.43068296627471 4.4497640737199102 2.1193941584834302
leaf_weight=5.4548995736986425 16.041738841682673 12.236478446051477 9.4380692932754773 11.249619435518978 8.0394245162606257 21.669100936502218 23.766750007867813 16.577210003510118 20.166494190692902
leaf_count=15 16 20 43 18 23 44 23 64 44
internal_value=1.32533 4.23759 5.44689 7.82032 3.21192 -11.2922 6.27326 5.60093 1.22541
internal_weight=144.64 117.516 105.279 51.0581 54.2212 27.124 35.0164 24.6166 29.6046
internal_count=310 251 231 57 174 59 41 87 87
is_linear=0
shrinkage=0.027352


Tree=42
num_leaves=11
num_cat=0
split_feature=29 28 54 6 35 29 25 1 39 58
split_gain=7.31274e+06 1.05337e+06 782579 653008 491860 239425 112147 67782.4 53768.5 437.184
threshold=58.000000000000007 -246.99999999999997 -8.3498535156249982 3.8931313344093099 -144.39990234374997 421.50000000000006 1586.2813285581663 -205408.49999999997 20.000000000000004 -0.083423800228347042
decision_type=10 8 10 8 2 10 10 10 2 8
left_child=1 9 6 4 8 -6 -2 -3 -4 -1
right_child=2 7 3 -5 5 -7 -8 -9 -10 -11
leaf_value=-12.413499085905825 7.0138444061948002 -0.7667338230847236 7.253222914246674 -6.527127710728629 0.83589158868203461 4.3483523470657399 10.348764065327993 -4.6031813891045372 11.07704936347359 -12.100176915969048
leaf_weight=20.671103477478027 16.1257548481226 5.8553377222269765 5.0472013242542726 4.661134159192442 22.576042126864195 40.681362038478255 14.17765301465988 8.3720595370978099 6.0499994866549969 4.1172183975577381
leaf_count=41 21 23 20 13 48 88 8 20 18 12
internal_value=1.20906 -8.95661 4.83717 3.404 4.02657 3.09479 8.57412 -3.02431 9.33794 -12.3615
internal_weight=148.335 39.0157 109.319 79.0157 74.3546 63.2574 30.3034 14.2274 11.0972 24.7883
internal_count=312 96 216 187 174 136 29 43 38 53
is_linear=0
shrinkage=0.027352


Tree=43
num_leaves=14
num_cat=0
split_feature=28 25 58 29 55 24 53 24 1 35 59 59 32
split_gain=7.21599e+06 1.31832e+06 631395 397020 316408 222253 189181 96856 50843.8 26930.7 24248.4 16752.5 835.761
threshold=-750.49999999999989 1056.5933601314478 1.0808102016986825 125.00000000000001 -5.6333414713541661 69.500000000000014 35.200032552083336 -209.49999999999997 -113349.99999999999 65.250000000000014 6.4818288865365759 6.8537302961317659 -1.7499999999999998
decision_type=8 8 8 10 10 8 10 8 8 2 8 8 2
left_child=12 3 4 8 -3 -4 -6 9 -2 -5 -7 -9 -1
right_child=1 2 5 7 6 10 -8 11 -10 -11 -12 -13 -14
leaf_value=-12.018674534333144 -1.6407030952443762 10.5283452308525 -2.2293058293822452 2.3681537219489375 6.9316446344622467 5.908852971061072 2.5262095203240023 1.2979271872616522 -4.7505262645107251 4.7358484691133773 2.8147401726560886 -0.52884419599301269 -12.413498032248965
leaf_weight=5.1420099344104555 7.1717726215720177 16.058948904275894 7.7567679565399867 6.8054443411529046 37.573885343968868 3.7766689974814653 9.0491554383188468 8.5041248202323914 8.7113932771608216 7.6183509901165962 3.8045599265024066 6.7257982939481744 19.635985286906362
leaf_count=13 21 12 7 14 92 15 17 20 23 13 13 12 40
internal_value=1.13992 3.84149 5.99996 0.143305 7.21713 1.02572 6.07659 2.01246 -3.34636 3.61875 4.35616 0.491167 -12.3316
internal_weight=148.335 123.557 78.02 45.5369 62.682 15.338 46.623 29.6537 15.8832 14.4238 7.58123 15.2299 24.778
internal_count=312 259 156 103 121 35 109 59 44 27 28 32 53
is_linear=0
shrinkage=0.027352


Tree=44
num_leaves=12
num_cat=0
split_feature=29 29 27 29 1 4 49 29 50 53 48
split_gain=7.12733e+06 1.20706e+06 488435 614106 381465 214318 110277 91129 37452.1 11123.5 22076.5
threshold=-397.49999999999994 346.00000000000006 1231.3333333333337 745.00000000000011 1303889.5000000002 328107.54999999999 3.3499755859375004 978.00000000000011 13.650146484375002 37.716471354166679 86.000000000000014
decision_type=8 10 10 10 8 2 10 10 8 10 2
left_child=9 5 3 4 -3 6 -2 -5 -8 10 -1
right_child=1 2 -4 7 -6 -7 8 -9 -10 -11 -12
leaf_value=-8.8215503279188088 4.579592155928272 3.0968175527608017 12.413460129361644 5.9774927208288844 -7.0263507471062354 -4.0855885743069758 0.50918000502457805 8.4720198910847753 -2.3552832174680658 -12.413498385313705 -12.413395859159312
leaf_weight=2.1002851985394981 4.532919434830549 34.749069081619382 6.9382197856903067 26.421193085610867 3.0274535436183205 9.7081833062693459 14.351012418046592 18.720751330256462 4.4810854075476554 20.021576441824436 3.2831170987337828
leaf_count=8 14 78 3 56 5 24 34 29 15 27 19
internal_value=1.0721 3.7977 5.44203 4.85869 2.28552 -0.669766 0.749494 7.012 -0.172396 -12.1166 -11.0121
internal_weight=148.335 122.93 89.8567 82.9185 37.7765 33.0732 23.365 45.1419 18.8321 25.405 5.3834
internal_count=312 258 171 168 83 87 63 85 49 54 27
is_linear=0
shrinkage=0.027352


Tree=45
num_leaves=12
num_cat=0
split_feature=29 36 54 7 35 29 45 11 46 48 37
split_gain=5.42086e+06 1.14209e+06 1.07187e+06 1.13947e+06 431542 186725 144112 125540 99389.1 66932.7 2.31995
threshold=58.000000000000007 102.09985351562501 -8.3498535156249982 177225.00000000003 -144.39990234374997 588.50000000000011 -0.64999389648437489 176.50000000000003 1.8500366210937502 106.00000000000001 0.1071871961943963
decision_type=8 2 8 2 2 10 2 10 10 2 2
left_child=1 8 7 4 9 -6 -3 -2 -1 -4 -10
right_child=2 6 3 -5 5 -7 -8 -9 10 -11 -12
leaf_value=-8.0685829047429944 6.6263190086982773 -4.5826497855863781 5.8068153088280603 -8.1845420770541075 1.5142826282523754 4.4695441697505487 0.60526273967151401 10.115689069078014 -12.358502575792372 10.402943077068485 -12.413484827884197
leaf_weight=5.1194546278566149 13.473685942590238 7.7551123742014196 3.6355498572811467 6.6267644148319951 36.339229751378298 28.572145940735936 8.2855251282453519 18.047237023711205 5.7564098965376642 6.8149081645533442 11.960697349160908
leaf_count=16 16 20 14 11 84 69 9 12 6 26 28
internal_value=1.31834 -7.49658 4.33747 2.68942 3.64561 2.81511 -1.90289 8.62416 -11.4256 8.80406 -12.3956
internal_weight=152.387 38.8772 113.51 81.9886 75.3618 64.9114 16.0406 31.5209 22.8366 10.4505 17.7171
internal_count=311 79 232 204 193 153 29 28 50 40 34
is_linear=0
shrinkage=0.027352


Tree=46
num_leaves=12
num_cat=0
split_feature=29 36 54 4 4 45 59 35 29 48 10
split_gain=5.30898e+06 1.15005e+06 1.04956e+06 1.14294e+06 470013 136656 129805 116161 108042 92782.9 6.05487
threshold=58.000000000000007 102.09985351562501 -8.3498535156249982 432183.2833333335 -237766.94999999992 -0.64999389648437489 8.6535022500996401 -131.15014648437497 421.50000000000006 83.000000000000014 -0.40943788749801263
decision_type=8 2 8 2 2 2 10 2 10 2 10
left_child=1 9 6 4 7 -3 -2 -4 -6 -1 -11
right_child=2 5 3 -5 8 -7 -8 -9 -10 10 -12
leaf_value=-8.3239072783612773 6.6247526425277412 -4.4632282704484183 9.1285806230792748 -9.3131602165076668 0.61799428242483645 0.58870749107031528 10.141414788257526 5.0771034819870433 3.1092737315292642 -12.349896989677951 -12.4134855349805
leaf_weight=5.5267024319618967 14.83560184389353 7.7551123742014196 9.7826483603566903 5.6005205893889061 21.138694538734853 8.2855251282453519 16.685321122407913 11.541145659983156 33.925588980317116 5.0972172413021388 12.212642200291151
leaf_count=17 17 20 32 9 51 9 11 24 88 15 18
internal_value=1.25661 -7.46688 4.24443 2.61362 3.48806 -1.85371 8.48628 6.93581 2.1529 -11.4096 -12.3948
internal_weight=152.387 38.8772 113.51 81.9886 76.3881 16.0406 31.5209 21.3238 55.0643 22.8366 17.3099
internal_count=311 79 232 204 195 29 28 56 139 50 33
is_linear=0
shrinkage=0.027352


Tree=47
num_leaves=11
num_cat=0
split_feature=28 54 31 35 13 54 23 28 36 45
split_gain=5.2133e+06 1.37869e+06 1.1753e+06 463382 351439 248075 190192 147402 136216 52111
threshold=-750.49999999999989 -8.3498535156249982 285.70408796744181 -51.100097656249993 75.833333333333357 -2.8499755859374996 1029.4166666666667 911.50000000000011 38.799560546875007 -1.5999908447265623
decision_type=8 10 2 2 10 10 10 8 2 2
left_child=4 6 3 7 -1 -4 -2 -3 -5 -7
right_child=1 2 5 8 -6 9 -8 -9 -10 -11
leaf_value=-4.361297105717858 6.3570609428335416 5.1881370792883805 -10.050250545702447 2.4957795762267292 -12.413496640273522 -4.2811242739942248 10.61797543414011 10.868012861426815 -0.708608532144962 -0.98150040218728118
leaf_weight=5.2041188646107939 16.973527777008716 24.939196513965726 4.4446661472320583 35.888900702819228 18.368728816509247 7.2594698015600452 14.561565697193144 3.9613900491967824 13.718062716536222 7.0670933844521615
leaf_count=23 21 62 2 90 24 19 8 9 35 18
internal_value=1.19042 3.35462 1.74349 3.21359 -10.6358 -4.40493 8.32458 5.96669 1.60965 -2.65349
internal_weight=152.387 128.814 97.2788 78.5075 23.5728 18.7712 31.5351 28.9006 49.607 14.3266
internal_count=311 264 235 196 47 39 29 71 125 37
is_linear=0
shrinkage=0.027352


Tree=48
num_leaves=10
num_cat=0
split_feature=28 54 4 53 23 4 8 29 36
split_gain=6.49921e+06 1.14654e+06 753440 249044 235909 172111 87144.2 55864.6 1242.79
threshold=-750.49999999999989 -8.3498535156249982 160774.60000000012 35.883300781250007 1029.4166666666667 -225123.19999999992 0.0033370040043501086 288.50000000000006 27.100341796875004
decision_type=8 10 2 10 10 2 2 10 2
left_child=8 4 3 5 -2 -3 -4 -5 -1
right_child=1 2 6 7 -6 -7 -8 -9 -10
leaf_value=-11.890079052921388 5.8575195108050382 6.5188666486467222 -2.1748684149684725 -1.4002176129080228 10.496981796179069 2.9398533286885851 -6.5664194991535707 1.6413761575091157 -12.413497120091888
leaf_weight=4.1939296536147621 18.768694675527513 16.71883895713836 9.530194176360963 6.1638515060767558 14.561565697193144 25.210867115296423 5.2391567584127179 16.914520941674709 18.832157801836729
leaf_count=7 25 53 19 19 8 91 19 23 42
internal_value=0.927456 3.62396 1.84396 3.11095 7.88445 4.36694 -3.73272 0.828999 -12.3182
internal_weight=136.134 113.108 79.7774 65.0081 33.3303 41.9297 14.7694 23.0784 23.0261
internal_count=306 257 224 186 33 144 38 42 49
is_linear=0
shrinkage=0.027352


Tree=49
num_leaves=11
num_cat=0
split_feature=28 54 4 30 35 4 29 41 13 36
split_gain=6.43277e+06 1.11134e+06 716465 376742 255141 120115 108217 80828.3 70706.5 1381.64
threshold=-750.49999999999989 -8.3498535156249982 251782.80000000008 1900.9308236874908 -51.100097656249993 -248076.52499999988 403.00000000000006 -3.7999267578124996 100.00000000000001 27.100341796875004
decision_type=8 10 2 10 2 2 10 8 8 2
left_child=9 3 4 7 5 -3 -6 -2 -4 -1
right_child=1 2 8 -5 6 -7 -8 -9 -10 -11
leaf_value=-11.861908048845336 7.11435710100608 7.095207917655439 -6.7008831014613346 11.496920658850019 0.13012639697594747 3.2252696370831404 2.8942914458273443 3.7030700442033964 -2.5249785418879185 -12.413497120091888
leaf_weight=4.1939296536147621 10.912672009319065 12.178876901045443 4.9131165295839292 12.495842218399046 19.052325077354908 11.82821948174387 23.874655509367585 9.9217461450025457 7.9302359558641911 18.832157801836729
leaf_count=7 12 42 12 6 54 29 66 15 21 42
internal_value=0.864705 3.54739 1.79493 7.74198 2.93037 5.18852 1.66748 5.48986 -4.12247 -12.313
internal_weight=136.134 113.108 79.7774 33.3303 66.9341 24.0071 42.927 20.8344 12.8434 23.0261
internal_count=306 257 224 33 191 71 120 27 33 49
is_linear=0
shrinkage=0.027352


Tree=50
num_leaves=11
num_cat=0
split_feature=28 54 4 30 25 4 38 8 41 21
split_gain=6.37015e+06 1.08012e+06 681135 382974 224865 113762 107813 80377.6 76467 1229.36
threshold=-750.49999999999989 -8.3498535156249982 160774.60000000012 1900.9308236874908 1699.1857504914067 -248076.52499999988 -107.45013427734374 0.0033370040043501086 -3.7999267578124996 -2.1924946126008926
decision_type=8 10 2 10 8 2 2 2 8 10
left_child=9 3 4 8 6 -6 -3 -4 -2 -1
right_child=1 2 7 -5 5 -7 -8 -9 -10 -11
leaf_value=-11.925516875849084 6.9197651074024558 -0.73288565713295706 -2.0587375598993045 11.396238833970145 6.915837985314643 3.1716477351545533 2.520666797884286 -6.2763507581907518 3.601783628576976 -12.413496194106688
leaf_weight=4.9821205958724049 10.912672009319065 10.148785319179295 9.530194176360963 12.495842218399046 12.087451526895167 12.198140188120304 30.573701485991478 5.2391567584127179 9.9217461450025457 18.043966859579086
leaf_count=13 12 25 19 6 38 30 93 19 15 36
internal_value=0.805531 3.47513 1.74746 7.61037 2.95212 5.03523 1.70981 -3.55489 5.3397 -12.3079
internal_weight=136.134 113.108 79.7774 33.3303 65.0081 24.2856 40.7225 14.7694 20.8344 23.0261
internal_count=306 257 224 33 186 68 118 38 27 49
is_linear=0
shrinkage=0.027352


Tree=51
num_leaves=15
num_cat=0
split_feature=29 3 36 49 36 11 38 41 28 34 50 38 55 15
split_gain=4.55698e+06 1.07272e+06 843002 414355 407169 238665 180778 178813 109732 75574.8 92611.8 63047.9 20768.5 15667.4
threshold=-1066.4999999999998 -4.4165047801809854 31.150146484375004 -1.8498535156249998 73.399902343750014 -163.49999999999997 75.200073242187514 -6.6499633789062491 712.50000000000011 50.600097656250007 -6.3500976562499991 -38.300170898437493 2.3833414713541674 -0.73251393796072473
decision_type=8 10 2 10 2 10 2 10 8 2 8 2 8 8
left_child=-1 6 3 7 -4 -5 11 -3 -6 10 -8 -2 -11 -13
right_child=1 2 4 5 8 -7 9 -9 -10 12 -12 13 -14 -15
leaf_value=-12.413494974327058 6.2201516238408683 11.858204469866799 -10.234908088073901 -4.3061662266146845 -3.216516449137361 2.2516961309078773 6.5178457810187149 4.7642628829356877 0.54808586617942301 6.3719109262439311 10.442999154401118 1.1898236234782456 4.1136826274699843 3.3308394646386161
leaf_weight=17.118891101330519 4.2933815522119394 4.2301893830299377 4.9041095906868604 4.6878478853031984 13.256989454850551 36.311802968382835 10.065917098894714 7.1546952165663225 10.287618130445484 8.3884833753108961 8.1301352148875647 5.0656851530075073 4.7868922436609855 5.1650228919461352
leaf_count=35 3 4 15 26 36 56 15 25 18 12 15 12 16 24
internal_value=0.832249 2.62153 0.725319 2.78376 -3.06502 1.50187 5.9612 7.40014 -1.57159 7.12925 8.27166 3.43825 5.55148 2.27077
internal_weight=143.848 126.729 80.8333 52.3845 28.4487 40.9997 45.8955 11.3849 23.5446 31.3714 18.1961 14.5241 13.1754 10.2307
internal_count=312 277 180 111 69 82 97 29 54 58 30 39 28 36
is_linear=0
shrinkage=0.027352


Tree=52
num_leaves=12
num_cat=0
split_feature=29 4 26 55 56 29 2 3 7 43 11
split_gain=4.51459e+06 1.13228e+06 742298 474214 331068 211801 182930 77085.6 75874.6 46317.3 33385.2
threshold=-1066.4999999999998 133110.79999999996 880.50000000000011 1.3833821614583337 5.2500000000000009 588.50000000000011 -1.0188458576308623 -3.2579879209593425 -34774.999999999993 2.3999633789062504 165.50000000000003
decision_type=8 2 8 10 10 8 8 10 2 10 8
left_child=-1 3 4 6 -3 9 -2 -8 -7 -5 -6
right_child=1 2 -4 5 10 8 7 -9 -10 -11 -12
leaf_value=-12.413494974327058 8.2799402170868319 -11.117965003211967 3.9372751925555787 1.2278426673348275 -4.1968533073700884 6.9024486290263614 6.3061543743217348 3.5698175993238297 3.2008146140426539 -1.3154181346024607 -1.3538564202850709
leaf_weight=17.118891101330519 15.927348855882881 5.4822245268151226 9.4618728561326844 23.574911551550034 8.1008373275399155 5.7827203702181604 13.040244850330057 18.818466916680336 14.610922773368655 6.932496588677167 4.9967235419899252
leaf_count=35 18 11 9 53 14 16 22 26 68 24 16
internal_value=0.770494 2.55143 -2.29874 3.92959 -5.47449 2.09248 5.88646 4.68985 4.25045 0.649899 -3.11228
internal_weight=143.848 126.729 28.0417 98.6871 18.5798 50.9011 47.7861 31.8587 20.3936 30.5074 13.0976
internal_count=312 277 50 227 41 161 66 48 84 77 30
is_linear=0
shrinkage=0.027352


Tree=53
num_leaves=12
num_cat=0
split_feature=29 4 26 55 56 29 2 3 7 43 11
split_gain=4.46782e+06 1.08688e+06 718123 449482 334570 200417 173362 73280.7 71833.2 43825 31583.8
threshold=-1066.4999999999998 133110.79999999996 880.50000000000011 1.3833821614583337 5.2500000000000009 588.50000000000011 -1.0188458576308623 -3.2579879209593425 -34774.999999999993 2.3999633789062504 165.50000000000003
decision_type=8 2 8 10 10 8 8 10 2 10 8
left_child=-1 3 4 6 -3 9 -2 -8 -7 -5 -6
right_child=1 2 -4 5 10 8 7 -9 -10 -11 -12
leaf_value=-12.413494974327058 8.0591519994506147 -11.075072969288343 3.8554104619623009 1.1942944445336461 -4.0820607086582923 6.7149723866036704 6.1401291246676868 3.4721758406331324 3.1132658476745512 -1.2795929692173509 -1.3168257506962096
leaf_weight=17.118891101330519 15.927348855882881 5.4822245268151226 9.4618728561326844 23.574911551550034 8.1008373275399155 5.7827203702181604 13.040244850330057 18.818466916680336 14.610922773368655 6.932496588677167 4.9967235419899252
leaf_count=35 18 11 9 53 14 16 22 26 68 24 16
internal_value=0.702023 2.47371 -2.27822 3.82396 -5.40183 2.03539 5.72911 4.56422 4.13457 0.632116 -3.02715
internal_weight=143.848 126.729 28.0417 98.6871 18.5798 50.9011 47.7861 31.8587 20.3936 30.5074 13.0976
internal_count=312 277 50 227 41 161 66 48 84 77 30
is_linear=0
shrinkage=0.027352


Tree=54
num_leaves=9
num_cat=0
split_feature=24 54 4 7 4 11 46 40
split_gain=3.87856e+06 1.15087e+06 965656 575071 308860 219183 114819 108892
threshold=-1176.9999999999998 -13.499877929687498 251782.80000000008 -146449.99999999997 -257568.87499999997 131.00000000000003 -5.6999816894531241 43.005270004272468
decision_type=8 8 2 2 2 8 8 2
left_child=3 -2 4 -1 7 -4 -6 -3
right_child=1 2 5 -5 6 -7 -8 -9
leaf_value=-0.2888450669904491 8.1189710927610204 2.821812728537521 -8.0592349784754429 -12.409806882326173 5.6971683506556401 -1.8620965525524067 1.5166182248075353 7.230864824799224
leaf_weight=3.5768990814685848 24.744516272097826 6.1471215235069421 6.7301240563392639 16.152943205088377 5.3741748090833426 11.680268011055889 57.543649238534272 13.169548708014188
leaf_count=4 19 16 10 44 21 24 135 35
internal_value=1.0604 2.83416 1.53484 -10.2124 2.80252 -4.12755 1.87371 5.8278
internal_weight=145.119 125.389 100.645 19.7298 82.2345 18.4104 62.9178 19.3167
internal_count=308 260 241 48 207 34 156 51
is_linear=0
shrinkage=0.027352


Tree=55
num_leaves=10
num_cat=0
split_feature=28 54 4 51 29 1 35 56 58
split_gain=3.85589e+06 1.10253e+06 931115 684887 310236 246093 140026 53437.8 23275.1
threshold=-750.49999999999989 -13.499877929687498 251782.80000000008 31.050537109375004 978.00000000000011 1842490.5000000002 -80.849365234374986 17.950073242187504 -0.74618597304387657
decision_type=8 8 2 8 10 8 2 10 8
left_child=3 -2 4 -1 6 8 -3 -6 -4
right_child=1 2 5 -5 7 -7 -8 -9 -10
leaf_value=-12.408522443245676 7.9591680101129905 4.0159160744496463 -3.1209126043924487 1.024847611851226 4.9517389116075794 -8.8605260812768343 1.3293797369500502 8.7894260703238469 -0.79365442869178615
leaf_weight=16.670893624424934 24.744516272097826 20.359690603800118 6.4931122064590454 3.4222350083291557 4.9729242138564569 5.5479946946725276 50.559586444869637 5.9790066704154015 6.3692851662635785
leaf_count=44 19 50 11 5 18 7 129 9 16
internal_value=1.00102 2.78838 1.51249 -10.1205 2.76231 -4.04545 2.10064 7.04689 -1.96852
internal_weight=145.119 125.026 100.282 20.0931 81.8712 18.4104 70.9193 10.9519 12.8624
internal_count=308 259 240 49 206 34 179 27 27
is_linear=0
shrinkage=0.027352


Tree=56
num_leaves=10
num_cat=0
split_feature=28 23 31 51 29 6 29 55 58
split_gain=3.81645e+06 1.09647e+06 929637 682494 473613 221936 126780 85305.1 28552.8
threshold=-750.49999999999989 1585.416666666667 285.70408796744181 31.050537109375004 611.50000000000011 6.3910419952056055 978.00000000000011 0.15002441406250003 -0.74618597304387657
decision_type=8 10 2 8 10 8 10 10 8
left_child=3 2 4 -1 7 8 -6 -2 -4
right_child=1 -3 5 -5 6 -7 -8 -9 -10
leaf_value=-12.407122826212104 3.9405247969689494 11.734663181931401 -2.9692614978184726 1.0027566710354725 3.9161817958855756 -8.2634199507423585 6.820458832866712 0.50953993465160763 -0.38796681603718042
leaf_weight=16.670893624424934 6.3083857018500558 9.3393917083740217 6.4772507026791573 3.4222350083291557 36.181243818253279 5.4902006983757046 16.31658374145627 38.564502385444939 6.3485575160011631
leaf_count=44 15 4 11 5 79 5 29 95 21
internal_value=0.941383 2.71958 1.99179 -10.1231 3.05522 -3.66151 4.81885 0.991889 -1.6916
internal_weight=145.119 125.026 115.687 20.0931 97.3707 18.316 52.4978 44.8729 12.8258
internal_count=308 259 255 49 218 37 108 110 32
is_linear=0
shrinkage=0.027352


Tree=57
num_leaves=8
num_cat=0
split_feature=29 8 1 29 32 36 7
split_gain=4.99329e+06 1.01238e+06 833173 544280 401707 165930 81002.8
threshold=-750.49999999999989 0.49743159143162596 3290991.5000000005 603.50000000000011 -1.0999755859374998 38.799560546875007 -8249.9999999999982
decision_type=8 2 10 10 2 2 2
left_child=4 2 3 5 -1 -2 -5
right_child=1 -3 -4 6 -6 -7 -8
leaf_value=-4.2181806671137823 1.9833870377585212 -8.4845037249483273 12.413460129361644 5.2799298482045751 -12.413498775242301 -1.1814049989020023 2.7965948475335995
leaf_weight=5.7326661720871952 28.438785656355321 5.8011358994990578 6.9382197856903067 37.10758956708014 20.392817152664065 21.967871688306332 13.367489881813524
leaf_count=11 78 8 3 69 40 53 45
internal_value=0.167021 2.64624 3.24512 2.61456 -10.6152 0.604122 4.62227
internal_weight=139.747 113.621 107.82 100.882 26.1255 50.4067 50.4751
internal_count=307 256 248 245 51 131 114
is_linear=0
shrinkage=0.027352


Tree=58
num_leaves=10
num_cat=0
split_feature=24 27 4 32 29 11 19 24 12
split_gain=4.95751e+06 956641 1.04685e+06 376994 264549 242176 82712.7 74703.3 26956
threshold=-1176.9999999999998 1231.3333333333337 160774.60000000012 -1.0999755859374998 697.50000000000011 -132.49999999999997 -6.4085128440787953 1493.0000000000002 17.500000000000004
decision_type=8 10 2 2 10 8 10 10 10
left_child=3 2 4 -1 7 -4 -6 -2 -7
right_child=1 -3 5 -5 6 8 -8 -9 -10
leaf_value=-4.2580791934052522 2.3532547271507349 12.413460129361644 -8.5660331318466341 -12.413498775242301 2.4672744618299687 -0.3164678936312158 5.329431063702005 -0.1943041035013362 -2.8990445288117925
leaf_weight=5.3540319185704019 33.568709688261151 6.9382197856903067 5.9036169648170471 20.392817152664065 9.7324281781911832 5.106235056184234 33.75347962975502 11.582225587218998 7.4148118421435356
leaf_count=11 97 3 7 40 22 22 71 24 10
internal_value=0.122681 2.57096 1.93311 -10.7176 3.16623 -3.99916 4.68887 1.69974 -1.84587
internal_weight=139.747 114 107.062 25.7468 88.6368 18.4247 43.4859 45.1509 12.521
internal_count=307 256 253 51 214 39 93 121 32
is_linear=0
shrinkage=0.027352


Tree=59
num_leaves=10
num_cat=0
split_feature=24 55 4 32 11 25 19 56 2
split_gain=4.9082e+06 967437 1.00097e+06 381841 237254 228222 149320 56982.1 19330
threshold=-1176.9999999999998 -17.483325195312496 160774.60000000012 -1.0999755859374998 -132.49999999999997 1056.5933601314478 -5.9090932725436183 15.649963378906252 1.0203582470988557
decision_type=8 8 2 2 8 8 10 10 8
left_child=3 -2 5 -1 -4 7 -7 -3 -6
right_child=1 2 4 -5 8 6 -8 -9 -10
leaf_value=-4.2058177752063823 12.413460129361642 -0.2027654409281936 -8.4469019371615985 -12.413498775242301 -2.5877098619257648 2.1637280600470374 5.0256632281986864 2.2478476092301345 -0.33757044986204676
leaf_weight=5.3540319185704019 6.9382197856903076 13.779472112655641 5.9036169648170471 20.392817152664065 8.1119144186377508 20.877718278206885 39.339539342559874 14.640113350003956 4.409132479690018
leaf_count=11 3 36 7 40 20 57 94 27 12
internal_value=0.0795053 2.51558 1.87414 -10.7067 -3.92668 3.07994 4.03342 1.05963 -1.79538
internal_weight=139.747 114 107.062 25.7468 18.4247 88.6368 60.2173 28.4196 12.521
internal_count=307 256 253 51 39 214 151 63 32
is_linear=0
shrinkage=0.027352


Tree=60
num_leaves=11
num_cat=0
split_feature=29 3 36 27 52 31 6 30 45 51
split_gain=4.62265e+06 1.1778e+06 662618 542559 311549 253198 198344 162508 90067.6 45177.4
threshold=-1066.4999999999998 -4.4165047801809854 13.699951171875002 947.08333333333337 -6.149983723958333 -682.06502722697803 2.8703910825181302 180.04908688877103 -1.1500091552734373 3.6000976562500004
decision_type=8 10 2 8 10 2 8 10 2 10
left_child=-1 5 4 8 -3 -2 -6 -7 -4 -9
right_child=1 2 3 -5 6 7 -8 9 -10 -11
leaf_value=-12.413497266888365 10.782026497097316 10.390894190236059 -3.3784673401997583 -9.7147444342645723 2.1429076871736248 1.5729995885372987 -3.733157060324348 4.9439399102564616 0.12171917664016946 7.1914749828392912
leaf_weight=18.960586911067367 5.6923004174605003 3.1331388372927895 8.6374279875308329 7.2110202061012378 35.994713037274778 9.9316601185128075 4.8802304212003937 24.783614709973335 15.141342079266904 9.1670133620500547
leaf_count=39 7 4 35 12 83 25 16 48 26 14
internal_value=0.168344 2.08337 -0.0789395 -3.1427 2.0785 5.35458 1.44133 4.65054 -1.14968 5.55081
internal_weight=143.533 124.572 74.9979 30.9898 44.0081 49.5746 40.8749 43.8823 23.7788 33.9506
internal_count=309 270 176 73 103 94 99 87 61 62
is_linear=0
shrinkage=0.027352


Tree=61
num_leaves=11
num_cat=0
split_feature=29 3 54 49 7 30 55 13 33 12
split_gain=4.58669e+06 1.12731e+06 657792 460793 449955 244700 183881 124514 50001.3 43892.2
threshold=-1066.4999999999998 -4.4165047801809854 14.599975585937502 0.75000000000000011 177225.00000000003 270.18118038927804 -6.1666666666666652 195.00000000000003 -1.3999938964843748 37.500000000000007
decision_type=8 10 8 10 2 10 10 10 2 10
left_child=-1 5 3 6 -5 8 -3 9 -2 -7
right_child=1 2 -4 4 -6 7 -8 -9 -10 -11
leaf_value=-12.413497266888365 0.84811245308283378 10.231716029781476 -10.227730690109761 0.26941731188953677 -7.4960320964706275 4.3831397541412036 3.1090407646392979 8.8777187272186637 3.8160900450413378 7.0877261940751799
leaf_weight=18.960586911067367 6.8887893697246936 3.4869616925716391 4.4997978331521145 48.506116126663983 6.3083084132522336 12.724689809605485 12.196688503026961 11.950141899287699 11.073378196917472 6.9375893324613562
leaf_count=39 17 3 11 108 11 33 43 12 24 8
internal_value=0.119315 2.02688 -0.0885786 0.558584 -0.624261 5.22721 4.69266 6.67575 2.67784 5.33744
internal_weight=143.533 124.572 74.9979 70.4981 54.8144 49.5746 15.6837 31.6124 17.9622 19.6623
internal_count=309 270 176 165 119 94 46 53 41 41
is_linear=0
shrinkage=0.027352


Tree=62
num_leaves=8
num_cat=0
split_feature=28 30 8 13 29 38 58
split_gain=4.57914e+06 810800 764140 479173 388882 96065.2 54402.8
threshold=-750.49999999999989 1973.3897915782316 0.49743159143162596 -46.333333333333321 603.50000000000011 -71.700012207031236 0.05714773631591815
decision_type=8 8 2 10 10 2 8
left_child=3 2 4 -1 5 -2 -6
right_child=1 -3 -4 -5 6 -7 -8
leaf_value=-2.7468587812506495 -1.0655484902125303 7.0438643757954997 -8.8481610017711088 -12.413498640471348 4.6625604239128622 1.3277322879592015 2.6419793446436639
leaf_weight=4.7348475642502335 23.512766403146088 22.048611714504659 5.3178628329187623 20.219662040472031 23.451787145808339 26.90553099103272 17.341979395598173
leaf_count=22 55 24 7 28 55 69 49
internal_value=0.0702479 2.31143 1.23048 -10.5794 1.8181 0.211609 3.80359
internal_weight=143.533 118.579 96.5299 24.9545 91.2121 50.4183 40.7938
internal_count=309 259 235 50 228 124 104
is_linear=0
shrinkage=0.027352


Tree=63
num_leaves=10
num_cat=0
split_feature=28 27 4 51 6 29 3 29 12
split_gain=4.97392e+06 1.00054e+06 731958 362004 297352 290678 98967 87982 23575.6
threshold=-750.49999999999989 1231.3333333333337 160774.60000000012 23.550048828125004 6.3910419952056055 745.00000000000011 -5.6214205323161126 984.50000000000011 -1.0000000180025095e-35
decision_type=8 10 2 8 8 10 10 10 10
left_child=3 2 5 -1 8 6 -2 -7 -4
right_child=1 -3 4 -5 -6 7 -8 -9 -10
leaf_value=-12.411463747978821 3.6517002607934463 11.274550706172416 -0.20752556951157733 -4.7285846635301176 -10.273805454798955 3.7762344272396571 0.74739469659519997 6.5366453237859226 -2.5327102528987449
leaf_weight=19.747054670006037 11.694060408510266 9.3393917083740217 6.3452726490795621 5.9772154949605492 3.6080852253362563 27.487110208719969 35.200632780790329 12.598117567598818 6.7153666839003536
leaf_count=40 40 4 22 9 6 57 93 22 10
internal_value=0.228595 2.69996 1.92733 -10.6263 -3.32326 2.93355 1.47165 4.6438 -1.40309
internal_weight=138.712 112.988 103.649 25.7243 16.6687 86.9799 46.8947 40.0852 13.0606
internal_count=303 254 250 49 38 212 133 79 32
is_linear=0
shrinkage=0.027352


Tree=64
num_leaves=10
num_cat=0
split_feature=28 23 39 29 13 1 23 29 1
split_gain=4.91802e+06 996324 719089 469132 380999 600642 141077 123669 5190.14
threshold=-750.49999999999989 1585.416666666667 -888.99999999999989 611.50000000000011 107.50000000000001 10012583.805000046 1219.9166666666667 984.50000000000011 953266.00000000012
decision_type=8 10 2 10 10 8 10 10 8
left_child=4 2 -2 6 5 8 -4 -5 -1
right_child=1 -3 3 7 -6 -7 -8 -9 -10
leaf_value=-12.392320446392301 -12.413361598963638 11.195265225519579 -0.3171684373434876 3.2584829646064346 -12.413498320098476 6.2827927046482923 4.1328993501029831 6.3578548506327559 -10.157987326136038
leaf_weight=2.3164776414632771 2.572301745414733 9.3393917083740217 41.45496442168951 40.907289039343596 19.898834124207497 2.3337311744689968 6.1159727498888961 12.598117567598818 1.1752272248268156
leaf_count=22 2 4 125 92 22 1 9 22 4
internal_value=0.181315 2.63875 1.86776 2.2312 -10.6124 -4.46012 0.254947 3.98825 -11.6404
internal_weight=138.712 112.988 103.649 101.076 25.7243 5.82544 47.5709 53.5054 3.4917
internal_count=303 254 250 248 49 27 134 114 26
is_linear=0
shrinkage=0.027352


Tree=65
num_leaves=10
num_cat=0
split_feature=28 27 39 29 13 1 29 1 1
split_gain=4.87728e+06 992028 713200 443332 375666 586925 117035 100629 5560.88
