tree
version=v4
num_class=1
num_tree_per_iteration=1
label_index=0
max_feature_idx=59
objective=huber
feature_names=ADP_actual_pct_chg_rolling_mean_3m CB_Consumer_Confidence_chg_3m_lag_3m CCNSA_max_spike_chg_12m CCNSA_max_spike_diff_zscore_3m_lag_12m CCNSA_max_spike_diff_zscore_3m_lag_1m CCNSA_max_spike_pct_chg_rolling_mean_3m CCNSA_monthly_avg_diff CCNSA_monthly_avg_diff_lag_3m CCSA_max_spike_pct_chg_rolling_mean_3m CCSA_monthly_avg_diff FedFunds_close_chg_3m Financial_Stress_monthly_min_diff ISM_NonManufacturing_Index_diff_zscore_3m_lag_6m NFP_Forecast_CONTINUUM_ECON NFP_Forecast_CONTINUUM_ECON_chg_6m NFP_Forecast_DANSKE_BK_diff NatGas_close_pct_chg_lag_1m NatGas_close_pct_chg_rolling_mean_3m_lag_3m Prosper_Consumer_Spending_Forecast_Consumer_Spending_Forecast_Males_diff_zscore_3m Treasury_10Y_implied_rate_pct_chg_lag_12m Treasury_2Y_log_return is_jan nfp_nsa_accel_lag6 nfp_nsa_accel_vol_3m nfp_nsa_mom_abs_lag1 nfp_nsa_mom_lag12 nfp_nsa_mom_lag6 nfp_nsa_mom_vol_3m rev_master_mean total_government_federal_except_postal_nsa_rolling_mean_3m_lag_6m total_government_federal_postal_nsa total_government_local_excluding_education_nsa_chg_3m_lag_12m total_government_local_excluding_education_nsa_chg_3m_lag_6m total_government_local_excluding_education_nsa_diff_lag_1m total_government_state_education_nsa_chg_3m_lag_6m total_nsa_chg_12m total_private_goods_construction_heavy_civil_nsa_chg_12m total_private_goods_construction_nsa_pct_chg_lag_3m total_private_goods_manufacturing_durable_computer_electronic_nsa_chg_3m total_private_goods_manufacturing_durable_furniture_nsa_rolling_mean_3m_lag_3m total_private_goods_manufacturing_durable_machinery_nsa_chg_3m_lag_12m total_private_goods_manufacturing_durable_miscellaneous_nsa_pct_chg_lag_6m total_private_goods_manufacturing_durable_nonmetallic_nsa_lag_12m total_private_goods_manufacturing_nondurable_chemicals_nsa total_private_goods_manufacturing_nondurable_chemicals_nsa_chg_3m_lag_12m total_private_goods_manufacturing_nondurable_plastics_rubber_nsa_rolling_mean_3m_lag_3m total_private_services total_private_services_education_health_health_social_health_care_hospitals_nsa total_private_services_education_health_health_social_health_care_hospitals_nsa_chg_3m total_private_services_education_health_health_social_health_care_hospitals_nsa_diff total_private_services_education_health_health_social_health_care_hospitals_nsa_rolling_mean_3m total_private_services_education_health_health_social_health_care_nsa_rolling_mean_3m total_private_services_education_health_health_social_health_care_nursing_nsa total_private_services_education_health_health_social_health_care_nursing_nsa_rolling_mean_3m total_private_services_education_health_health_social_social_assistance_nsa_chg_6m_lag_6m total_private_services_education_health_health_social_social_assistance_nsa_diff_zscore_3m_lag_12m total_private_services_financial_finance_insurance_credit_intermediation_nsa_chg_12m_lag_1m total_private_services_financial_finance_insurance_insurance_nsa_rolling_std_6m_lag_12m total_private_services_financial_finance_insurance_securities_nsa_lag_12m total_private_services_financial_real_estate_nsa_rolling_std_6m_lag_1m
feature_infos=[-512.5:24858.6512913058] [-46.699999999999989:29.499999999999996] [-1832742:17339806] [-1.1545467091663024:1.1546829959959573] [-1.1545467091663024:1.1546829959959573] [-21.382585893049377:179.29145808304963] [-2692366.8000000007:1241733.4500000002] [-2109740.6666666679:13013139.1] [-24.666499381901502:213.95233192957588] [-3668833.333333334:637125] [-0.96999999999999886:1.9899999999999949] [-1.7633000000000001:5.7972999999999999] [-1.1529024051236594:1.1547005383792512] [-635:3800] [-565:3615] [-2800:14000] [-41.616368286445017:62.613369163587528] [-19.433906991832263:27.226965862061558] [-1.1545960837413494:1.154558435200034] [-388.88888888888886:988.88888888888891] [-0.01321085502607211:0.017379914574702227] [0:1] [-3000:4309] [42.217689815232461:4948.0487915372596] [1:5103] [-3570:1224] [-3570:1224] [36.473734842146328:4041.9204774751975] [-8208.5419520689029:10735.00477827653] [-149.83333333333334:191.03336588541666] [-56.20001220703125:48.5] [-438.89990234375:205.69970703125] [-438.89990234375:206] [-341.7998046875:250.1005859375] [-441.7001953125:635.30029296875] [-1396:4473] [-78.49993896484375:36.49993896484375] [-9500:3933.333251953125] [-34.7999267578125:29.300048828125] [-25.566660563151043:5] [-31.7000732421875:20.0999755859375] [-3398.8408203125:5801.46533203125] [-21.100006103515625:15.100006103515625] [-16.0999755859375:10.7999267578125] [-19.9998779296875:12.59991455078125] [-23.70001220703125:7.133341471354167] [-541:4263] [-37.69970703125:44] [-69.39990234375:158.2001953125] [-73:93.00048828125] [-53.799967447916664:29.433268229166668] [-412.13346354166669:277.533203125] [-30.39990234375:28] [-55.099934895833336:15.766682942708334] [-527.89990234375:521.099853515625] [-1.154689932329932:1.1546853851449188] [-37.19970703125:36.199951171875] [0.9451174915825904:42.605028060313209] [-51.4000244140625:52.9000244140625] [7.6919178110789899:94.658541363898564]
tree_sizes=2649 3136 2571 2841 2729 2446 2645 2737 2555 2648 2431 2453 2553 2637 2639 2440 2735 2838 2824 2624 1747 2631 2742 2459 1759 2163 2563 2460 2447 2438 2343 2553 1831 2850 2861 2756 2332 1646 2143 2346 1649 1752 1737 1555 1445 1338 1342 1247 1450 1951 1757 1559 1755 1550 1454 1651 1868 1750 1853 1855 1448 1951 1742 1842 2058 2058 1854 1952 1670 1155 1164 1659 1863 1957 1952 2063 2044 1856 1743 1753 1348 1060 1060 1458 1752 1754 1758 1755 1154 1664 1663 1667 1052 1461 1049 1449 960 958 857 961 1165 1155 1157 1161 1268 1262 1355 1162 1160 1161 1162 1158 866 1966 1765 1659 1855 1272 1769 1763 1049 1052 1164 1055 1654 1654 1771 1759 1378 2374 1776 1479 1474 1380 1478 1588 1284 1377 1382 1370 1485 1365 1479 1375 1377 1490 1589 1687 1173 1979 2178 1273 1485 1686 1890 1676 1565 1574 1768 1887 1581 1792 1789 1676 1469 1682 1691 1676 1676 1666 1780 2371 1161 1157 1666 1057 2262 1963 2359 2280 2087 2164 2086 2066 2558 2664 2458 2558 1657 2268 1672 1450 1263 1366 1358 1461 1460 1056 1055 1055 1466 1060 1467 1054 1354 1055 1156 1156 961 1054 1053 1056 1360 1361 1370 1159

Tree=0
num_leaves=25
num_cat=0
split_feature=6 33 53 10 49 20 4 47 13 59 55 1 20 13 12 18 35 23 57 0 59 30 55 1
split_gain=8.85399e+06 2.39427e+06 1.17388e+06 1.03633e+06 129896 124536 128959 113547 49699 45957.6 44789.9 38056.8 34581.1 34106.2 32120.4 24262.8 21862.8 10350.3 4955.43 3582.31 3362.05 1516.24 546.508 344.826
threshold=16780.625000000004 13.699951171875002 7.016642252604167 1.469999999999992 1.0000000180025095e-35 -0.0027301695626831264 1.0822923397805226 15.749877929687502 -147.49999999999997 12.524977717551172 -0.40629425914433676 11.000000000000002 -0.003009839034437078 55.000000000000007 -0.94957465336526203 -1.0000000180025095e-35 121.50000000000001 567.98034146306895 5.0729694231278319 -0.47241848560282668 29.427984976640296 -0.69998168945312489 1.0839168982136551 -1.0000000180025095e-35
decision_type=2 2 10 2 8 8 10 8 8 10 8 2 10 10 10 10 2 10 8 10 10 2 10 2
left_child=2 3 5 4 15 12 8 9 -7 21 -11 14 22 23 17 -2 -6 -3 -8 -15 -16 -4 -1 -9
right_child=1 11 7 -5 16 6 18 13 -10 10 -12 -13 -14 19 20 -17 -18 -19 -20 -21 -22 -23 -24 -25
leaf_value=261.51938533977335 257.15195410224129 229.46264402024772 255.84310863414652 229.47665003719243 251.26016738185095 247.33042432607044 239.56215281625967 233.62165720842017 261.18210536289058 257.96849108206999 249.22229564056008 235.4816872136021 249.27938654781789 241.3030824624453 229.49718924979095 261.86029661411834 243.29619902903443 237.33712099067904 249.57729966294195 245.03797433250162 231.35555432742223 258.25972601461439 258.50771065951596 231.28585154890118
leaf_weight=0.28776501794345666 3.0060617700219154 0.24721190496348089 0.91348223248496652 2.1553279384970665 1.9575301336590203 0.29888956435024738 0.060105947777627677 0.14211228489875793 43.259936497313902 0.73087720142211765 8.1890647016698459 1.4940821877680708 1.4155277381651101 0.33277758210897479 19.709812869317837 2.1522739790379983 0.49488402635324735 0.84565007872879505 0.97471314924769115 2.5450002551078796 1.1827501272782672 0.44139567867386975 0.090956029482185841 0.14808437228202764
leaf_count=8 3 10 4 3 18 3 2 1 102 14 27 5 3 2 48 2 9 8 5 3 3 7 5 1
internal_value=250.119 236.113 257.902 250.199 256.067 260.455 260.806 249.094 261.087 250.821 249.939 230.254 251.71 243.491 229.898 259.116 249.653 235.556 248.996 244.606 229.602 256.63 260.796 232.43
internal_weight=93.0763 33.2456 59.8307 9.76608 7.61075 46.3879 44.5936 13.4428 43.5588 10.2748 8.91994 23.4795 1.79425 3.16797 21.9854 5.15834 2.45241 1.09286 1.03482 2.87778 20.8926 1.35488 0.378721 0.290197
internal_count=296 109 187 35 32 128 112 59 105 52 41 74 16 7 69 5 27 18 7 5 51 11 13 2
is_linear=0
shrinkage=1


Tree=1
num_leaves=30
num_cat=0
split_feature=6 24 53 53 24 33 4 25 5 13 23 16 12 39 13 47 47 16 4 7 10 4 51 57 57 4 1 1 1
split_gain=8.75546e+06 3.02379e+06 1.17166e+06 209121 178598 140296 131222 107071 71114.5 56986.7 44167.9 43849.9 35475.4 35046.9 34877.4 32185 31655 25865.8 12702.2 11361 10185.7 8429.33 8282.03 7602.2 4632.61 4603.64 1920.13 898.918 119.874
threshold=16780.625000000004 880.50000000000011 7.016642252604167 2.199991861979167 336.50000000000006 -11.549804687499998 1.1205090837476182 363.00000000000006 2.4419788696364439 -167.49999999999997 294.54003001443613 27.844520276918875 -0.94957465336526203 -2.3666737874348951 127.50000000000001 14.949951171875002 6.1500244140625009 4.2092754126683021 0.45519019100308172 -105424.17500000003 -0.057499999999997435 1.0822923397805226 53.583333333333343 6.4751612801287424 5.0729694231278319 1.0619458953679246 -14.399999999999997 -2.2500000000000031 5.549999999999998
decision_type=2 8 10 10 10 2 10 8 10 8 8 8 10 10 8 10 8 10 8 8 2 10 10 8 8 10 2 2 2
left_child=2 5 4 8 16 13 10 9 19 25 -6 12 -7 21 23 -11 27 26 -10 -3 -15 -2 -16 -9 -8 -4 -5 -1 -19
right_child=1 3 7 17 6 11 24 14 18 15 -12 -13 -14 20 22 -17 -18 28 -20 -21 -22 -23 -24 -25 -26 -27 -28 -29 -30
leaf_value=10.578053834116798 -5.038000900201423 4.444450903504114 -12.783860056327132 -10.961421867472518 5.71212934904998 -9.5441411862667174 -5.8928093197461067 9.3626952408535526 12.350890092600226 3.354916908187362 15.558754880712021 -9.7966416162098326 -16.038827791293414 12.990058737354525 11.419204834236339 -1.003119667825787 3.0306282642744931 -0.89009074198466132 16.198860230625691 8.9722504267988015 1.680192136727223 -15.906855217621935 6.9229068538654692 3.1621500347276745 3.7911961217115393 -5.9992604248480683 -16.181339582064911 13.103945126928128 0.97350519932065138
leaf_weight=0.31883730739355109 0.18736703577451408 1.0185239268466828 0.29019665718078613 0.11730477830860764 0.52853691065683861 1.0066888991277725 0.060105947777627677 0.26685188896954026 1.8526047468185425 5.7472995420685002 42.515001117018983 1.5017783665098274 22.625891285017129 0.12026492389850318 1.888945093378424 2.9330270811915398 1.6652886271476748 0.20157867670059204 2.0947029590606689 1.6868730897549533 0.37830020440742629 0.14510192722082138 0.62475887988694001 1.5022708177566528 0.97272949665784847 0.18944434821605682 0.25940223038196553 0.32739453762769588 0.049201965797692537
leaf_count=2 5 4 2 2 7 21 2 2 1 15 105 3 49 3 28 6 3 1 1 4 9 2 2 3 4 1 2 5 2
internal_value=4.38106 -9.54735 12.1205 9.73328 14.6707 -14.9533 15.1517 3.32055 11.4953 1.25471 15.4378 -15.4057 -15.7622 -1.26852 7.73889 1.88236 5.49844 -8.94814 14.3929 7.26764 4.40842 -9.78163 10.3017 4.09744 3.22762 -10.1042 -14.5559 11.8578 -0.524388
internal_weight=93.0763 33.2456 59.8307 7.28019 46.3879 25.9654 44.0764 13.4428 6.6527 9.15997 43.0435 25.1344 23.6326 0.831034 4.28283 8.68033 2.31152 0.627488 3.94731 2.7054 0.498565 0.332469 2.5137 1.76912 1.03284 0.479641 0.376707 0.646232 0.250781
internal_count=296 109 187 17 128 92 118 59 10 24 112 73 70 19 35 21 10 7 2 8 12 7 30 5 6 3 4 7 3
is_linear=0
shrinkage=0.0338522


Tree=2
num_leaves=24
num_cat=0
split_feature=25 9 4 22 53 25 4 32 25 43 7 29 46 12 55 51 15 1 2 46 1 7 3
split_gain=8.05364e+06 1.58373e+06 1.23244e+06 1.20499e+06 958545 231873 112108 95506.6 78768.9 61203.2 46969.4 37024.7 32378 31863.3 23422 17350.3 12315.6 11206.3 4613.6 1119.67 445.734 315.097 37.5683
threshold=153.00000000000003 148375.00000000003 -0.44242507515250667 -192.99999999999997 7.016642252604167 346.00000000000006 0.94399356740464191 51.200439453125007 421.50000000000006 -5.3499755859374991 378404.25000000006 -0.14998372395833329 110.50000000000001 -0.94957465336526203 -0.4879053864043249 16.916666666666671 -17.499999999999996 2.6499999999999919 1.0000000180025095e-35 257.00000000000006 -22.899999999999995 252879.85000000012 1.1506356791876977
decision_type=8 2 10 10 10 10 10 2 10 10 10 2 2 8 8 10 10 2 8 2 2 10 10
left_child=2 4 10 -3 5 12 -7 16 14 21 18 -10 -2 17 -6 -15 19 -9 22 -4 -11 -5 -1
right_child=1 3 7 9 8 6 -8 13 11 20 -12 -13 -14 15 -16 -17 -18 -19 -20 -21 -22 -23 -24
leaf_value=-0.18869798491690912 13.582603118788064 15.240623260037289 -4.8753443735788577 1.6944723865732683 -2.1721662970779509 15.087431398397445 4.2534952593992008 -16.198779702019209 9.8743589910930183 2.0262802065874506 11.04201633790538 2.7940860412669597 3.4128630811092062 -5.1558872867586132 2.7006636528304035 -15.949598713051218 -9.8828616116259784 -7.3388872960040725 -16.19803278462394 0.016491037938600742 -15.945852525692738 -0.59869248513506079 -0.85995923554668996
leaf_weight=0.1818042695522335 0.42032189236488138 2.2536549773067236 0.59511405800003592 0.12061861902475346 1.3378157764673233 44.6391181263607 1.1220765030011524 0.21301078796386719 2.7587588838068764 0.0015801533591001107 2.3535904884338379 1.2209809236228464 2.4495641499524936 0.1722380667924942 7.2911590368021262 18.714613039279357 1.7415940016508127 0.70532965660095215 0.022855143994093274 0.058919954812154174 4.3405651155626392 0.15941096714232117 0.20157867670059204
leaf_count=1 7 3 13 1 4 113 10 3 27 1 2 3 11 3 19 58 3 1 1 2 6 3 1
internal_value=4.32234 10.3503 -12.1274 -5.05462 12.0799 14.2364 14.8218 -14.7795 3.76228 -14.9501 9.20726 7.70214 4.90232 -15.5518 1.94519 -15.8512 -8.39544 -9.39398 -1.42257 -4.43463 -15.9393 0.388988 -0.541689
internal_weight=93.0763 68.1156 24.9606 6.87583 61.2398 48.6311 45.7612 22.2008 12.6087 4.62217 2.75983 3.97974 2.86989 19.8052 8.62897 18.8869 2.39563 0.91834 0.406238 0.654034 4.34215 0.28003 0.383383
internal_count=296 208 88 14 194 141 123 83 53 11 5 30 18 65 23 61 18 4 3 15 7 4 2
is_linear=0
shrinkage=0.0338522


Tree=3
num_leaves=27
num_cat=0
split_feature=6 24 25 25 5 16 51 33 54 57 23 16 13 12 38 31 12 59 6 51 12 32 10 2 1 23
split_gain=8.49224e+06 2.8615e+06 945311 233213 235262 187553 181916 132946 92307.6 61609.1 57845 50633.9 50469.8 37601.4 33118.1 20749.6 19600.8 15938.6 9869.67 9869.09 9635.67 8897.18 7654.39 4242.74 2033.63 70.7327
threshold=16780.625000000004 880.50000000000011 346.00000000000006 706.50000000000011 -6.9391501882330324 -21.297324321390683 19.350097656250004 -11.549804687499998 -2.5501708984374996 6.6899836153657413 373.2108413752307 27.844520276918875 -167.49999999999997 -0.94957465336526203 4.7999877929687509 29.150390625000004 0.32665033265381133 21.07653522441915 348172.32500000001 42.183430989583343 1.1170305884057472 -89.449951171874986 -0.042500000000003972 2232284.5000000005 -14.399999999999997 1174.8287773988893
decision_type=2 8 10 8 8 8 10 2 10 8 8 8 8 10 10 2 8 8 2 10 10 2 2 10 2 10
left_child=2 7 6 4 10 24 21 14 17 -6 -4 13 23 -9 22 -14 -10 -7 -16 20 -5 -1 -2 -8 -3 -26
right_child=1 5 3 19 9 8 12 11 16 -11 -12 -13 15 -15 18 -17 -18 -19 -20 -21 -22 -23 -24 -25 25 -27
leaf_value=16.198813849332808 12.077311763147469 -10.259951598295498 10.172746749289143 16.099276650545864 11.540280465174256 2.0832598256780592 -5.6311316949829822 -9.1359108202990917 16.198860230625698 4.3147546079991539 15.701602950081984 -9.1271619953443128 3.1699356678285877 -15.822380978346182 -4.4785675301136614 -0.14171434399343452 11.421100650711598 7.6047630024174984 -15.743863293456508 13.310987019934418 12.930783167191528 10.377992249902439 2.1198391997238795 -12.144368447396982 -16.198720232773518 -15.076597454277771
leaf_weight=0.34533259272575412 0.12026492389850318 0.11730477830860764 3.0375261401059079 27.31243310158607 1.8167873796774134 0.83553973585367236 0.18944434821605682 1.0066888991277725 2.0947029590606681 5.2897270803805441 7.5803564861416826 1.5017783665098274 4.9008307133335585 22.625891285017129 0.23103240376804024 3.88843941653613 1.8558534015901389 2.1173892684746534 0.14510192722082138 1.6926946565508831 1.1461075022816647 2.3408121782122171 0.33463483641390013 0.29019665718078613 0.12834450602531433 0.13105772435665131
leaf_count=2 3 2 10 83 21 4 1 21 1 16 10 3 13 49 6 20 2 6 2 2 3 4 8 2 1 1
internal_value=4.26222 -9.45523 11.8845 14.0108 10.9292 9.30087 3.3693 -14.7141 10.5701 6.16197 14.1199 -15.1545 1.12129 -15.5376 -1.39259 1.70483 13.9544 6.04244 -8.82445 15.8223 15.9717 11.1263 4.75241 -9.57187 -13.9591 -15.6319
internal_weight=93.0763 33.2456 59.8307 47.8756 17.7244 7.28019 11.9551 25.9654 6.90349 7.10651 10.6179 25.1344 9.26891 23.6326 0.831034 8.78927 3.95056 2.95293 0.376134 30.1512 28.4585 2.68614 0.4549 0.479641 0.376707 0.259402
internal_count=296 109 187 145 57 17 42 92 13 37 20 73 36 70 19 33 3 10 8 88 86 6 11 3 4 2
is_linear=0
shrinkage=0.0338522


Tree=4
num_leaves=26
num_cat=0
split_feature=6 24 25 27 3 48 2 25 11 29 48 3 2 33 58 25 51 48 57 54 46 8 4 2 2
split_gain=9.59596e+06 1.70387e+06 1.14887e+06 354301 184584 142520 86289.8 81641 63839.9 64715.9 57146.1 42448.7 36751.5 27538.3 16795.9 16698.5 15277.4 13923.5 11490.8 5942.95 5065.08 3360.31 1437.59 936.33 158.111
threshold=111456.80000000006 880.50000000000011 588.50000000000011 1553.3708623293933 1.0000000180025095e-35 7.3000488281250009 521032.50000000006 706.50000000000011 0.22770000000000004 6.8166503906250009 3.6501464843750004 1.0000000180025095e-35 1062390.0000000002 161.45019531250003 0.60000610351562511 -18.999999999999996 38.216552734375007 -16.200195312499996 7.3271670408995275 35.799926757812507 57.500000000000007 -1.3417651812102136 1.0696539954028563 459536.50000000006 -188952.49999999997
decision_type=2 8 10 8 8 10 8 10 8 2 8 10 10 2 10 8 8 10 8 8 2 10 10 8 10
left_child=2 8 3 5 -3 10 -7 14 13 15 -1 -5 21 17 20 -10 19 -2 -16 -9 -4 -6 -15 -11 -18
right_child=1 4 7 11 12 6 -8 16 9 23 -12 -13 -14 22 18 -17 24 -19 -20 -21 -22 -23 -24 -25 -26
leaf_value=4.265134270827625 -12.115245110065045 16.198860230625698 8.41529778132006 16.198863364773626 5.201141367448149 1.2686325466305757 -10.843381755581039 16.127714359438901 -8.1652960828747005 -16.198835960734126 9.6896763816588436 9.9436479530528707 -16.111405388882524 -16.198146708010594 10.624562185915336 1.6194912020483831 12.663081998456915 -15.901559671551823 1.3844232260648996 14.113456646524906 13.629494711676523 1.6742711436688369 -8.1323526333443805 -14.643126522981662 11.655987554789752
leaf_weight=6.2568836356513229 1.1766073480248547 2.0947029590606681 0.22525724279694159 2.835814729332923 0.42354502272792172 8.2558342842385155 0.73398939298931409 26.498606294742785 2.1892870421288535 0.56894356210250407 3.4541681921109584 2.2137996219098568 0.12989508232567448 0.026451952289788916 3.2984350558836018 0.21994724334218263 0.22776719927787781 20.595574617385861 0.16179923783056427 1.7922854097560073 4.0949293266749009 1.1506521701812744 0.59595185844227672 2.0131702877115463 0.83793627470731979
leaf_count=37 2 1 6 4 2 22 9 75 5 4 11 2 2 2 10 3 1 59 3 5 14 3 5 3 2
internal_value=3.4932 -11.7775 11.3144 5.49973 9.46838 3.35123 0.279724 15.0331 -14.7246 -11.2626 6.19462 13.4565 1.19514 -15.4962 11.95 -7.272 15.8502 -15.6969 10.1925 16.0001 13.3576 2.6232 -8.47518 -14.9859 11.8712
internal_weight=92.0722 31.1847 60.8875 23.7505 3.7988 18.7009 8.98982 37.137 27.3859 4.99135 9.71105 5.04961 1.70409 22.3946 7.78042 2.40923 29.3566 21.7722 3.46023 28.2909 4.32019 1.5742 0.622404 2.58211 1.0657
internal_count=292 91 201 85 8 79 31 116 83 15 48 6 7 68 33 8 83 61 13 80 20 5 7 7 3
is_linear=0
shrinkage=0.0338522


Tree=5
num_leaves=23
num_cat=0
split_feature=6 38 25 27 33 48 25 2 33 14 48 3 0 51 17 40 31 37 36 33 2 14
split_gain=9.38329e+06 1.61404e+06 1.14885e+06 351890 306188 133596 96072.6 81560.4 80096.8 56348.9 53688.2 47140.3 40029.9 18088.4 15388.2 12250.3 11095.5 8815.5 3544.42 1563.14 1201.08 147.575
threshold=111456.80000000006 -13.649963378906248 588.50000000000011 1553.3708623293933 -82.100097656249986 7.3000488281250009 706.50000000000011 521032.50000000006 144.00024414062503 17.500000000000004 3.6501464843750004 1.0000000180025095e-35 139.6804548723448 39.716634114583343 -9.3856029779038028 -1.3999328613281248 49.000000000000007 -356.02677917480463 -4.6500549316406241 -142.99999999999997 871986.00000000012 -1.0000000180025095e-35
decision_type=2 10 10 8 2 10 10 8 2 10 8 10 10 10 10 10 2 2 10 2 10 10
left_child=2 12 3 5 18 10 14 -7 16 -10 -1 -5 -2 17 20 -16 -6 -8 -3 -20 -4 -15
right_child=1 4 6 11 8 7 13 -9 9 -11 -12 -13 -14 21 15 -17 -18 -19 19 -21 -22 -23
leaf_value=4.1208265245318483 4.9741192744529821 -12.117484499937955 6.7170186687678486 16.198863364773626 -13.870191739960774 1.2257313505711624 13.744052362270201 -10.549692310996042 -7.9664589765953044 -14.021900649835434 9.3786891923778057 9.6070331545190708 16.198860230625691 11.26140709142086 10.385651920362365 13.117338303470945 -16.189599065309956 16.123047526231396 -1.0011392434117705 2.0896718272883388 1.3505079382904839 12.234408518526976
leaf_weight=6.2568836356513229 0.44068988342769744 0.02193342149257671 0.067829906940460094 2.835814729332923 2.7465766466921222 8.2558342842385155 1.9146661292761624 0.73398939298931409 2.8104110676795235 4.7164081633090973 3.4541681921109584 2.2137996219098568 2.0947029590606689 0.83793627470731735 3.5567987594986334 3.993959554238244 16.954575004288927 26.376225575222634 0.22305802255868901 1.1763739772141037 0.16183264250867069 0.2277671992778767
leaf_count=37 3 1 1 4 15 22 4 9 11 5 11 2 1 2 16 13 48 76 2 5 3 1
internal_value=3.45984 -11.6407 11.1939 5.37927 -13.9318 3.23809 14.9125 0.264305 -14.7314 -11.7609 5.99102 13.3089 14.2478 15.799 11.568 11.8306 -15.8662 15.962 1.38536 1.59701 2.93557 11.4694
internal_weight=92.0722 31.1847 60.8875 23.7505 28.6493 18.7009 37.137 8.98982 27.228 7.52682 9.71105 5.04961 2.53539 29.3566 7.78042 7.55076 19.7012 28.2909 1.42137 1.39943 0.229663 1.0657
internal_count=292 91 201 85 87 79 116 31 79 16 48 6 4 83 33 29 63 80 8 7 4 3
is_linear=0
shrinkage=0.0338522


Tree=6
num_leaves=25
num_cat=0
split_feature=6 24 53 25 25 3 56 25 46 13 53 7 7 47 30 3 27 18 37 46 15 20 51 17
split_gain=9.18104e+06 1.65042e+06 1.14771e+06 259426 192071 188501 106556 91040.9 90583.8 76359.2 73718.1 36031.1 33545 33246.7 20546.5 18935 17131.6 16996.1 11263.6 9267.84 2926.77 1639.43 763.706 358.955
threshold=111456.80000000006 880.50000000000011 5.516642252604167 421.50000000000006 697.50000000000011 1.0000000180025095e-35 9.1500244140625018 -397.49999999999994 53.500000000000007 127.50000000000001 -1.2166748046874998 125159.75000000013 -282393.02500000008 14.949951171875002 0.75000000000000011 0.94601102995857067 215.28615038541622 -0.7603394657213326 -356.02677917480463 -30.499999999999996 42.500000000000007 0.0028500450126256465 20.883300781250004 1.0231500638501363
decision_type=2 8 10 10 10 8 10 8 2 8 10 10 8 10 2 10 10 8 2 2 8 10 10 8
left_child=2 7 4 8 6 -3 12 22 19 21 15 20 -1 -10 -11 -9 -6 -12 -18 -4 -7 -5 -2 -8
right_child=1 5 3 9 16 11 23 10 13 14 17 -13 -14 -15 -16 -17 18 -19 -20 -21 -22 -23 -24 -25
leaf_value=1.0656276344395894 -11.303217914970823 16.198860230625698 -11.900891474960789 2.8380616808046573 10.968921427355589 1.5651833206621024 14.974736959124405 -14.676574397525693 3.127391036673238 8.5089464000272788 -13.13568171396275 -16.099289877351147 9.4229394746484711 -1.0826365797556845 12.405896949197414 -10.205903789765276 13.421151735552735 -7.2914722935535856 16.110850875913727 -4.5156103264518599 4.8566863849597617 -0.15328737549155327 -16.198868213282992 16.198863405987169
leaf_weight=0.58821512013673782 0.036630559712647393 2.0947029590606681 0.5715826191008091 1.3012859467416982 0.82176499348134058 1.1506521701812744 0.30400871392339379 7.2873487174510938 7.9252547838259471 2.7141702012158939 0.69748393073678017 0.12989508232567448 8.5592247594613546 2.9495877798181027 3.6163685496430844 1.2757466211915014 1.9146661292761589 3.1265094556147299 26.202745302347466 0.29535140690859663 0.42354502272792172 0.25033608451485623 14.962214626721105 2.8729435075074439
leaf_count=3 1 1 5 4 3 3 4 5 19 17 5 2 35 10 22 2 4 23 56 10 2 3 47 6
internal_value=3.42428 -11.5126 11.0745 4.335 14.2797 9.39735 10.7406 -14.4131 1.14599 9.08555 -12.2654 1.03679 8.88553 1.9855 10.7351 -14.0105 15.7869 -8.35744 15.9277 -9.38486 2.45079 2.35543 -16.1869 16.0817
internal_weight=92.0722 31.1847 60.8875 19.6239 41.2636 3.7988 12.3244 27.3859 11.7418 7.88216 12.3871 1.70409 9.14744 10.8748 6.33054 8.5631 28.9392 3.82399 28.1174 0.866934 1.5742 1.55162 14.9988 3.17695
internal_count=292 91 201 90 111 8 48 83 44 46 35 7 38 29 39 7 63 28 60 15 5 7 48 10
is_linear=0
shrinkage=0.0338522


Tree=7
num_leaves=26
num_cat=0
split_feature=6 52 53 33 25 25 56 33 46 13 2 35 7 45 45 31 51 15 48 18 38 20 6 58 2
split_gain=8.97466e+06 1.58225e+06 1.15338e+06 273001 242904 204506 114070 107796 85625.9 71461.5 55651.3 48874.8 31336 30269.4 22906.2 20488.1 19405 17768.4 9032.58 2979.13 2634.29 1544.19 692.178 598.034 123.483
threshold=111456.80000000006 -5.4499511718749991 5.516642252604167 -82.100097656249986 421.50000000000006 697.50000000000011 8.7000732421875018 144.00024414062503 53.500000000000007 127.50000000000001 3290991.5000000005 24.000000000000004 -282393.02500000008 2.1333312988281254 -1.7833353678385413 49.000000000000007 51.599934895833336 -27.499999999999996 5.1500244140625009 -1.0866396959617022 1.0500488281250002 0.0011296137987759638 147266.66666666666 -4.0499877929687491 111382.50000000001
decision_type=2 10 10 2 10 10 8 2 2 8 10 2 8 10 10 2 10 8 10 10 8 8 2 10 10
left_child=2 10 5 20 8 6 12 15 18 21 22 -9 -1 -10 17 -5 -11 -7 -4 -16 24 -6 -2 -8 -3
right_child=1 3 4 7 9 14 23 11 13 16 -12 -13 -14 -15 19 -17 -18 -19 -20 -21 -22 -23 -24 -25 -26
leaf_value=1.0295537469516047 1.7852785048640689 2.6323804476974022 8.4143859610357019 -13.037070570726426 2.8939644499741171 10.784649524139962 16.198863277431958 -7.4480381905921949 3.0666953505877599 11.329651821562086 16.198860230625691 -13.089604841318849 9.1070136006359856 -0.86171291429363173 12.681281503867908 -16.188801201875417 6.6746149436309512 15.258201432621423 -9.8151434390327132 16.146162295576389 -2.0059626911509274 0.43099672336645217 4.6922769180885746 14.729789516694588 1.813258982387238
leaf_weight=0.58821512013673782 0.12061861902475657 0.28549325279892068 0.032354722265156677 2.7465766466921222 1.1621157322078921 1.7409957647323606 2.818730011582375 2.8054888946935526 7.7005941062234324 5.0420415139524275 2.0947029590606689 4.7213303362950683 8.5592247594613546 3.1742484574206173 0.2877675758209105 16.954575004288927 1.2884972369065506 2.4483649786561754 0.83457930374424905 24.462048105895519 0.22351209819316875 0.3895062990486623 0.42354502272792161 0.35822220984846254 0.80888631194829941
leaf_count=3 1 3 5 15 3 2 4 9 17 36 1 7 35 12 19 48 3 8 10 34 2 4 2 6 3
internal_value=3.38198 -11.3861 10.9457 -13.7045 4.18961 14.1588 10.5069 -14.4329 1.10382 8.7864 13.6932 -10.9868 8.5876 1.92003 15.714 -15.7494 10.3822 13.3991 -9.13478 16.1059 1.34297 2.27569 4.04795 16.0332 2.02696
internal_weight=92.0722 31.1847 60.8875 28.5459 19.6239 41.2636 12.3244 27.228 11.7418 7.88216 2.63887 7.52682 9.14744 10.8748 28.9392 19.7012 6.33054 4.18936 0.866934 24.7498 1.31789 1.55162 0.544164 3.17695 1.09438
internal_count=292 91 201 87 90 111 48 79 44 46 4 16 38 29 63 63 39 10 15 53 8 7 3 10 6
is_linear=0
shrinkage=0.0338522


Tree=8
num_leaves=24
num_cat=0
split_feature=25 13 59 35 25 14 26 18 13 24 27 31 4 14 2 1 26 18 4 13 24 1 18
split_gain=7.90624e+06 1.43902e+06 1.09616e+06 1.03735e+06 840700 453999 252790 104147 61409.2 46800.1 42880.2 42420.1 39389.4 18481.1 13622.5 13262.3 11216.2 7363.74 4623.5 3928.23 3645.6 90.3207 3.24386
threshold=198.50000000000003 -147.49999999999997 18.867194903687508 702.00000000000011 611.50000000000011 312.50000000000006 288.50000000000006 -0.42446257959522488 157.50000000000003 249.50000000000003 374.87286414852929 55.350097656250007 -0.31523181689865887 17.500000000000004 -951383.49999999988 0.34999999999999792 760.50000000000011 1.0299308263416727 -0.13775862320700366 142.50000000000003 1011.5000000000001 22.250000000000004 -1.1496015514214399
decision_type=10 8 10 2 10 10 8 10 10 10 8 2 10 10 10 2 8 8 10 10 10 2 8
left_child=3 2 12 6 5 7 20 -3 11 18 13 -6 21 -8 -5 -11 -12 -10 -4 -7 22 -2 -1
right_child=1 4 9 14 8 19 10 -9 17 15 16 -13 -14 -15 -16 -17 -18 -19 -20 -21 -22 -23 -24
leaf_value=-16.052864561447077 1.7248429792683064 7.416986890126462 0.16108974622027253 -0.67107902547371545 14.718557032375307 10.691661260972321 -7.78060998782715 2.5936871408638931 16.067590226440434 -12.505457251132801 -5.8709457462864698 10.822206477371404 16.091973521148468 -11.873619059493267 8.9235553582068885 -16.198861110548233 -0.23386098026269608 12.508266931624966 -7.5134482431124656 16.174795105625503 -10.964703164769926 2.9674014076649748 -16.198868337350316
leaf_weight=0.20570120215415955 0.1206186190247539 9.6096752441953921 0.27555125951766968 0.18180426955223117 7.8354517243569699 0.15430741012096305 2.3460244240704986 11.005461972206829 24.603781241923571 2.2833960205316544 1.1333938448224214 5.4150251771789044 2.1522739790380001 2.7416223995387554 2.5212526470422736 2.1758907213807106 0.62897048227023322 0.68468135874718683 0.13355763256549824 5.0718681663274765 0.1540629236260419 0.15121488273143768 16.10977536672727
leaf_count=1 1 50 2 1 45 1 21 17 38 3 14 14 2 6 3 2 9 11 1 5 4 1 53
internal_value=4.4083 10.211 -4.04111 -11.5739 11.8254 7.10126 -13.875 4.84205 14.9931 -13.3023 -8.40987 13.1263 14.5584 -9.98625 8.27823 -14.3076 -3.85914 15.9712 -2.34429 16.0129 -16.1481 2.41612 -16.197
internal_weight=97.6954 71.6728 7.2925 26.0226 64.3803 25.8413 23.3196 20.6151 38.5389 4.8684 6.85001 13.2505 2.42411 5.08765 2.70306 4.45929 1.76236 25.2885 0.409109 5.22618 16.4695 0.271834 16.3155
internal_count=305 193 12 112 181 73 108 67 108 8 50 59 4 27 4 5 23 49 3 6 58 2 54
is_linear=0
shrinkage=0.0338522


Tree=9
num_leaves=25
num_cat=0
split_feature=6 33 53 29 25 33 37 11 55 9 34 13 34 10 9 10 35 11 26 12 20 22 2 20
split_gain=8.47824e+06 2.02549e+06 946663 660428 371988 173889 134475 117178 69714.1 42929.2 42346.2 39612.6 31738 31366.9 14317.7 12192.5 11498.5 9715.9 8584.09 3018.01 2655.32 2194.68 1563.28 1.08497
threshold=16780.625000000004 13.699951171875002 2.4666748046875004 9.8666585286458357 588.50000000000011 101.09985351562501 -8.0459771156311017 -0.49540000000000001 -1.1112349804140431 -57999.999999999993 233.20001220703128 37.500000000000007 -375.74999999999994 1.469999999999992 106600.00000000001 -1.0000000180025095e-35 -407.49999999999994 1.0000000180025095e-35 -1.0000000180025095e-35 0.71611429038351093 1.0000000180025095e-35 611.00000000000011 40985.500000000007 0.0016643853212658934
decision_type=2 2 8 2 10 2 2 8 8 2 2 8 2 2 2 2 2 8 10 10 10 8 10 8
left_child=2 3 7 6 8 21 15 -1 18 23 -10 19 22 20 -11 -2 -13 -14 -4 -9 -5 -3 -7 -6
right_child=1 5 4 13 9 12 -8 11 10 14 -12 16 17 -15 -16 -17 -18 -19 -20 -21 -22 -23 -24 -25
leaf_value=7.7639536798529516 6.8384706366824215 -16.19886848895538 6.8804018841047965 -0.85554245283901198 16.198858931377355 -7.3875895994321956 16.077402083551334 6.1562356643050213 2.2850325335660844 10.845905207477509 11.581436366524901 12.959899246300514 -13.277706794784159 -12.543992797746125 1.2160558449171477 2.7702835378809096 15.925623712278737 -9.7692128209770477 11.990818479173019 10.586821362083789 -5.6073159869028348 -11.849477735149916 -5.5373757273323072 16.099366065504093
leaf_weight=2.319111242890358 4.0277742992620915 17.866865888237957 0.59837532788515102 0.24874403816647861 1.7617375082336353 2.0290957093238835 2.1522739790379983 0.45293284207582474 13.495107419206761 8.246920835343186 0.58588959928602058 1.5702881813049305 2.0487099057063451 2.1333945170044899 0.18081666785292405 1.0681391217513008 32.641256984556094 1.6196642998838799 1.0166866742074485 0.28839192539453506 0.29413492884486914 0.13397904194426047 0.70532965660095204 0.20974237564951193
leaf_count=2 9 50 2 3 6 2 2 6 56 39 4 1 8 2 4 11 63 18 3 3 4 3 1 3
internal_value=4.33072 -9.21837 11.6707 3.67601 6.72575 -14.4622 8.98237 15.1328 3.43591 11.6913 2.67184 15.6217 -9.67091 -10.6953 10.6393 5.98575 15.7895 -11.7286 10.0974 7.87986 -3.43012 -16.1665 -6.91034 16.1883
internal_weight=97.6954 34.3281 63.3673 9.92446 26.0953 24.4036 7.24819 37.272 15.6961 10.3992 14.081 34.9529 6.4028 2.67627 8.42774 5.09591 34.2115 3.66837 1.61506 0.741325 0.542879 18.0008 2.73443 1.97148
internal_count=305 113 192 31 117 82 22 75 65 52 60 73 29 9 43 20 64 26 5 9 7 53 3 9
is_linear=0
shrinkage=0.0338522


Tree=10
num_leaves=23
num_cat=0
split_feature=6 24 25 28 26 32 8 13 6 58 46 25 6 8 17 26 13 25 3 7 45 37
split_gain=8.31429e+06 2.45078e+06 807058 466275 186829 161588 115119 96250.2 87135.1 56771.8 50913.1 50316.2 47733 30044.1 16861.4 14722.1 10525.4 9712.55 7808.98 6519.34 6091.58 4910.94
threshold=16780.625000000004 880.50000000000011 611.50000000000011 -716.99572225498298 -79.999999999999986 1.0000000180025095e-35 -2.5647524812886062 157.50000000000003 532363.37500000012 -2.0500183105468746 110.50000000000001 388.50000000000006 251782.80000000008 2.2091920197243859 -1.5366767660956351 58.000000000000007 197.50000000000003 646.50000000000011 1.1506356791876977 -105424.17500000003 -1.1833292643229165 -282.20237731933588
decision_type=2 8 10 2 10 2 8 8 2 10 2 8 2 8 10 10 10 10 10 8 10 2
left_child=2 4 3 16 -2 -3 15 9 12 20 18 -8 -6 -11 -10 -5 -1 -9 -7 -12 -4 -19
right_child=1 5 7 6 8 10 11 17 14 13 19 -13 -14 -15 -16 -17 -18 21 -20 -21 -22 -23
leaf_value=7.8774976856571328 -16.1988683255755 16.198860230625698 13.783444831984488 8.4142245877340773 0.91893869394901084 -9.840482378656791 1.5479820062821297 11.22584013811964 -16.10060468924582 11.033403077208236 3.1605426728124364 5.7583062531546396 -8.9513996931773949 1.9229734418906193 -11.892473347318745 15.031810006157503 16.198866273711179 13.498118974994266 -0.8723575979550281 6.6302241541945248 16.198862609158578 15.973450243755069
leaf_weight=0.18067776225507515 15.985429080785254 2.0947029590606681 2.1166419293731451 4.1869933576090261 0.6189893794944491 0.24836250266525883 10.109086874988858 0.52500818087719636 2.3841108679771423 8.0586506361141783 0.73434910457581282 4.7959099911386192 6.0419934787787497 0.43733217194676299 2.0121283810585737 0.42430104315280903 4.8573779463768005 0.95518941991031425 0.20157867670059204 4.0064609546680003 2.7529699169099322 23.967118353233673
leaf_count=2 53 1 5 8 16 3 39 3 3 18 4 27 25 6 2 3 4 3 1 5 5 69
internal_value=4.25354 -9.16391 11.5222 6.719 -13.8587 8.26258 4.34885 14.5609 -10.4755 12.2348 5.05992 2.90272 -8.03417 10.5644 -14.1746 9.02314 15.9004 15.7826 -5.8227 6.09278 15.149 15.8786
internal_weight=97.6954 34.3281 63.3673 24.5543 27.0427 7.28545 19.5163 38.8129 11.0572 13.3656 5.19075 14.905 6.66098 8.49598 4.39624 4.61129 5.03806 25.4473 0.449941 4.74081 4.86961 24.9223
internal_count=305 113 192 83 99 14 77 109 46 34 13 66 41 24 5 11 6 75 4 9 10 72
is_linear=0
shrinkage=0.0338522


Tree=11
num_leaves=23
num_cat=0
split_feature=25 10 23 25 28 25 8 27 1 9 47 4 36 1 38 37 45 13 1 9 1 49
split_gain=7.53175e+06 2.12505e+06 949163 902577 493170 257931 90805.2 86684.9 69699.4 54650 53146.8 43946.1 29537.2 20192.8 15479 7132.02 5688.41 5503.53 5217.6 215.636 30.2932 15.9838
threshold=153.00000000000003 1.469999999999992 786.82616179939544 611.50000000000011 -716.99572225498298 -750.49999999999989 0.30935584059346527 270.18118038927804 -1.0000000180025095e-35 -8249.9999999999982 16.250244140625004 0.93523367965332393 -4.2499999999999991 0.34999999999999792 15.600036621093752 -1.7559647560119627 0.98333740234375011 197.50000000000003 6.049999999999998 -1.0000000180025095e-35 -9.0999999999999996 -7.5498046874999991
decision_type=10 2 8 10 2 8 8 10 2 2 8 10 10 2 10 2 8 10 2 2 2 10
left_child=2 3 5 4 17 -1 -6 9 20 -5 -9 15 18 -10 -14 -4 19 -2 -7 -13 -3 -18
right_child=1 8 11 7 6 12 -8 10 13 -11 -12 16 14 -15 -16 -17 21 -19 -20 -21 -22 -23
leaf_value=-16.198532610128975 9.7046677667258994 5.77933973410288 7.5521234893559841 15.100197981361905 5.4227117718622138 -9.5660224852127573 0.22286066986306174 15.385511642219299 -11.492827708642338 9.4272262070126835 -0.070184421786346124 -4.6531159113164504 -5.6035280667045599 -16.198861110548233 -13.047810709859979 14.61626221984276 -0.55028553485734533 16.198866273711179 -12.340179178654154 -7.7926869790833129 6.6016020618531872 0.057259429137862757
leaf_weight=15.98256944096647 0.1543074101209666 0.10237574577331543 2.353031475679018 3.0047521535307169 16.422440575435754 1.8027762407436969 5.0265749513637337 32.095996047602966 2.0102260112762442 5.5228607681347039 0.2569996640086164 0.029986618552357291 3.3611610808875478 2.1758907213807106 0.35378557443618763 0.17604228737764005 0.058602413162589073 4.8573779463768005 1.365504592657089 0.15393734758254063 0.10439898073673237 0.32376492186449501
leaf_count=51 1 1 4 13 52 15 23 83 1 13 2 3 16 2 2 5 3 4 3 4 1 3
internal_value=4.16672 9.82125 -11.4575 11.3094 6.43807 -13.839 4.20413 14.4624 -12.9913 11.4261 15.2627 6.13518 -8.3604 -13.939 -6.31247 8.04385 -2.38896 15.9989 -10.7617 -7.28092 6.19458 -0.0358053
internal_weight=97.6954 71.7342 25.9612 67.3413 26.4607 22.8658 21.449 40.8806 4.39289 8.52761 32.353 3.09537 6.88323 4.18612 3.71495 2.52907 0.566291 5.01169 3.16828 0.183924 0.206775 0.382367
internal_count=305 196 109 191 80 87 75 111 5 26 85 22 36 3 18 9 13 5 18 7 2 6
is_linear=0
shrinkage=0.0338522


Tree=12
num_leaves=24
num_cat=0
split_feature=25 24 25 50 22 26 38 47 59 51 58 8 46 36 22 41 20 55 1 52 3 18 10
split_gain=6.69859e+06 828623 802208 246007 216587 114538 111244 87616.4 75909.2 64819.5 50809.3 33252.7 31782.8 24155.2 15886.6 4898.54 4684.66 3086.13 2796.73 2326.67 847.45 797.631 507.621
threshold=236.50000000000003 745.00000000000011 684.50000000000011 7.1166992187500009 -754.49999999999989 -2279.4999999999995 14.899963378906252 24.150146484375004 19.438466156994913 42.183430989583343 1.9499816894531252 10.327067282581469 26.500000000000004 -4.6500549316406241 1459.5000000000002 167.50774383544925 0.0030916145055654991 -0.69538025908261625 -1.0000000180025095e-35 5.0499267578125009 -1.0432144939825965 -1.1496015514214399 -1.0000000180025095e-35
decision_type=10 8 10 8 8 10 8 8 8 10 8 8 2 8 8 8 10 10 2 8 10 8 2
left_child=1 4 3 6 21 -3 8 10 -2 11 -5 14 16 17 -4 -14 -7 -6 -9 -15 -8 -1 -11
right_child=2 5 9 7 13 12 20 18 -10 22 -12 -13 15 19 -16 -17 -18 -19 -20 -21 -22 -23 -24
leaf_value=-14.073223968738622 9.8163982572675881 7.5195485760447323 15.498716566863278 6.5293805985789444 -11.321635013238193 -16.198720232773585 13.983689672652217 -10.053896987971406 2.7510870352613725 8.7820646361158055 2.4471700851931555 -1.4934150082219044 -0.58302281944979228 -6.6447874179726076 12.429313967190707 -5.1974061436479708 -8.6539824767167683 -9.111082773209791 -16.198714463042293 -4.4705061274855469 16.198862743553427 -16.198868002272597 9.806946375775091
leaf_weight=0.20570120215415955 9.3509262081934104 2.1852565337903798 25.242702579009343 6.0495813366724205 1.7590502332895994 0.12834450602531378 0.2144902199506763 0.27317000925540924 2.1417776439338931 0.83793627470731746 8.2711828785249946 0.13638104498386994 2.1271056926343586 2.0290957093238893 2.0926557779312196 0.30094278464093882 0.35576114256400615 1.2299219449050725 0.12316850572824378 0.78120319009758565 2.5813860297203055 12.746950024389658 1.6362774372100821
leaf_count=1 43 3 92 19 8 1 1 2 17 2 17 1 12 2 3 5 6 6 1 14 3 46 1
internal_value=4.69721 -10.4409 10.8214 6.80898 -13.7307 1.66163 9.97297 3.73711 8.49971 14.7079 4.17164 15.1805 -2.73409 -8.29356 15.2637 -1.15496 -10.6543 -10.412 -11.9635 -6.04039 16.0289 -16.1651 9.45986
internal_weight=82.801 23.8493 58.9516 29.0057 18.7519 5.09741 14.2886 14.7171 11.4927 29.946 14.3208 27.4717 2.91215 5.79927 27.3354 2.42805 0.484106 2.98897 0.396339 2.8103 2.79588 12.9527 2.47421
internal_count=306 104 202 103 77 27 64 39 60 99 36 96 24 30 95 17 7 14 3 16 4 47 3
is_linear=0
shrinkage=0.0338522


Tree=13
num_leaves=25
num_cat=0
split_feature=34 6 53 31 22 8 18 6 1 3 9 1 30 6 26 44 22 34 58 55 24 11 27 18
split_gain=5.3199e+06 2.04057e+06 505020 294403 235132 221848 182005 72479.6 68548.8 47977.2 47645.8 40451.9 36020.2 32754.3 22721.8 22457 20248.2 18921.5 7413.09 6686.13 4997.82 3493.03 1341.53 1195.7
threshold=-103.49987792968749 -45879.775000000132 0.93330891927083348 16.199951171875004 -754.49999999999989 -1.165814088224512 -0.95388226499595541 177578.05000000008 -23.899999999999988 0.80578465754710915 -8249.9999999999982 -13.699999999999998 -1.6500244140624998 -1.0000000180025095e-35 745.00000000000011 3.7499694824218754 1299.0000000000002 -375.74999999999994 0.95001220703125011 -0.96701705839234309 940.50000000000011 -0.045149999999999989 358.72626654556342 -1.1496015514214399
decision_type=2 2 10 2 8 8 10 2 2 10 2 2 2 2 10 10 8 2 10 8 8 8 8 8
left_child=1 3 6 -1 23 9 13 12 -5 10 -4 -8 -7 18 -10 -11 -13 22 -2 -9 -15 -19 -6 -3
right_child=2 4 5 8 17 7 11 19 14 15 -12 16 -14 20 -16 -17 -18 21 -20 -21 -22 -23 -24 -25
leaf_value=16.194169773146893 8.598752746256384 -13.596814280844095 14.398930911225449 7.2641632015362045 -6.4198470343285878 2.6792299759351748 1.9116798452406294 -15.701425543111487 -6.5203142732679185 8.8050823868476016 8.700635887261539 15.978686752375054 6.7921362100743217 4.4235717900638978 0.87616144928302531 2.8509989116203673 13.639049784776709 -10.858972121004355 11.604976584856663 -6.2161956804167273 7.4890937911967246 -8.6315389606693635 -4.7058710211556605 -16.198868014723431
leaf_weight=2.235679598059507 1.3417875869199631 0.20570120215415955 4.1528453070204705 2.1827301979064941 2.0290957093238835 6.8381562853464848 0.2578796148300232 0.19611719436943531 0.52796556276734907 5.3287831007037312 2.8257550607668218 17.002363517880433 3.7941097305156299 1.3204352273605793 4.8314972859807312 0.84043102804571379 5.6470584943890634 1.7015346698462961 3.1397202843800187 0.15054571884684342 1.1319776773452757 1.5345799496863066 0.70532965660095204 12.878889248589982
leaf_count=2 4 1 25 1 2 37 1 4 11 8 8 30 50 6 12 3 8 6 14 4 1 19 1 48
internal_value=4.57264 -7.1667 10.8445 5.4052 -13.6178 7.20258 13.789 3.65026 2.2071 10.1689 12.0916 15.2436 4.14692 8.98376 0.147524 7.99396 15.3954 -8.05094 10.7049 -11.5823 5.83855 -9.80272 -5.97774 -16.158
internal_weight=82.801 28.833 53.968 9.77787 19.0551 24.1267 29.8412 10.9789 7.54219 13.1478 6.9786 22.9073 10.6323 6.93392 5.35946 6.16921 22.6494 5.97054 4.48151 0.346663 2.45241 3.23611 2.73443 13.0846
internal_count=306 103 203 26 77 139 64 95 24 44 33 39 87 25 23 11 38 28 18 8 7 25 3 49
is_linear=0
shrinkage=0.0338522


Tree=14
num_leaves=25
num_cat=0
split_feature=34 6 53 31 22 8 18 6 1 49 9 1 30 54 22 26 36 54 28 55 51 12 55 18
split_gain=5.16891e+06 2.00886e+06 503925 297486 250773 211116 188300 69905.5 63986.3 56220.1 53061.7 39661.2 33857 30714.3 26808.5 21209.5 20372.1 12462.8 10458.7 6846.43 2372.62 1938.77 1772.51 1656.33
threshold=-103.49987792968749 -45879.775000000132 0.93330891927083348 16.199951171875004 -754.49999999999989 -1.165814088224512 -0.95388226499595541 177578.05000000008 -23.899999999999988 4.0500488281250009 -34041.666666666737 -13.699999999999998 -1.6500244140624998 1.0000000000000002 1299.0000000000002 745.00000000000011 -4.6500549316406241 -4.0499877929687491 20.745659884471106 -0.96701705839234309 31.349934895833336 -0.54471074614840387 -0.64291509739257313 -1.1496015514214399
decision_type=2 2 10 2 8 8 10 2 2 10 2 2 2 10 8 10 8 10 2 8 10 10 8 8
left_child=1 3 6 -1 23 9 13 12 -5 10 -4 -8 -7 18 -13 -10 20 -11 -2 -9 -6 -15 -18 -3
right_child=2 4 5 8 16 7 11 19 15 17 -12 14 -14 21 -16 -17 22 -19 -20 -21 -22 -23 -24 -25
leaf_value=16.192500799613732 7.9550789341184656 -13.13653234620835 14.382699675594203 7.0182558853640264 -8.8588527965265111 2.5886384917700838 1.8469652587297627 -15.604019131213789 -6.2995874237978775 2.5035725545212211 9.2534231269173688 15.869428751014649 6.5761309682013369 12.519296345052419 13.177338171166781 0.84650148351723964 -4.3158882053467726 7.2648646690673271 4.2601195406949852 -6.0057642212333757 -10.75568463500052 10.673326842016055 -6.2385478344889256 -16.198868014723431
leaf_weight=2.235679598059507 2.6187633234076233 0.20570120215415955 3.6570047121495 2.1827301979064941 1.6844731629826131 6.8381562853464848 0.2578796148300232 0.19611719436943531 0.52796556276734907 0.86086447164416346 6.2806168998358762 17.002363517880433 3.7941097305156299 0.9596858806908134 5.6470584943890634 4.8314972859807312 0.73471299535594881 2.3493284129071972 1.320603324100375 0.15054571884684342 1.3708748668432233 2.0348682478070259 2.1804789602756531 12.878889248589982
leaf_count=2 12 1 16 1 9 37 1 4 11 3 18 30 50 6 8 12 6 7 4 4 3 3 10 48
internal_value=4.4449 -7.12665 10.6271 5.34719 -13.5274 6.98915 13.5685 3.52381 2.13239 9.88283 11.141 15.0479 4.01157 8.68078 15.1982 0.14253 -7.77839 5.98805 6.71641 -11.4358 -9.70993 11.2649 -5.75399 -16.1507
internal_weight=82.801 28.833 53.968 9.77787 19.0551 24.1267 29.8412 10.9789 7.54219 13.1478 9.93762 22.9073 10.6323 6.93392 22.6494 5.35946 5.97054 3.21019 3.93937 0.346663 3.05535 2.99455 2.91519 13.0846
internal_count=306 103 203 26 77 139 64 95 24 44 34 39 87 25 38 23 28 10 16 8 12 9 16 49
is_linear=0
shrinkage=0.0338522


Tree=15
num_leaves=23
num_cat=0
split_feature=25 25 24 26 35 25 46 8 51 38 46 39 5 9 6 7 0 4 18 8 1 12
split_gain=6.22808e+06 774667 773559 260733 247992 133365 96353.3 93921.3 70522.3 35201.8 28235.3 22506.5 16900.9 14650.4 14107 5673.23 4349.71 3330.64 2172.12 1152.86 406.303 20.2333
threshold=236.50000000000003 684.50000000000011 785.00000000000011 249.00000000000003 395.00000000000006 596.50000000000011 285.00000000000006 3.0837963061002927 41.149902343750007 7.4000854492187509 26.500000000000004 -1.4166666666666665 10.673314949897852 14708.333333333374 -26391.94999999995 -1.0000000180025095e-35 69.635037023799939 1.0619458953679246 -1.1496015514214399 0.061335350641126947 -1.0000000180025095e-35 -1.1269709259775504
decision_type=8 10 10 8 2 10 2 10 8 8 2 10 10 2 2 10 8 10 8 10 2 10
left_child=2 4 3 18 5 7 10 -2 9 11 15 -3 16 -7 -11 -4 -5 -12 -1 -14 -10 -6
right_child=1 8 6 12 21 13 -8 -9 20 14 17 -13 19 -15 -16 -17 -18 -19 -20 -21 -22 -23
leaf_value=-12.691831993350842 4.0895252424233588 13.14638873420852 -7.896072873997424 -9.426655240330339 12.83738346126767 9.4055630525390832 6.7731061611283989 -9.5431400181567145 8.8671764830789961 10.018589767516916 -0.65828316459291925 15.372157195604654 -4.4004649856819062 5.5239333855798671 -1.6211884226681497 -16.198720232773585 -0.33762354095224933 -4.3971463272962614 -16.198868002152569 -5.9876090868593117 7.9502252445168544 16.198862837654115
leaf_weight=0.20570120215415955 17.369638538570154 7.1371917548822301 0.35576114256400615 2.9788682237267556 0.002107862848788832 7.1043877529446018 2.1864009087439626 0.59910404693800856 1.6362774372100832 0.95374162681400776 2.1093698590993886 19.244424975244321 0.70532965660095248 1.3215900836512444 0.13638104498386983 0.12834450602531378 0.061590892379172479 0.31363839074037958 12.745431548799385 2.0465912017971277 0.83793627470731991 2.6211599782109252
leaf_count=1 68 22 6 11 1 16 2 11 1 8 8 65 1 12 1 1 10 7 45 3 2 4
internal_value=4.308 10.2111 -10.294 -13.473 6.26936 5.28278 1.4043 3.63499 14.0307 14.5237 -2.63349 14.77 -7.50289 8.79674 8.56236 -10.0973 -9.24254 -1.14226 -16.1432 -5.58082 8.55664 16.1962
internal_weight=82.801 58.9639 23.837 18.7435 29.018 26.3947 5.09351 17.9687 29.946 27.4717 2.90711 26.3816 5.79238 8.42598 1.09012 0.484106 3.04046 2.42301 12.9511 2.75192 2.47421 2.62327
internal_count=306 211 95 71 112 107 24 79 99 96 22 87 25 28 9 7 21 15 46 4 3 5
is_linear=0
shrinkage=0.0338522


Tree=16
num_leaves=26
num_cat=0
split_feature=6 24 7 5 26 32 6 3 40 49 33 35 47 6 55 3 30 46 43 13 46 5 37 36 7
split_gain=6.11778e+06 2.29793e+06 618371 457389 195835 194885 153259 145849 136906 60233.5 54260.1 41806.9 28800.7 27798.1 25938.8 23273.4 22835.1 20822 18931.4 17461.3 10212.4 8736.65 5591.18 3212.39 446.5
threshold=16780.625000000004 880.50000000000011 27933.250000000004 -6.9391501882330324 -79.999999999999986 1.0000000180025095e-35 -225123.19999999992 0.20547404632374092 -0.44995117187499994 22.349853515625004 78.700195312500014 -304.49999999999994 8.9499511718750018 -237766.94999999992 0.027875121580252994 -0.80278449093079474 -5.1499938964843741 139.50000000000003 -0.19998168945312497 192.50000000000003 -12.999999999999998 2.4419788696364439 -1.0000000180025095e-35 -3.4999694824218746 -451854.20000000013
decision_type=2 8 10 8 10 2 2 8 8 10 2 2 10 2 8 10 2 2 8 8 2 8 2 10 8
left_child=2 4 3 6 24 -3 19 15 11 20 13 -4 -9 -5 -13 -6 -8 -12 22 -1 -10 -11 -7 -20 -2
right_child=1 5 8 10 7 18 16 12 9 21 17 14 -14 -15 -16 -17 -18 -19 23 -21 -22 -23 -24 -25 -26
leaf_value=12.032705034511578 -14.403621511982404 16.198860230625698 9.3014337142883594 6.6982566340249905 -16.192690900553423 1.4382644251712287 2.707284415084096 3.831929341930302 5.7011062695917882 7.1243369914782368 -5.3307315573458132 15.568421740811356 -6.0090177789978299 2.5996542114590411 12.989708667037895 -11.861845145850898 8.1029703437411147 0.49367352382807195 6.8276364521447199 15.865205145653833 12.801417014872849 -1.5663076782784717 -6.2717413007730674 4.7399052392652861 -16.198868141919846
leaf_weight=2.0220290906727314 0.16079197824001312 2.0947029590606681 1.7284424211829925 2.7186383941443628 2.0813554953783751 1.3284035925753412 1.0653177620843051 0.37480332236737002 0.24637265573255707 4.7276397049427032 0.80427279986906697 14.589639583369712 3.7565638922387734 6.2696590718114775 6.4448528878856512 4.4886283781379444 5.7522975392639619 5.6073562002275139 1.1331897277850651 4.1761134783737361 4.020425386377612 0.13638104498386372 0.11730477830860753 3.3171801138669257 13.88734594034031
leaf_count=7 1 1 3 14 2 5 5 15 6 4 12 28 21 23 30 6 17 14 2 6 26 1 2 6 50
internal_value=3.32671 -8.45417 9.72221 6.09066 -13.5501 7.3293 10.7624 -10.1 12.9577 9.45583 2.14221 14.3624 -5.11623 3.83934 14.7783 -13.2338 7.25985 -0.236935 4.17821 14.6149 12.3914 6.88066 0.812662 5.2715 -16.1783
internal_weight=93.0497 32.7403 60.3094 28.4157 24.7495 7.99078 13.0158 10.7014 31.8938 9.13082 15.3999 22.7629 4.13137 8.9883 21.0345 6.56998 6.81762 6.41163 5.89608 6.19814 4.2668 4.86402 1.44571 4.45037 14.0481
internal_count=307 111 196 98 95 16 35 44 98 37 63 61 36 37 58 8 22 26 15 13 32 5 7 8 51
is_linear=0
shrinkage=0.0338522


Tree=17
num_leaves=27
num_cat=0
split_feature=6 24 7 23 26 0 3 40 59 7 15 55 8 47 3 47 48 12 43 2 30 55 37 2 31 7
split_gain=5.94182e+06 2.25218e+06 599431 475856 210858 199498 141937 140426 104618 54532.9 51279.9 44688.8 42967.3 28979.3 27700.8 26921.5 21339.8 19310.3 17671.3 13366.4 12347.2 10405.9 5219.04 2998.57 2619.32 722.308
threshold=16780.625000000004 880.50000000000011 27933.250000000004 1699.1857504914067 -79.999999999999986 139.6804548723448 0.20547404632374092 -0.44995117187499994 18.989209558606749 -100642.47500000008 -7.4999999999999991 0.027875121580252994 -1.5991406814830724 16.250244140625004 -0.80278449093079474 8.9499511718750018 5.1500244140625009 0.33899513841626588 -0.19998168945312497 -250810.49999999997 1.8999938964843752 0.99786958138143345 -1.0000000180025095e-35 26786.000000000004 70.500000000000014 -451854.20000000013
decision_type=2 8 10 8 10 10 8 8 10 8 8 10 10 8 10 10 10 8 8 10 2 8 2 8 2 10
left_child=2 4 3 8 25 18 14 11 9 -1 19 13 20 -4 -6 -8 -10 -13 22 -9 -5 -12 -3 -20 -14 -2
right_child=1 5 7 12 6 -7 15 10 16 -11 21 17 24 -15 -16 -17 -18 -19 23 -21 -22 -23 -24 -25 -26 -27
leaf_value=7.5441978166687083 -13.916027714850658 1.3895760437072677 15.372921135763228 12.065721149874008 -16.185149876344045 16.198860230625691 3.7022102048245547 13.254750283357611 1.9544425636113496 3.258868818755642 14.953020004551082 13.128083536214262 10.321468787833901 -0.14782613198182032 -11.460295921798524 -5.8122691015873329 -1.7179800251313988 9.4364366499705543 4.579449043925786 6.4057529259960901 15.690675545166695 10.995900507581284 -6.0594297214608766 6.5965061988373295 7.4005409774173581 -16.198868141919842
leaf_weight=5.9454189247917384 0.16079197824001212 1.3284035925753412 14.608623608713971 1.4405018640682099 2.0813554953783751 2.0947029590606689 0.37480332236737002 0.3508300632238387 3.5467962240800253 7.9580047710333073 1.0152757607866094 5.7527596149593556 0.54017187794670363 0.13917021453380485 4.4886283781379444 3.7565638922387734 3.709866521996446 2.2623814542312193 3.3171801138669244 4.7170516327023506 4.2656378978863358 3.0476613353239372 0.11730477830860753 1.1331897277850655 1.0092862546443937 13.887345940340312
leaf_count=21 1 5 29 4 2 1 15 2 9 29 15 17 8 1 6 21 20 14 6 6 5 14 2 2 2 50
internal_value=3.20959 -8.40062 9.51244 5.93694 -13.4456 7.22494 -9.86554 12.698 3.37173 5.09137 9.15139 14.1207 13.4181 15.2265 -12.9571 -4.9491 0.0769657 12.0861 4.03677 6.87989 14.7756 11.9847 0.785151 5.09305 8.41885 -16.1727
internal_weight=93.0497 32.7403 60.3094 28.4157 24.7495 7.99078 10.7014 31.8938 21.1601 13.9034 9.13082 22.7629 7.2556 14.7478 6.56998 4.13137 7.25666 8.01514 5.89608 5.06788 5.70614 4.06294 1.44571 4.45037 1.54946 14.0481
internal_count=307 111 196 98 95 16 44 98 79 50 37 61 19 30 8 36 29 31 15 8 9 29 7 8 10 51
is_linear=0
shrinkage=0.0338522


Tree=18
num_leaves=27
num_cat=0
split_feature=6 24 25 23 26 0 3 25 58 55 15 8 3 47 9 47 7 34 13 43 1 8 9 11 7 7
split_gain=5.7659e+06 2.20841e+06 820922 262693 225908 204007 138213 136042 104687 84604.9 41708 35876.8 32341.1 31217.8 26371.1 25165 23261.6 17439.6 17110.5 16495.1 4871.67 2798.99 2746.81 1267.49 1189.37 1051.42
threshold=16780.625000000004 880.50000000000011 706.50000000000011 1841.3783709611264 -79.999999999999986 139.6804548723448 0.20547404632374092 403.00000000000006 -4.3500061035156241 0.086170826669549963 -17.499999999999996 0.26934107397256035 -0.80278449093079474 9.2500000000000018 17975.000000000004 8.9499511718750018 291532.97500000015 202.00000000000003 217.50000000000003 -0.19998168945312497 -17.699999999999996 -0.71955471497375967 -51224.999999999993 0.085449999999999998 617683.15000000026 -451854.20000000013
decision_type=2 8 10 8 10 10 8 10 10 10 8 8 10 10 2 10 10 2 10 8 2 8 2 10 8 8
left_child=2 4 3 7 25 19 12 13 23 14 22 -9 -6 -1 18 -8 -10 -12 -4 20 -3 -21 -11 -5 -16 -2
right_child=1 5 9 8 6 -7 15 11 16 10 17 -13 -14 -15 24 -17 -18 -19 -20 21 -22 -23 -24 -25 -26 -27
leaf_value=2.1711964420768122 -13.444939706865986 -5.8543048581958264 14.011627107335476 13.203414467502721 -16.177612373136483 16.198860230625691 3.576882346147598 7.1422860855827128 10.261886166456266 9.2498272160367314 11.459750953434273 1.8530419166063101 -11.072339667827835 -1.5672899117931527 7.9064400514441413 -5.621962440054415 6.19098510192131 15.525066257687149 16.131300686480607 4.4244247654920672 1.3425359233211274 6.3731999948447626 6.4496832266432618 16.198862377348458 -0.71158871935160617 -16.198868141919846
leaf_weight=7.6235286970622891 0.16079197824001312 0.11730477830860753 9.0010428667301401 0.17340864893049035 2.0813554953783751 2.0947029590606689 0.37480332236737002 8.7149914238834718 2.8864479009062034 0.5131311193108562 7.360965848900376 1.7676983390701941 4.4886283781379444 3.85351265699137 0.54744438058696587 3.7565638922387734 3.6333557856269181 1.4470151066780088 8.4720522565767151 3.3171801138669252 1.3284035925753412 1.1331897277850647 1.8453947454690931 2.4504642188549042 0.018984025344252586 13.88734594034031
leaf_count=28 1 2 29 3 2 1 15 28 4 2 27 14 6 18 13 21 10 3 11 6 5 2 3 2 1 50
internal_value=3.0882 -8.34885 9.29705 5.46988 -13.3446 7.12411 -9.63894 3.46239 10.2911 13.3728 11.057 6.25036 -12.6897 0.915967 14.8063 -4.78743 7.99326 12.1276 15.0394 3.90011 0.758571 4.92064 7.0589 16.0009 7.61757 -16.1673
internal_weight=93.0497 32.7403 60.3094 31.1034 24.7495 7.99078 10.7014 21.9597 9.14368 29.206 11.1665 10.4827 6.56998 11.477 18.0395 4.13137 6.5198 8.80798 17.4731 5.89608 1.44571 4.45037 2.35853 2.62387 0.566428 14.0481
internal_count=307 111 196 107 95 16 44 88 19 89 35 42 8 46 54 36 14 30 40 15 7 8 5 5 14 51
is_linear=0
shrinkage=0.0338522


Tree=19
num_leaves=25
num_cat=0
split_feature=6 24 23 24 22 32 13 44 5 6 49 13 0 6 45 47 9 40 46 46 1 40 0 0
split_gain=5.59455e+06 2.16651e+06 549272 353641 240617 208410 144815 128729 127307 119949 68593.5 68433.5 36459.7 26790 22925.9 18532.6 18213.5 15447.6 9826.06 5199.38 3601.06 2653.14 1979.41 1607.98
threshold=16780.625000000004 880.50000000000011 1056.5933601314478 359.50000000000006 -523.99999999999989 1.0000000180025095e-35 287.50000000000006 -1.0000000180025095e-35 12.684391422097567 -35959.499999999993 9.1499023437500018 217.50000000000003 139.6804548723448 251782.80000000008 1.2333272298177087 7.8498535156250009 20325.000000000004 1.6000366210937502 147.50000000000003 110.50000000000001 11.550000000000006 -9.1000366210937482 6.116874340653804 -4.1784279795227084
decision_type=2 8 8 10 10 2 8 8 10 2 10 10 10 2 8 10 2 8 2 2 2 10 10 10
left_child=2 4 9 6 -2 -3 14 11 13 15 -9 -5 -10 -6 -4 21 23 22 -17 -19 -18 -1 -7 -11
right_child=1 5 3 7 8 17 -8 10 12 16 -12 -13 -14 -15 -16 18 20 19 -20 -21 -22 -23 -24 -25
leaf_value=-5.9369539703787719 -16.198868141919846 16.198860230625698 1.8692536427243513 12.055971801804507 1.2318773211648724 6.1576528419419105 16.04531342225804 11.597495790668255 -10.748012996212429 6.9992678913005495 6.890520898314997 15.759565454359761 -16.198860595008799 -6.1206295010131226 5.6692810901150921 -5.0272675294814055 2.63138243410669 -5.6561235162184902 -0.70698504436361598 1.702735678459542 5.454593535077648 1.915603474734588 4.4862556679151924 8.462783995188202
leaf_weight=0.049992820946500038 13.88734594034031 2.0947029590606681 5.1896881200373164 11.918031318578871 0.67178613145370025 1.1319776773452757 1.1508789013605563 9.2975441785529238 4.4652466624975204 1.3060801029205324 5.7372497776523224 10.989193631336091 2.0527222156524658 3.6723880567587912 2.8015727261081329 0.75997143972199444 1.0505509423092008 0.11730477830860753 2.926355283241719 1.7735245299991218 1.0209332704544067 3.5894654389703646 2.8732712268829346 2.5219300687313062
leaf_count=3 50 1 13 53 15 1 11 43 4 1 9 13 1 25 7 9 5 2 7 9 1 18 3 3
internal_value=2.96704 -8.29879 9.08293 10.7951 -13.2469 7.02669 4.81835 12.2352 -9.47272 2.98724 9.80132 13.8327 -12.4647 -4.98363 3.20147 0.0941417 6.57978 3.76809 -1.59766 1.24619 4.02281 1.80773 4.95864 7.96345
internal_weight=93.0497 32.7403 60.3094 47.0842 24.7495 7.99078 9.14214 37.942 10.8621 13.2253 15.0348 22.9072 6.51797 4.34417 7.99126 7.32578 5.89949 5.89608 3.68633 1.89083 2.07148 3.63946 4.00525 3.82801
internal_count=307 111 196 149 95 16 31 118 45 47 52 66 5 40 20 37 10 15 16 11 6 21 4 4
is_linear=0
shrinkage=0.0338522


Tree=20
num_leaves=16
num_cat=0
split_feature=25 11 25 35 35 25 25 13 45 58 39 29 15 31 7
split_gain=5.35186e+06 1.12298e+06 862459 770196 280037 244878 160667 87435.3 50508.9 26179.4 25309.5 7606.77 7501.94 3422.24 1618.43
threshold=58.000000000000007 -0.98414999999999997 706.50000000000011 702.00000000000011 395.00000000000006 -750.49999999999989 388.50000000000006 162.50000000000003 -1.1833292643229165 0.60000610351562511 0.68332926432291674 8.8833211263020839 -102.49999999999999 49.850097656250007 -451854.20000000013
decision_type=8 8 10 2 2 8 10 10 10 8 10 2 8 2 10
left_child=3 -2 4 5 6 14 -3 8 -4 -9 11 -7 -5 -12 -1
right_child=1 2 7 12 -6 10 -8 9 -10 -11 13 -13 -14 -15 -16
leaf_value=-12.782602351800053 -16.198861110548233 1.3416938716845028 6.7025403888785773 5.0320698357714404 16.1944205530747 -7.7357459390459624 6.1990246735907233 15.165919590724107 12.428478372450252 12.361500833465501 -7.8483114496526625 -10.707410630631527 12.360935131181979 -3.9335279658458386 -16.198868057646028
leaf_weight=0.16079197824001568 2.1758907213807106 13.159677505027501 3.0513478955253985 2.5321966260671616 2.40545341791585 1.7451061720494241 19.174101368756965 13.730320135131477 4.1891866542864591 5.2821990624070194 0.30832432094030071 2.2728967163711786 0.17086029052734319 1.5053681961726395 14.008595759631129
leaf_count=1 2 51 15 3 3 16 66 22 36 16 3 5 1 9 45
internal_value=2.63145 7.69804 8.55055 -11.465 5.05112 -13.7571 4.22212 13.1812 10.0154 14.3868 -7.91842 -9.41676 5.49533 -4.59904 -16.1601
internal_weight=85.8723 63.1682 60.9923 22.7041 34.7392 20.0011 32.3338 26.2531 7.24053 19.0125 5.8317 4.018 2.70306 1.81369 14.1694
internal_count=294 211 209 83 120 79 117 89 51 38 33 21 4 12 46
is_linear=0
shrinkage=0.0338522


Tree=21
num_leaves=25
num_cat=0
split_feature=6 33 25 48 33 53 45 13 5 0 49 47 56 47 39 34 2 0 47 14 0 6 40 6
split_gain=5.41933e+06 1.63078e+06 803411 268978 245789 139178 82911.5 50174.7 48958 41525.9 37715.1 36861.1 35340.4 31518.9 25779.2 9018.5 6664.28 5458.44 3039.58 1696.13 906.264 562.396 167.178 160.66
threshold=69173.199999999968 13.699951171875002 706.50000000000011 61.949707031250007 101.09985351562501 7.016642252604167 -1.6833292643229165 192.50000000000003 4.990357016340238 6.116874340653804 -1.0000000180025095e-35 9.7500000000000018 -3.0499267578124996 15.749877929687502 1.6000010172526042 205.05023193359378 1156004.5000000002 2.9426990778841193 8.5498046875000018 17.500000000000004 -400.91845878136195 445700.32500000001 -6.2501220703124991 768431.22400000039
decision_type=2 2 10 8 2 8 10 8 8 10 10 10 10 10 10 2 10 10 8 10 8 2 10 2
left_child=2 8 3 5 22 12 7 18 10 11 17 -8 -1 -7 16 -12 -6 -2 -4 -11 -9 -16 23 -3
right_child=1 4 6 -5 14 13 9 20 -10 19 15 -13 -14 -15 21 -17 -18 -19 -20 -21 -22 -23 -24 -25
leaf_value=4.0536256253390004 8.7231010958833437 -0.75375327013697957 8.0584169161517565 16.189134329060526 -8.8650153787163486 2.2905660672937609 11.60973802501316 12.892556416320035 -15.098525277280487 13.146427723695943 0.4320322627838617 15.180978719438254 7.378832534603033 -1.6873770793183032 -3.1831470829000987 3.7220113891267768 -14.025523351770422 5.7393523045728987 5.7723632723384375 16.123021305872133 14.724958754284645 -4.599374888695972 -16.198868292693685 -16.186277251421348
leaf_weight=5.8698900833260295 1.8526047468185425 0.0015801533591063279 0.95307581871748259 2.23265678144526 4.0129376846598452 9.7698834643233585 9.7116950426716375 0.45795628428459167 0.14655916427727778 0.22701261192560096 1.4171728716464738 5.0263567715883246 9.741249119164415 2.9784503246191898 0.73211448406800606 2.9267342314124107 0.30886141583323468 1.1319776773452759 2.2173429634422064 6.5846009254455566 0.95439471025019862 0.57290573930367827 16.042785274912603 0.0015184755902737379
leaf_count=23 1 1 8 4 19 38 51 1 3 4 14 9 36 9 4 5 3 1 7 5 3 3 41 1
internal_value=2.50359 -9.36 8.59966 4.87612 -14.0625 3.98548 12.9586 8.82377 4.27423 13.838 4.66166 12.8277 6.12853 1.36118 -7.9747 2.64868 -9.23382 7.59145 6.45959 16.0238 14.1308 -3.80489 -16.1973 -8.32253
internal_weight=85.8723 29.1478 56.7246 30.5921 21.6727 28.3595 26.1324 4.58277 7.47505 21.5497 7.32849 14.7381 15.6111 12.7483 5.62682 4.34391 4.3218 2.98458 3.17042 6.81161 1.41235 1.30502 16.0459 0.00309863
internal_count=294 96 198 110 72 106 88 19 24 69 21 60 59 47 29 19 22 2 15 9 4 7 43 2
is_linear=0
shrinkage=0.0338522


Tree=22
num_leaves=26
num_cat=0
split_feature=6 24 25 38 38 53 45 22 3 13 56 56 12 47 14 53 55 19 43 1 1 50 43 47 7
split_gain=5.29561e+06 1.54598e+06 772634 274853 220984 130092 83614.2 57115.9 50475.4 46892.6 40830 33059.8 32118 29422 28339.2 22934.9 17795.1 12518.8 7811.03 6406.6 5095.13 4481.43 2988.28 2837.26 852.372
threshold=69173.199999999968 760.50000000000011 706.50000000000011 29.200073242187504 4.5999755859375009 7.016642252604167 -1.6833292643229165 -523.99999999999989 1.0336842651615155 192.50000000000003 1.0999755859375002 -3.0499267578124996 1.0218979853106296 15.749877929687502 47.500000000000007 -1.3166503906249998 -0.35410005140547113 -12.308499021547574 -1.2499999999999998 -14.399999999999997 2.8000000000000047 -1.0000000180025095e-35 -0.29995727539062494 8.5498046875000018 421749.1750000001
decision_type=2 10 10 8 10 8 10 10 10 8 10 10 10 10 10 10 10 2 10 2 2 10 10 8 10
left_child=2 4 3 5 7 11 9 -2 19 23 15 -1 18 -7 -9 -8 -12 22 -10 -3 -14 -19 -6 -4 -11
right_child=1 8 6 -5 17 13 10 14 12 24 16 -13 20 -15 -16 -17 -18 21 -20 -21 -22 -23 -24 -25 -26
leaf_value=3.9173895739973994 -16.198848366374385 -5.2152856497474351 7.7856221107787915 16.188521539677556 -8.7694932574247861 2.2130539081536869 15.841776176563425 -3.3555998802007987 0.53711452120828118 14.233212766422151 13.304028015977568 7.1335168381950833 8.4278051034301456 -1.630288634451754 -8.7101067972073025 12.783463231646607 10.291283822336881 -0.72994510792087575 3.7231411868545372 -16.198720232773642 5.5450625279444985 -16.11968280179272 -15.370851859051827 5.5769565518545292 12.45611586000037
leaf_weight=5.8698900833260295 0.89054685074370343 0.11575420200824738 0.95307581871748259 2.23265678144526 0.33749227575026453 9.7698834643233585 8.3165268078446406 1.7099265828728736 1.2928185686469076 0.95439471025019862 4.5612570222001523 9.741249119164415 1.8526047468185425 2.9784503246191898 3.3556674942374229 4.2440870145801446 4.4277945070061815 0.021716429153459837 2.773965529166162 0.12834450602531333 1.1319776773452759 15.434487945283752 0.10244911117479638 2.2173429634422064 0.45795628428459167
leaf_count=23 7 1 8 4 5 38 9 19 5 3 11 36 1 9 4 29 20 3 5 1 1 41 3 7 1
internal_value=2.37807 -9.34931 8.40414 4.75263 -13.854 3.85231 12.6788 -8.2926 4.14365 8.52647 13.5619 5.92423 4.66755 1.31512 -6.90266 14.8084 11.82 -15.9378 2.71032 -10.9903 7.33446 -16.0981 -10.3068 6.24092 13.657
internal_weight=85.8723 29.1478 56.7246 30.5921 21.8523 28.3595 26.1324 5.95614 7.29547 4.58277 21.5497 15.6111 7.05137 12.7483 5.06559 12.5606 8.98905 15.8961 4.06678 0.244099 2.98458 15.4562 0.439941 3.17042 1.41235
internal_count=294 96 198 110 82 106 88 30 14 19 69 59 12 47 23 38 31 52 10 2 2 44 8 15 4
is_linear=0
shrinkage=0.0338522


Tree=23
num_leaves=23
num_cat=0
split_feature=4 32 24 7 33 43 13 42 32 2 39 47 3 15 7 19 29 1 13 41 16 5
split_gain=5.04252e+06 1.04272e+06 992411 493557 257732 154266 143096 111535 51945.8 39698.5 23233.7 20370.2 16338.3 11190.9 8470.16 7626.6 6968.29 3702.48 3365.03 1113.97 525.626 22.5661
threshold=0.78968237047859824 165.55029296875003 725.50000000000011 27933.250000000004 121.70019531250001 3.0499877929687504 157.50000000000003 0.25000000000000006 -92.449707031249986 812833.00000000012 1.6000010172526042 -0.15014648437499997 -0.44615049985033833 7.5000000000000009 -105424.17500000003 -39.344090884774552 8.1833496093750018 6.6999999999999966 1.0000000180025095e-35 -569.30068969726551 -1.0000000180025095e-35 14.557253523670317
decision_type=10 2 10 10 2 8 10 2 2 8 10 8 10 8 8 2 2 2 10 10 10 10
left_child=1 3 4 7 15 6 -5 11 -9 13 16 -1 -7 18 -15 -2 -6 -11 -4 -17 -12 -3
right_child=2 21 9 5 10 12 -8 8 -10 17 20 -13 -14 14 -16 19 -18 -19 -20 -21 -22 -23
leaf_value=5.8232065069303509 -0.23755190759207054 -15.895398462125518 -4.2662045562693951 8.6498359180746078 -7.113109842957269 8.6921006645877217 14.419035161429621 11.571554571382277 6.3219378777893072 -16.15955425434684 -2.9628456596924893 2.085120356226887 5.0224963394192859 1.3409185534526318 6.9754470916614295 -8.5591066373092737 -9.9075598833138656 -8.5525156736509498 -0.51910280692006616 -16.195932968993631 -4.331994529412837 -16.198858191844039
leaf_weight=2.0477278216276318 0.034456056077035835 0.34850791143253346 0.30519855022430276 6.7708351156907183 1.7617168987635512 2.4927701987326145 18.090960081666708 2.6474656269419929 11.733530850149689 0.12971402262337495 0.73211448406800628 9.0709122255211714 3.1442297622561481 4.5884236252168193 0.32756690098904062 0.021933421492579153 2.4376625622389838 0.16869748011231422 2.7435890883207321 14.060764427413231 0.57290573930367805 1.6406339695677159
leaf_count=7 2 2 2 50 12 4 30 11 46 2 4 23 3 21 14 1 8 2 5 38 3 4
internal_value=2.25139 7.93991 -9.57815 8.79547 -13.7225 11.7015 12.8479 5.31977 7.28837 0.262903 -7.50919 2.77357 6.64526 0.717078 1.71637 -16.1451 -8.73524 -11.8592 -0.894212 -16.184 -3.56392 -16.1457
internal_weight=85.8723 57.9876 27.8847 55.9984 19.6216 30.4988 24.8618 25.4996 14.381 8.26319 5.5044 11.1186 5.637 7.96478 4.91599 14.1172 4.19938 0.298412 3.04879 14.0827 1.30502 1.98914
internal_count=294 180 114 174 68 87 80 87 57 46 27 30 7 42 35 41 20 4 7 39 7 6
is_linear=0
shrinkage=0.0338522


Tree=24
num_leaves=16
num_cat=0
split_feature=25 10 52 35 6 26 2 25 32 55 18 23 46 15 12
split_gain=5.17106e+06 1.53377e+06 739241 679875 467306 307973 139215 130024 84949.7 75262.6 34562.9 18896.1 7177.81 6688.11 1523.28
threshold=58.000000000000007 1.3299999999999985 -8.3498535156249982 702.00000000000011 -248076.52499999988 -750.49999999999989 3290991.5000000005 421.50000000000006 -100.45019531249999 -0.087627105404031236 -1.0000000180025095e-35 708.87893926802201 -153.99999999999997 -102.49999999999999 -0.48832471060859689
decision_type=8 2 8 2 2 8 10 10 2 10 10 10 2 8 10
left_child=3 2 6 5 8 -1 9 -6 -4 -2 -3 12 -7 -5 -13
right_child=1 10 4 13 7 11 -8 -9 -10 -11 -12 14 -14 -15 -16
leaf_value=-16.198868159154902 13.134963511230692 -10.060603251399614 14.499727399271231 4.2384758711666572 0.97539850484597479 -15.705372465076771 16.198867648031591 5.2516463479983999 7.7660213617058869 8.3549918204904721 -16.198860595008806 -3.0476703306464255 -8.1600492425628506 11.158400864697535 -7.3192903808424861
leaf_weight=14.358337601763195 7.8334003388881683 2.1546767639229074 5.9764792431378737 2.5321966260671616 13.680440185591577 0.14806943759322155 8.7385532855987531 20.150557359564118 3.3506749368971196 7.2859651320613938 2.0527222156524649 0.96602357947267592 5.9702400446403834 0.17086029052734319 0.10619299858808495
leaf_count=47 10 5 32 3 54 2 4 85 17 14 1 9 20 1 3
internal_value=2.17358 6.77077 8.01549 -11.3275 5.37202 -13.335 12.7974 3.52244 12.0807 10.8315 -13.0554 -7.61618 -8.34266 4.67589 -3.47075
internal_weight=95.4754 71.2235 67.0161 24.2519 43.1582 21.5489 23.8579 33.831 9.32715 15.1194 4.2074 7.19053 6.11831 2.70306 1.07222
internal_count=307 222 216 85 188 81 28 139 49 24 6 34 22 4 12
is_linear=0
shrinkage=0.0338522


Tree=25
num_leaves=20
num_cat=0
split_feature=25 10 53 18 27 6 25 37 25 44 18 22 25 27 3 12 1 25 16
split_gain=5.0539e+06 1.48397e+06 796974 679980 263736 250787 194935 140384 74877.3 50195.6 38504.7 24747.9 21149.2 18138.9 15001.3 1614.18 458.166 417.517 111.891
threshold=58.000000000000007 1.3299999999999985 -0.56669108072916652 0.35326636401964812 1373.9526826001827 -280652.27499999985 706.50000000000011 25.912362098693851 403.00000000000006 2.8500061035156254 -1.0000000180025095e-35 -871.49999999999989 -258.99999999999994 1986.3803861319211 1.0600733297676275 -0.48832471060859689 -6.2499999999999956 -750.49999999999989 -12.333818521302634
decision_type=8 2 8 8 8 2 10 2 10 8 10 10 8 10 10 10 2 8 10
left_child=3 2 5 4 11 13 8 -7 -4 -8 -3 -1 17 -2 -13 18 -17 -5 -14
right_child=1 10 6 12 -6 7 9 -9 -10 -11 -12 14 15 -15 -16 16 -18 -19 -20
leaf_value=-16.198818259130814 7.2974364778735641 -9.7200303699285548 0.89682088984337271 -16.198868123365898 4.9556965218615048 8.1211055343762162 11.550038030121678 14.5086469482012 4.5041313425300382 5.6196256048048037 -16.198860595008806 -7.9147301064095439 1.6495980691298577 16.031558695325501 -3.595930938379166 -12.402449658528772 -7.071516682595095 -12.104283933680705 -2.4641452680068432
leaf_weight=0.37314812093973149 0.27982023358344932 2.1546767639229074 12.375745750032367 13.985189480823463 2.5212526470422754 17.922023749910299 4.1666292145382604 5.0551354046910992 14.114910766948013 2.692504710634239 2.0527222156524649 6.0377926826477024 0.0083505632355809212 10.40930065140128 1.0877291932702062 0.022381987422704697 0.10619299858808773 0.028633279725908234 0.081249624956399202
leaf_count=5 1 5 55 42 3 31 45 6 54 13 1 14 1 11 4 1 3 1 11
internal_value=2.07581 6.62062 7.84497 -11.2715 -4.51589 11.5192 4.13585 9.52641 2.81889 9.2221 -12.881 -7.7005 -16.0277 15.8029 -7.25546 -5.56888 -7.99966 -16.1905 -2.08054
internal_weight=95.4754 71.2235 67.0161 24.2519 10.0199 33.6663 33.3498 22.9772 26.4907 6.85913 4.2074 7.49867 14.232 10.6891 7.12552 0.218175 0.128575 14.0138 0.0896002
internal_count=307 222 216 85 26 49 167 37 109 58 6 23 59 12 18 16 4 43 12
is_linear=0
shrinkage=0.0338522


Tree=26
num_leaves=24
num_cat=0
split_feature=25 52 2 18 6 35 2 25 34 55 0 26 25 53 0 37 9 13 4 12 25 1 16
split_gain=4.94017e+06 1.08744e+06 1.10867e+06 694872 437101 248210 177953 113644 88933.5 72017.1 44379.3 26358.2 21903.2 18910.4 17602.4 16562.7 10539.1 7987.86 6184.67 1506.74 505.375 427.663 104.446
threshold=58.000000000000007 -8.3498535156249982 3019816.5000000005 0.35326636401964812 -248076.52499999988 702.00000000000011 3290991.5000000005 421.50000000000006 267.84997558593756 -1.0000000180025095e-35 -1.0000000180025095e-35 306.00000000000006 -258.99999999999994 2.5999755859375004 -4.1784279795227084 -55.37696456909179 -72874.999999999985 -304.99999999999994 -0.77487458491523464 -0.48832471060859689 -750.49999999999989 -6.2499999999999956 -12.333818521302634
decision_type=8 8 10 8 2 2 10 10 2 10 10 10 8 10 10 2 2 10 10 10 8 2 10
left_child=3 6 4 5 8 11 9 -6 -3 14 17 16 20 -13 -2 -11 -1 -4 -7 22 -5 -21 -14
right_child=1 2 10 12 7 18 -8 -9 -10 15 -12 13 19 -15 -16 -17 -18 -19 -20 21 -22 -23 -24
leaf_value=-9.2934682550844787 9.74060886394874 8.3546913972785504 -3.9440256936742766 -16.198868123365898 0.97573629080149404 10.612904028061264 16.198867648031591 4.9942002312352685 14.965836892567772 8.3586858829758377 -16.198860595008806 -7.6766436543090615 1.5937558580856599 -2.8412016472880972 13.269451885357661 3.9181461332925309 -16.198831258170763 -10.121832290042063 3.9585142389946499 -11.982600639754315 -11.694526944338246 -6.832130446271039 -2.380728676093403
leaf_weight=0.51457755267620087 2.2290772497653961 4.6743083301698771 0.26993867754936252 13.985189480823463 13.560261322185395 0.17086029052734408 8.7385532855987531 19.900760267395526 4.6528458498651162 5.9153794674202791 2.0527222156524649 5.1743634343147278 0.0083505632355809212 1.1290891692042349 5.9276167750358564 1.1496677245013449 0.49883557111024657 2.1523382961750031 2.5321966260671616 0.022381987422704697 0.028633279725908234 0.10619299858808773 0.081249624956399202
leaf_count=3 5 22 2 42 54 1 4 85 27 8 1 9 1 4 6 6 6 2 3 1 1 3 11
internal_value=1.98028 6.47366 3.4954 -11.216 5.17213 -4.3868 12.3485 3.3657 11.6527 10.138 -12.5368 -7.6252 -16.024 -6.81051 12.3051 7.6361 -12.6925 -9.43338 4.37915 -5.38037 -16.1897 -7.72886 -2.01011
internal_weight=95.4754 71.2235 47.2632 24.2519 42.7882 10.0199 23.9603 33.461 9.32715 15.2217 4.475 7.31687 14.232 6.30345 8.15669 7.06505 1.01341 2.42228 2.70306 0.218175 14.0138 0.128575 0.0896002
internal_count=307 222 193 85 188 26 29 139 49 25 5 22 59 13 11 14 9 4 4 16 43 4 12
is_linear=0
shrinkage=0.0338522


Tree=27
num_leaves=23
num_cat=0
split_feature=25 10 53 53 25 23 23 48 32 26 30 2 4 53 22 28 2 43 22 44 1 1
split_gain=4.83375e+06 1.39194e+06 782131 698498 324458 217016 208027 83743 81702.2 69053.5 46494.3 39077.3 27957.8 17452.8 10146.9 6488.69 5059.44 4299.3 598.248 549.729 257.412 109.57
threshold=58.000000000000007 1.3299999999999985 -4.7500406901041661 3.7166748046875004 745.00000000000011 2888.8441536924797 740.47071413770641 7.3000488281250009 82.800048828125014 911.50000000000011 -1.0000000180025095e-35 -1.0000000180025095e-35 -0.60114675015102159 2.5999755859375004 -379.99999999999994 -417.06132964503951 -578742.49999999988 1.4500122070312502 -397.49999999999994 6.9500122070312509 14.849999999999996 2.6499999999999919
decision_type=8 2 8 10 10 10 10 10 2 10 2 10 10 10 8 2 10 10 8 10 2 2
left_child=3 2 5 6 7 11 13 -4 15 -6 -3 -2 -7 17 18 20 -8 -1 -10 -17 -5 -15
right_child=1 10 4 8 9 12 16 -9 14 -11 -12 -13 -14 21 -16 19 -18 -19 -20 -21 -22 -23
leaf_value=-6.3228340706222852 9.6998703157118484 -9.0795295824511921 4.2273665819905757 -1.4238350843106673 7.8091886554445598 11.445305323334244 10.253634180761374 0.35970402214077729 -16.198868167675148 13.106770842767071 -16.198860595008806 3.971517596064948 16.020974956614698 -1.7555486254283499 -4.0027374922581078 -7.1082061977622013 4.2209630466708683 -8.3090181915336139 -11.298642670452946 -9.3634814306837839 -3.153081346184984 -2.6795611682634899
leaf_weight=1.9588769276160762 4.2207314372062683 2.1546767639229074 21.542242304771211 0.18180426955223083 12.538092081551442 1.7503141760826118 0.17086029052734408 9.136258573853409 14.418167759315109 3.6378327051643273 2.0527222156524649 2.0168190598487881 12.173780143260952 0.18562891148030747 0.078729334054513767 0.26510066352784534 2.3587429197505116 3.4464510381221771 0.028633279725908234 0.2326819128356874 0.21581470035016537 0.71042857179418206
leaf_count=8 4 5 101 1 56 3 1 28 46 14 1 2 8 2 2 9 3 5 1 3 2 2
internal_value=1.88956 6.33429 7.52006 -11.1638 5.12109 13.0951 -3.57193 3.07555 -15.5113 9.00057 -12.5529 7.8477 15.4458 -6.86386 -16.1231 -5.58688 4.62844 -7.58923 -16.1892 -8.16244 -2.36246 -2.48816
internal_weight=95.4754 71.2235 67.0161 24.2519 46.8544 20.1616 8.83099 30.6785 15.4209 16.1759 4.2074 6.23755 13.9241 6.30139 14.5255 0.895402 2.5296 5.40533 14.4468 0.497783 0.397619 0.896057
internal_count=307 222 216 85 199 17 21 129 64 70 6 6 11 17 49 15 4 13 47 12 3 4
is_linear=0
shrinkage=0.0338522


Tree=28
num_leaves=23
num_cat=0
split_feature=25 33 53 26 25 22 51 5 8 2 47 48 5 42 9 1 11 41 25 29 1 5
split_gain=4.89892e+06 684195 643309 210061 159684 157481 157311 151801 58277 42229.3 41863.5 39829.3 36383.7 18296.1 16390.4 13135.9 11809.5 9003.48 6592.82 1756.01 62.6873 56.6763
threshold=82.000000000000014 78.700195312500014 0.15002441406250003 214.00000000000003 596.50000000000011 -70.499999999999986 16.916666666666671 -4.970697069197656 3.0837963061002927 -219309.49999999997 14.049926757812502 -12.250122070312498 -6.9391501882330324 -1.5999908447265623 106600.00000000001 1.0000000180025095e-35 0.10945000000000005 -1.0000000180025095e-35 -258.99999999999994 8.1833496093750018 -6.2499999999999956 -0.78337605204191985
decision_type=8 2 8 10 10 10 10 10 10 10 10 8 10 2 2 2 10 10 8 2 2 10
left_child=1 5 3 20 8 -1 -3 10 12 16 -5 -9 -4 19 -11 21 -6 -10 -15 -8 -2 -7
right_child=2 6 4 7 9 15 13 11 17 14 -12 -13 -14 18 -16 -17 -18 -19 -20 -21 -22 -23
leaf_value=-16.198868144764539 16.198865485439054 4.2168937148060346 6.2737997585877627 10.897569505425585 10.336114610773935 -1.8286228739589121 -6.2981892419015333 8.8724667065926628 -6.1587839292385755 5.3983798285817883 15.984909706047405 5.5157259715775853 1.4110166982051398 -6.1586231076452043 -2.4437397100675091 9.906525870833601 6.1919055426104022 -16.12388483940482 -2.9039251060894351 -8.0110316834543074 15.926447475705912 -1.0011391171474469
leaf_weight=13.883828701102173 4.4149770736694336 2.1941962980199587 1.9757930788910076 10.713065089657904 3.1486068686936051 0.16182026371825486 0.87433966435492028 6.8815503492951393 0.58868422824889421 7.2859750915085879 2.2415068820118895 9.8475666497834045 16.390053606475707 1.1610151212662458 0.31877786619588722 0.17086029052734375 1.0510693127289412 0.12617402069736172 1.8492860998958349 3.1847922648303211 1.2533799894154061 0.22963810525834816
leaf_count=43 2 3 14 15 16 3 11 9 9 52 3 21 58 2 6 1 5 3 9 6 2 2
internal_value=2.32219 -10.8826 7.04887 10.1671 3.47961 -15.4876 -3.70136 9.02683 1.56506 6.57431 11.7778 6.89653 1.93415 -6.15901 5.06965 2.07496 9.29893 -7.91767 -4.15921 -7.64209 16.1386 -1.34325
internal_weight=89.947 23.7098 66.2372 35.352 30.8851 14.4461 9.26363 29.6837 19.0807 11.8044 12.9546 16.7291 18.3658 7.06943 7.60475 0.562319 4.19968 0.714858 3.0103 4.05913 5.66836 0.391458
internal_count=295 80 215 52 163 49 31 48 84 79 18 30 72 28 58 6 21 12 11 17 4 5
is_linear=0
shrinkage=0.0338522


Tree=29
num_leaves=23
num_cat=0
split_feature=25 33 53 26 22 25 51 26 13 58 2 47 18 42 9 1 15 1 25 32 1 12
split_gain=4.77231e+06 699105 618315 227475 156272 149594 146852 132107 53543 47416.9 39762.3 38495.9 37098.1 17078 15302.9 12261.6 11239.7 7056.47 6158.15 1496.13 72.8266 52.9026
threshold=82.000000000000014 78.700195312500014 0.15002441406250003 214.00000000000003 -70.499999999999986 596.50000000000011 16.916666666666671 894.00000000000011 -227.49999999999997 1.3999786376953127 -219309.49999999997 14.500000000000002 -0.382097763530379 -1.5999908447265623 106600.00000000001 1.0000000180025095e-35 -7.4999999999999991 0.34999999999999792 -258.99999999999994 60.649902343750007 -6.2499999999999956 1.0000000180025095e-35
decision_type=8 2 8 10 10 10 10 10 8 8 10 10 10 2 2 2 8 2 8 2 2 8
left_child=1 4 3 20 -1 8 -3 12 17 -10 16 -9 -5 19 -12 21 -7 -4 -15 -8 -2 -6
right_child=2 6 5 7 15 10 13 11 9 -11 14 -13 -14 18 -16 -17 -18 -19 -20 -21 -22 -23
leaf_value=-16.198868144764539 16.198865485439054 4.0741426248038044 -6.9499590468244667 5.4361595554704216 -0.96724836501266465 5.94596060908622 -6.1052708660698709 10.612412660131083 4.5112043326094469 0.72774697404363331 5.2164912547391857 15.586953605271768 8.5011797878524344 -5.9511974609713922 -2.3610138375553009 9.5711687002421719 10.006099234599867 -16.198714463042162 -2.8056208889349481 -7.7141934953665245 15.905414407297036 -1.7667201463612896
leaf_weight=13.883828701102173 4.4149770736694336 2.1941962980199587 0.40672764182090759 9.2948857471346873 0.22963810525834816 1.0378478467464445 0.83363913977518667 9.3676984147168678 5.3239829457597825 13.226825841004034 7.2859750915085879 2.2017329335212699 8.819371875375511 1.1610151212662458 0.31877786619588722 0.17086029052734375 3.1618283346761018 0.12316850572824478 1.8492860998958349 3.2254927894100547 1.2533799894154061 0.16182026371825486
leaf_count=43 2 3 3 16 2 3 9 16 30 50 52 2 14 2 6 1 18 1 9 8 2 3
internal_value=2.19761 -10.8354 6.86282 9.91991 -15.4903 3.36358 -3.57636 8.73327 1.5105 1.81358 6.3589 11.5591 6.92844 -5.95091 4.89885 2.00471 9.00274 -9.09977 -4.01882 -7.38377 16.134 -1.29778
internal_weight=89.947 23.7098 66.2372 35.352 14.4461 30.8851 9.26363 29.6837 19.0807 18.5508 11.8044 11.5694 18.1143 7.06943 7.60475 0.562319 4.19968 0.529896 3.0103 4.05913 5.66836 0.391458
internal_count=295 80 215 52 49 163 31 48 84 80 79 18 30 28 58 6 21 4 11 17 4 5
is_linear=0
shrinkage=0.0338522


Tree=30
num_leaves=22
num_cat=0
split_feature=25 33 25 35 51 13 25 22 0 9 26 8 58 39 47 14 1 54 36 8 3
split_gain=4.64884e+06 720631 491304 350123 138725 138660 126031 119549 65360 54396.3 52239.6 39025.9 23645.6 22504.8 17209.8 15377.6 9224.7 9030.07 3985.87 296.705 12.0377
threshold=58.000000000000007 78.700195312500014 706.50000000000011 549.00000000000011 16.916666666666671 202.50000000000003 403.00000000000006 -40.999999999999993 6.116874340653804 27100.000000000004 875.50000000000011 4.1303928133325885 -3.3500366210937496 1.8833363850911462 0.75000000000000011 17.500000000000004 1.0000000180025095e-35 24.200012207031254 -4.7499999999999991 -1.0000000180025095e-35 1.0811168987768238
decision_type=8 2 10 2 10 10 10 10 10 2 10 10 10 10 8 8 2 10 10 10 10
left_child=1 7 3 6 -3 10 11 -1 13 -8 14 -2 -10 -7 -4 19 20 -12 -17 -6 -9
right_child=2 4 5 -5 15 8 9 16 12 -11 17 -13 -14 -15 -16 18 -18 -19 -20 -21 -22
leaf_value=-16.198868144764539 0.83352963886990838 3.9362239282163185 7.4866839735803845 16.130297367076167 -2.4973629581340271 9.0998475280836857 5.3810309916333683 -0.94574957193521914 11.70898655985564 -0.88868786662853283 9.2047857225444556 -11.677603965314447 15.701410754897534 15.845266743399359 4.6599391720234875 -5.4786217877655599 9.2471636079136843 12.055936444694682 -7.4229175746020815 -3.4409592770275124 -1.7069128005933081
leaf_weight=13.883828701102173 13.977817930863235 2.1941962980199587 4.9052141061984029 2.4938063398003569 0.89477400481700897 6.0040756184607726 17.043102860799994 0.028059428557756116 2.5791656970977783 1.7484761794330541 5.4005452108103773 0.29167696414515454 4.9875399582087994 0.62589639797806729 4.967967998818497 1.882899524644017 0.17086029052734375 1.6656682966277001 3.3729840940795839 0.66658075153827645 0.16182026371825486
leaf_count=43 55 3 20 3 2 10 45 1 3 21 16 6 4 3 28 9 1 4 11 4 3
internal_value=2.07331 -10.9593 6.61795 3.89894 -3.46721 9.72283 2.97632 -15.699 12.1905 4.79766 7.65472 0.577793 14.3406 9.73665 6.06433 -5.85008 3.54046 9.87687 -6.72638 -2.90022 -1.59453
internal_weight=89.947 23.256 66.691 35.5549 9.01143 31.1361 33.0611 14.2446 14.1967 18.7916 16.9394 14.2695 7.56671 6.62997 9.87318 6.81724 0.36074 7.06621 5.25588 1.56135 0.18988
internal_count=295 77 218 130 29 88 127 48 20 66 68 61 7 13 48 26 5 20 20 6 4
is_linear=0
shrinkage=0.0338522


Tree=31
num_leaves=24
num_cat=0
split_feature=25 53 53 26 23 25 3 22 8 29 58 2 3 52 25 8 41 25 26 10 4 15 1
split_gain=4.52355e+06 753467 581033 247389 145433 139006 118577 81095.4 50495.9 48787.4 43451.2 36423.7 17206.3 15270.3 12499.7 12125.2 9880.26 4935.13 4057.33 864.311 730.255 176.746 135.116
threshold=58.000000000000007 3.7833251953125004 0.15002441406250003 214.00000000000003 740.47071413770641 596.50000000000011 -1.0188458576308623 -871.49999999999989 3.0837963061002927 -3.1666666666666661 1.3999786376953127 -219309.49999999997 1.0203582470988557 0.65002441406250011 1109.5000000000002 3.8931313344093099 -1.0000000180025095e-35 -1023.4999999999999 458.50000000000006 -0.56000000000000216 0.20547404632374092 1.0000000180025095e-35 27.050000000000008
decision_type=8 10 8 10 10 10 10 10 10 2 8 10 10 10 10 10 10 10 10 2 10 8 2
left_child=1 4 3 20 12 8 13 -3 10 -8 -4 14 17 -5 -7 -13 -10 -1 22 -20 -2 -14 -9
right_child=2 7 5 6 -6 11 9 18 16 -11 -12 15 21 -15 -16 -17 -18 -19 19 -21 -22 -23 -24
leaf_value=-16.198557421653717 16.198863971853964 -16.198868139715497 4.239598328310703 10.812676498322263 4.1770059653218752 8.0526847868221747 9.7370464976532354 -8.1383013841732659 -5.6740587230306954 6.0260787365263528 0.62817641726873485 4.8427115522165556 -2.9161210587887854 14.108521353297206 16.162774226230933 -2.1266147631603833 -16.11308325962699 -6.5282835539864283 1.170512935534064 -3.374840581052764 15.417400915404766 -2.1451703685319976 -6.8238945912018263
leaf_weight=0.061258569359778359 3.3434684276580802 13.835014043957925 5.3239829457597834 5.1225470602512386 2.3619410516694188 3.9692460850346833 5.347103112377229 0.22808318957686324 0.58868422824889421 16.863936194684356 13.495637191575957 7.3070239614462462 0.55134028196334817 2.3501026034355164 0.23043009638786305 0.29772899625822891 0.12617402069736172 4.7595427939668324 0.055249243974685669 0.36214470502454787 2.3248886354267597 0.89334510522894561 0.1480843722820282
leaf_count=1 2 45 30 6 3 19 8 2 9 30 45 53 1 4 2 5 3 10 1 9 2 4 1
internal_value=1.93998 -10.9158 6.42296 9.39797 -2.98146 3.06699 8.16049 -15.5952 1.31439 6.91946 1.64983 5.96726 -5.68003 11.8492 8.49768 4.56986 -7.5166 -6.65117 -5.07113 -2.77314 15.8783 -2.4394 -7.62091
internal_weight=89.947 23.256 66.691 35.352 8.62743 31.3389 29.6837 14.6286 19.5345 22.211 18.8196 11.8044 6.26549 7.47265 4.19968 7.60475 0.714858 4.8208 0.793562 0.417394 5.66836 1.44469 0.376168
internal_count=295 77 218 52 19 166 48 58 87 38 75 79 16 10 21 58 12 11 13 10 4 5 3
is_linear=0
shrinkage=0.0338522


Tree=32
num_leaves=17
num_cat=0
split_feature=26 27 6 2 32 7 5 26 29 54 10 14 19 6 5 57
split_gain=3.94541e+06 1.04541e+06 937773 643038 280118 238050 135696 70018.2 55399.4 34439.5 19588.4 11551.6 10049.9 8377.83 8170.1 2000.57
threshold=-750.49999999999989 1900.9308236874908 251782.80000000008 10012583.805000046 -72.800292968749986 27933.250000000004 -6.9391501882330324 771.00000000000011 8.8833211263020839 25.449951171875004 0.38999999999999352 62.500000000000007 3.7548812208540454 -1.0000000180025095e-35 11.486907028309764 27.040635885711406
decision_type=8 10 2 8 2 8 10 10 2 10 2 8 2 2 10 8
left_child=3 2 5 13 7 6 -2 12 14 -7 -10 -9 -3 -1 -4 -6
right_child=1 4 8 -5 15 9 -8 11 10 -11 -12 -13 -14 -15 -16 -17
leaf_value=-7.9361624496009409 5.9660280652026021 3.8015865664933965 -5.1484457926336145 3.6754282951973956 16.198867290216093 7.4906193752371193 1.4551138102233672 10.229562621137335 -6.8546583271199966 11.550475260767476 -10.887152987699903 14.872385643342833 6.7787277565898885 -16.198868041852371 -2.3404270148193556 15.055776790074681
leaf_weight=0.14211228489875871 12.473306218860666 2.817719272803517 2.0988565310835821 2.182730197906495 7.6670446395873997 13.523259848705495 19.730343245901171 3.3645656108856201 3.4272080935770646 2.909685722552239 2.311584273702465 0.75126674585044373 2.4114506621845067 13.511506658280263 2.7344253659248352 2.275991916656495
leaf_count=1 35 7 15 1 4 76 86 4 8 5 6 5 5 46 3 1
internal_value=2.02797 5.13756 2.90781 -13.3854 11.9822 4.89409 3.20231 7.77417 -6.23005 8.20948 -8.47895 11.077 5.17451 -16.1129 -3.55982 15.9372
internal_weight=94.3331 78.4967 59.2087 15.8363 19.288 48.6366 32.2036 9.345 10.5721 16.4329 5.73879 4.11583 5.22917 13.6536 4.83328 9.94304
internal_count=308 260 234 48 26 202 121 21 32 81 14 9 12 47 18 5
is_linear=0
shrinkage=0.0338522


Tree=33
num_leaves=27
num_cat=0
split_feature=25 52 53 6 27 6 32 23 25 20 32 26 55 55 22 57 1 24 7 7 23 30 17 41 44 9
split_gain=4.27414e+06 843452 817859 383656 264110 205552 153791 122450 71950.1 38305.1 38257.2 34712 19643.2 16567.1 11930.4 7239.62 6151.72 5742.28 5087.91 4182.85 3890.61 3613.01 1588.21 1213.57 660.508 101.032
threshold=109.50000000000001 -8.3498535156249982 3.7166748046875004 348172.32500000001 1900.9308236874908 -237766.94999999992 78.400390625000014 740.47071413770641 596.50000000000011 -0.0024087125884193479 -131.15014648437497 1136.5000000000002 -0.74618597304387657 -0.15643973923656992 -397.49999999999994 4.8917502099325239 -1.0000000180025095e-35 529.50000000000011 -66960.249999999985 -451854.20000000013 1421.1194859423724 -3.2499999999999996 -1.0000000180025095e-35 -13.808063030242918 6.9500122070312509 -26974.999999999996
decision_type=10 10 10 2 10 2 2 8 10 8 2 8 10 10 8 10 2 10 8 8 8 2 10 8 10 2
left_child=2 4 7 5 11 10 15 12 -7 -6 -3 13 18 -2 -8 22 24 -14 -1 -11 -13 -9 -4 -16 -5 -17
right_child=1 3 6 16 9 8 14 21 -10 19 -12 20 17 -15 23 25 -18 -19 -20 -21 -22 -23 -24 -25 -26 -27
leaf_value=-6.362817867743205 8.8369492772412421 11.010407136405291 -0.14204482442604477 -3.4925526688789503 9.540655592738176 1.455477447550511 -16.198868051786143 8.5252351377333291 4.7788464738588212 14.546105719225212 6.784651731535563 15.287722426161688 -2.2774507431566282 6.3667267901344848 -3.28029480172086 -7.0438830075499146 -10.22538441229378 -5.1167635622734036 -16.198557421653366 16.198867290216096 11.412791986021221 3.4441657502891498 -3.3431329570957287 -9.9311606950777875 -6.6478285088114442 -5.4135252886727905
leaf_weight=3.7428725946228951 6.0797114670276633 3.6989077375037596 0.46039514790754765 0.1512099448591474 1.25340735912323 18.230327039258558 13.575935539091004 0.17207234096713397 12.642344694584606 2.2759919166564941 7.3016755910357443 0.67688447237014648 2.7826822875067601 6.3727396917529431 0.078729334054514766 0.3875211700797081 2.133394517004489 1.1551280021667483 0.061258569359779691 7.6670446395873988 0.52910530567169201 2.3599780899239713 0.28919568506535032 0.052356431377119317 0.15299114584922791 0.049196574953384697
leaf_count=9 7 24 11 3 1 61 46 2 62 1 26 1 6 16 2 3 2 1 1 4 1 4 5 3 2 4
internal_value=1.92533 6.27196 -10.0202 3.47219 11.2633 4.23219 -15.0887 -2.6728 2.8164 15.1175 8.20555 8.10387 -4.78633 7.57278 -16.1007 -3.39562 -9.58321 -3.11035 -6.52121 15.8205 13.5877 3.78947 -1.37706 -5.93683 -5.07949 -6.86027
internal_weight=94.3331 69.1657 25.1673 44.3109 24.8549 41.8733 14.8933 10.274 30.8727 11.1964 11.0006 13.6584 7.74194 12.4525 13.707 1.18631 2.4376 3.93781 3.80413 9.94304 1.20599 2.53205 0.749591 0.131086 0.304201 0.436718
internal_count=308 211 97 180 31 173 74 23 123 6 50 25 17 23 51 23 7 7 10 5 2 6 16 5 5 7
is_linear=0
shrinkage=0.0338522


Tree=34
num_leaves=27
num_cat=0
split_feature=25 53 52 8 27 32 32 23 25 6 12 50 55 55 19 27 57 18 8 25 41 30 33 54 53 1
split_gain=4.17369e+06 827944 822761 375714 274612 188086 156585 114420 51610.5 44758.9 40913.1 29937.4 18929.9 18434.2 18377.1 10944.6 7363.36 7046.96 5368.34 5313.21 3603.43 3372.53 1516.15 1406.68 1194.85 139.756
threshold=109.50000000000001 3.7166748046875004 -8.3498535156249982 3.8931313344093099 1900.9308236874908 -80.849365234374986 82.800048828125014 740.47071413770641 403.00000000000006 -257568.87499999997 -1.0000000180025095e-35 18.316650390625004 -0.15643973923656992 -0.74618597304387657 9.815914229638425 178.44138652842656 4.8917502099325239 1.1523073620066084 -0.5674980788478815 -1023.4999999999999 -69.560478210449205 -3.2499999999999996 115.20043945312501 1.0000000180025095e-35 3.7833251953125004 -5.2999999999999963
decision_type=10 10 10 10 10 2 2 8 10 2 10 10 10 10 2 10 10 10 8 10 8 2 2 8 10 2
left_child=1 7 4 5 11 9 16 13 -7 -4 -6 12 -2 19 23 -8 22 -12 -15 -1 -16 -9 -3 -5 -17 -18
right_child=2 6 3 14 10 8 15 21 -10 -11 17 -13 -14 18 20 24 25 -19 -20 -21 -22 -23 -24 -25 -26 -27
leaf_value=-16.198557421653366 8.737044433732871 -0.2072012693861848 9.2216797464228009 -6.4674830411960853 9.2176840622710401 0.74355104975351871 -3.502164958175821 8.2366376439814051 3.758853378750842 5.4492102006838152 16.198867290216096 14.770199768037784 6.1511993997539189 -4.9023831267985418 -9.3367480687139377 -9.2726230031453536 -7.3693193901660585 14.053688523089084 -2.1816275396210227 -6.1474225961584983 -15.287474777738414 3.327573242429553 -3.3940819018398143 -2.5626562445723748 -16.196687122541711 -6.1870919705276295
leaf_weight=0.061258569359779691 6.6088167726993552 0.48539598344359436 7.1320959936128929 0.13105772435665042 1.2534073591232306 11.020903862314301 0.078461433062328889 0.17207234096713397 15.875478482688775 7.286184848751871 7.6670446395873988 0.67688447237014848 6.3727396917529413 1.1917585618793962 2.1948693010490388 0.028633279725908234 0.22808318957686424 2.2759919166564941 2.7460517277941121 3.7428725946228951 0.12316850572824511 2.3599780899239713 0.26419484952930361 0.54709195159375701 13.577544604311695 0.23101654287893325
leaf_count=1 8 11 32 1 1 41 2 2 67 28 4 1 16 2 5 1 2 1 5 9 1 4 5 5 47 6
internal_value=1.82618 -9.97815 6.12143 3.35621 11.0512 4.19566 -15.0778 -2.58559 2.52332 7.31529 14.9813 7.82954 7.46764 -4.62864 -8.21896 -16.1094 -3.39828 15.7078 -3.00506 -6.30928 -9.65295 3.66119 -1.33045 -3.31732 -16.1821 -6.77447
internal_weight=94.3331 25.1673 69.1657 44.3109 24.8549 41.3147 14.8933 10.274 26.8964 14.4183 11.1964 13.6584 12.9816 7.74194 2.99619 13.6846 1.20869 9.94304 3.93781 3.80413 2.31804 2.53205 0.749591 0.67815 13.6062 0.4591
internal_count=308 97 211 180 31 168 74 23 108 60 6 25 24 17 12 50 24 5 7 10 6 6 16 6 48 8
is_linear=0
shrinkage=0.0338522


Tree=35
num_leaves=26
num_cat=0
split_feature=25 53 52 8 27 25 32 23 11 10 32 50 55 55 19 22 16 57 22 8 16 30 33 4 1
split_gain=4.07765e+06 837879 803077 350786 284953 175924 159493 107454 55762.8 43514.3 32305 27944.8 17670 17605.6 17153.9 11627.9 10519.5 6896.42 5511.47 5010.29 3363.58 3148.05 1415.24 1313.05 123.939
threshold=109.50000000000001 3.7833251953125004 -8.3498535156249982 3.8931313344093099 1900.9308236874908 611.50000000000011 82.800048828125014 740.47071413770641 -0.028800000000000044 -0.22499999999999429 -129.39990234374997 18.316650390625004 -0.15643973923656992 -0.74618597304387657 9.815914229638425 -397.49999999999994 42.980338829860422 4.8917502099325239 -460.49999999999994 -0.5674980788478815 -8.6152373498736257 -3.2499999999999996 115.20043945312501 -1.0000000180025095e-35 -0.55000000000000415
decision_type=10 10 10 8 10 10 2 8 10 2 2 10 10 10 2 8 10 10 10 8 10 2 2 10 2
left_child=1 7 4 5 11 10 17 13 -7 -6 -4 12 -2 18 23 -8 -11 22 -1 -15 -16 -9 -3 -5 -19
right_child=2 6 3 14 9 8 15 21 -10 16 -12 -13 -14 19 20 -17 -18 24 -20 -21 -22 -23 -24 -25 -26
leaf_value=-16.198557421653366 8.4412766071515364 -0.2001870493687572 13.345176226810375 -2.4759047661609381 8.9056450171429962 8.5032106248040904 -16.198868051786143 7.957809589107919 4.8746073709578228 16.198867290216089 1.721352008722874 14.270195261964584 5.9429678302899305 -4.7364270236710535 -14.769960857337475 -3.2602767757306843 13.577940570743678 -7.1198521126616576 -5.9622471857755519 -2.1082434648709891 -9.0206796686862845 3.2149278112598827 -3.2791848795126812 -6.2485450371436269 -6.0041549493302062
leaf_weight=0.061258569359779691 6.6088167726993552 0.48539598344359436 0.2776801753789212 0.54709195159375701 1.2534073591232289 7.9713242681464207 13.575935539091004 0.17207234096713397 12.407859742874278 7.6670446395874006 20.657799000968225 0.67688447237014848 6.3727396917529413 1.1917585618793962 0.12316850572824511 0.080070498283020153 2.2759919166564941 0.22808318957686424 3.7715058743488044 2.7479540975764407 2.1948693010490388 2.3599780899239713 0.26419484952930361 0.13105772435665042 0.22911417309660465
leaf_count=1 8 11 6 5 1 35 46 2 58 4 69 1 16 2 1 3 1 2 10 6 5 4 5 1 5
internal_value=1.73027 -9.93747 5.9758 3.24387 10.8463 4.05499 -15.0805 -2.51933 6.29394 14.8496 1.87553 7.56449 7.21484 -4.4924 -7.94074 -16.123 15.5989 -3.28403 -6.12586 -2.90327 -9.32617 3.53725 -1.28541 -3.20502 -6.56079
internal_weight=94.3331 25.1673 69.1657 44.3109 24.8549 41.3147 14.8628 10.3045 20.3792 11.1964 20.9355 13.6584 12.9816 7.77248 2.99619 13.656 9.94304 1.20679 3.83276 3.93971 2.31804 2.53205 0.749591 0.67815 0.457197
internal_count=308 97 211 180 31 168 72 25 93 6 75 25 24 19 12 49 5 23 11 8 6 6 16 6 7
is_linear=0
shrinkage=0.0338522


Tree=36
num_leaves=22
num_cat=0
split_feature=6 38 13 6 25 26 13 50 12 31 42 40 3 26 47 16 40 18 6 21 14
split_gain=3.40534e+06 1.05867e+06 538719 315709 314546 106078 84789.9 70936.7 53503.1 47232.8 35753.6 26000.7 21956 20347.9 19528.1 12760.7 11796.4 8793.54 5828.6 5842.5 2368.95
threshold=11274.833333333374 6.2500000000000009 400.00000000000006 177578.05000000008 745.00000000000011 288.50000000000006 157.50000000000003 7.2666829427083348 1.1538817008878548 60.100341796875007 -1.5999908447265623 -4.5499877929687491 -0.73101368118617327 243.00000000000003 15.849975585937502 6.5495333016927786 1.6500244140625002 0.42522606797267931 1152829.0000000002 1.0000000180025095e-35 312.50000000000006
decision_type=2 10 10 2 8 8 8 10 10 2 2 8 10 10 10 10 8 10 2 2 8
left_child=2 3 4 11 7 -5 17 12 -8 13 -7 -2 -1 -3 -9 -4 -13 -6 -11 -20 -15
right_child=1 9 15 5 6 10 8 14 -10 18 -12 16 -14 20 -16 -17 -18 -19 19 -21 -22
leaf_value=6.1933323843068058 6.2072821484230793 -16.198784494096962 16.195758821005374 -16.198852313214925 3.4892128242922085 -6.8699761684498881 8.31631395702364 1.352891773542434 15.680912916094693 -16.198867788988125 -2.7185375586225553 2.780150278562437 3.1559552533560264 -5.607472981937665 -1.7658367736233176 13.099061226572292 -0.50738417802187186 5.9574896756725577 -6.0370182308258915 -16.198720232773518 -0.87539902897269462
leaf_weight=4.3093513282947233 1.9101757667958734 0.22413553856313129 4.5604310557246199 1.1057460427982686 4.335746955126524 5.694035672699103 18.39541478489992 10.502379164681768 1.2044832706451405 11.002633140305985 4.0814648665254936 3.5463380401488456 7.4288420332595733 0.39834237843751907 2.946231421083211 2.2911347830668092 1.9322858846280722 2.6743334531784058 0.13105772435665208 0.12834450602531433 0.17428918578661978
leaf_count=16 2 5 4 12 14 15 57 37 1 30 8 6 39 5 7 2 20 6 1 1 3
internal_value=1.47718 -7.73214 6.2396 -2.59383 5.05959 -6.2608 7.62609 2.34807 8.7689 -15.5171 -5.13667 2.8064 4.27105 -7.5518 0.66966 15.1602 1.62065 4.43086 -16.0806 -11.0648 -4.16723
