tree
version=v4
num_class=1
num_tree_per_iteration=1
label_index=0
max_feature_idx=79
objective=regression
feature_names=ADP_actual_diff_lag_1m CB_Consumer_Confidence_chg_3m_lag_3m CCNSA_max_spike_diff_zscore_3m_lag_1m CCNSA_max_spike_pct_chg_rolling_mean_3m CCNSA_max_spike_pct_chg_rolling_mean_3m_lag_6m CCNSA_max_spike_rolling_std_6m_lag_1m CCNSA_monthly_avg_diff CCSA_max_spike_pct_chg_rolling_mean_3m_lag_1m Financial_Stress_monthly_min_diff Financial_Stress_monthly_min_diff_zscore_3m_lag_6m ISM_NonManufacturing_Index_diff_zscore_3m_lag_6m JPY_USD_realized_vol_chg_3m_lag_1m NFP_Consensus_Mean NFP_Consensus_Mean_pct_chg_lag_3m NFP_Forecast_CONTINUUM_ECON_chg_6m NatGas_realized_vol_diff_zscore_3m_lag_12m SP500_max_5d_drop_chg_3m_lag_3m is_jan nfp_nsa_accel_lag6 nfp_nsa_accel_rolling_3m nfp_nsa_accel_vol_3m nfp_nsa_mom_abs_lag1 nfp_nsa_mom_lag6 nfp_nsa_mom_same_month_lag1y nfp_nsa_mom_vol_3m rev_master_abs_mean rev_master_mean total_government_federal_postal_nsa total_government_local_excluding_education_nsa_chg_3m_lag_12m total_government_local_excluding_education_nsa_chg_3m_lag_3m total_government_local_excluding_education_nsa_chg_3m_lag_6m total_government_local_excluding_education_nsa_diff_lag_1m total_government_state_education_nsa_chg_3m_lag_6m total_private_goods_manufacturing_durable_computer_electronic_nsa_chg_3m total_private_goods_manufacturing_durable_machinery_nsa_chg_3m_lag_3m total_private_goods_manufacturing_nondurable_apparel_nsa_chg_3m total_private_goods_mining_logging_logging_nsa_chg_3m_lag_3m total_private_goods_mining_logging_nsa_chg_6m total_private_services_education_health_health_social_health_care_hospitals_nsa total_private_services_education_health_health_social_health_care_hospitals_nsa_chg_3m total_private_services_education_health_health_social_health_care_hospitals_nsa_chg_6m total_private_services_education_health_health_social_health_care_hospitals_nsa_diff total_private_services_education_health_health_social_health_care_hospitals_nsa_rolling_mean_3m total_private_services_education_health_health_social_health_care_hospitals_nsa_rolling_mean_3m_lag_6m total_private_services_education_health_health_social_health_care_nsa total_private_services_education_health_health_social_health_care_nsa_rolling_mean_3m total_private_services_education_health_health_social_social_assistance_nsa_diff_lag_12m total_private_services_education_health_health_social_social_assistance_nsa_diff_lag_6m total_private_services_financial_finance_insurance_credit_intermediation_nsa_chg_3m_lag_1m total_private_services_financial_finance_insurance_nsa_rolling_mean_3m_lag_3m total_private_services_financial_finance_insurance_securities_nsa_lag_12m total_private_services_financial_finance_insurance_securities_nsa_lag_3m total_private_services_financial_real_estate_nsa_chg_12m_lag_1m total_private_services_information_publishing_nsa_chg_3m_lag_1m total_private_services_leisure_hospitality_accommodation_food_nsa_rolling_std_6m total_private_services_leisure_hospitality_arts_amusements_nsa_chg_3m_lag_3m total_private_services_leisure_hospitality_arts_amusements_nsa_diff_lag_3m total_private_services_leisure_hospitality_arts_museums_nsa_rolling_std_6m_lag_3m total_private_services_leisure_hospitality_arts_performing_nsa_rolling_std_6m total_private_services_leisure_hospitality_nsa_chg_6m total_private_services_nsa_chg_12m total_private_services_other_personal_nsa_rolling_std_6m total_private_services_professional_business_admin_waste_rolling_std_6m total_private_services_professional_business_professional_technical_accounting_nsa_chg_12m total_private_services_professional_business_professional_technical_accounting_nsa_chg_6m_lag_1m total_private_services_professional_business_professional_technical_accounting_nsa_diff_lag_6m total_private_services_professional_business_professional_technical_accounting_nsa_diff_zscore_3m_lag_3m total_private_services_professional_business_professional_technical_accounting_nsa_rolling_mean_3m_lag_1m total_private_services_professional_business_professional_technical_accounting_rolling_std_6m total_private_services_professional_business_professional_technical_computer_systems_nsa_lag_3m total_private_services_trade_transportation_utilities_retail_building_materials_nsa_diff_zscore_3m_lag_6m total_private_services_trade_transportation_utilities_retail_furniture_nsa_diff_zscore_3m_lag_6m total_private_services_trade_transportation_utilities_retail_health_personal_nsa_rolling_mean_3m_lag_1m total_private_services_trade_transportation_utilities_transportation_warehousing_nsa_diff_lag_3m total_private_services_trade_transportation_utilities_transportation_warehousing_nsa_lag_3m total_private_services_trade_transportation_utilities_transportation_warehousing_scenic_nsa_rolling_mean_3m_lag_12m total_private_services_trade_transportation_utilities_transportation_warehousing_transit_nsa_chg_3m_lag_3m total_private_services_trade_transportation_utilities_transportation_warehousing_truck_nsa_rolling_std_6m total_private_services_trade_transportation_utilities_wholesale_nsa_lag_6m total_private_services_trade_transportation_utilities_wholesale_nsa_rolling_mean_3m
feature_infos=[-2202:17476] [-46.699999999999989:29.499999999999996] [-1.1545467091663024:1.1546829959959573] [-21.382585893049377:179.29145808304963] [-21.382585893049377:23.989290807262943] [85365.4799211309:10352902.161069572] [-2692366.8000000007:1241733.4500000002] [-24.666499381901502:244.52423490521781] [-1.7633000000000001:5.7972999999999999] [-1.154343833304702:1.1547003845749801] [-1.1529024051236594:1.1547005383792512] [-0.13902819649964682:0.14035542110650367] [-653:2905] [-857.14285714285711:5800] [-565:3615] [-1.1545510343861416:1.1546963454209802] [-16.676118117950182:12.837302609449928] [0:1] [-3000:4309] [-1380.3333333333333:1784.6666666666667] [42.217689815257337:4948.0487915372605] [1:5103] [-3570:1224] [-3570:1224] [36.473734842138327:4041.9204774751979] [0:49560.932062111257] [-13876.651081615621:16311.579798069812] [-56.20001220703125:48.5] [-438.89990234375:205.69970703125] [-438.89990234375:206] [-438.89990234375:206] [-341.7998046875:250.1005859375] [-441.7001953125:635.30029296875] [-34.7999267578125:29.300048828125] [-83.79998779296875:23.70001220703125] [-33:36.900001525878906] [-9.9000053405761719:11.200000762939453] [-44:46] [-37.69970703125:44] [-69.39990234375:158.2001953125] [-64.7001953125:67.19970703125] [-73:93.00048828125] [-53.799967447916664:29.433268229166668] [-12.7666015625:27.366536458333332] [-91.400390625:394.099609375] [-412.13346354166669:277.533203125] [-529.89990234375:1002.7998046875] [-529.89990234375:1002.7998046875] [-50.900146484375:42.999755859375] [-35.933268229166664:36.433430989583336] [-51.4000244140625:52.9000244140625] [-50.20001220703125:47.4000244140625] [-223.800048828125:39.5] [-38.00006103515625:40] [43.676152779895006:2922.7275228004783] [-862.10003662109375:244.5] [-873.00006103515625:1005.2000732421875] [1.123683655521436:16.333359953775187] [3.3605165938527692:78.522788256881014] [-802.08000000000004:2438] [-683:4004] [2.4943392952039738:376.23340491806164] [3.7857994475297065:691.43701738891662] [-48.0999755859375:64.4000244140625] [-192.50006103515625:213.5999755859375] [-161.0999755859375:155.9000244140625] [-1.1546679821354811:1.1546894157366943] [-72.933349609375:76.033345540364579] [1.2448688962619785:38.640952504441579] [-60.300048828125:43.4000244140625] [-1.1546909540266894:1.1546170084915512] [-1.1547005383373281:1.1521373146739708] [-43.766682942708336:16] [-558.49951171875:585.3994140625] [-575.19970703125:237.800048828125] [-6.2000001271565752:6] [-192.5:127.19998168945312] [2.7191622059845684:40.40956979551283] [-98:85.89990234375] [-114:45.066731770833336]
tree_sizes=1657 1771 1774 1771 1575 1660 1869 1669 1748 1568 1759 1649 1655 1561 1749 1663 1562 1856 1760 1754 1758 1655 1552 1662 1562 1560 1561 1664 1665 1768 1651 1761

Tree=0
num_leaves=15
num_cat=0
split_feature=23 6 55 16 66 73 20 21 76 67 56 4 43 30
split_gain=1.76815e+08 3.08692e+07 1.78482e+07 1.62653e+07 1.44803e+07 4.68417e+06 4.62053e+06 1.89423e+06 1.1116e+06 913848 539855 403823 138677 51723.1
threshold=-1066.4999999999998 69173.199999999968 -170.14996337890622 -5.5804873304845932 -0.79234398860112454 2.8000488281250004 1056.5933601314493 336.50000000000006 -25.100006103515621 1.0000000000000002 102.00000000000001 1.30277438818561 8.7500000000000018 -100.45019531249999
decision_type=8 2 8 10 10 2 10 10 8 10 10 8 10 2
left_child=2 3 -1 -2 -3 -6 9 -8 -9 -5 11 12 13 -10
right_child=1 4 -4 6 5 -7 7 8 10 -11 -12 -13 -14 -15
leaf_value=-118.94072055208215 408.45054812070259 52.082583126086575 52.65959685233193 192.61200887461229 219.60450014962527 146.38545881887646 219.66053272418466 276.55445332108877 263.26461109252881 227.58985634379775 267.76401489532645 222.83550233104668 243.03755323077658 251.72678041074184
leaf_weight=16.196181356906891 6.1896918416023246 10.576778370887039 9.6861126273870486 16.62171578407288 18.786166172474623 16.334760054945946 14.141842246055601 25.549825798720121 6.320713877677913 13.565444227308033 14.34540158510208 6.7516302838921538 15.761273816227911 10.084349907934671
leaf_count=29 8 11 19 33 32 36 33 37 23 27 9 12 29 30
internal_value=189.234 225.309 -54.7215 250.272 154.659 185.55 242.322 253.36 259.407 208.33 251.182 245.069 249.736 256.172
internal_weight=200.912 175.03 25.8823 129.332 45.6977 35.1209 123.142 92.955 78.8132 30.1872 53.2634 38.918 32.1663 16.4051
internal_count=368 320 48 241 79 68 233 173 140 60 103 94 82 53
is_linear=0
shrinkage=1


Tree=1
num_leaves=16
num_cat=0
split_feature=23 6 44 55 56 23 21 32 66 4 51 72 38 1 34
split_gain=1.4322e+08 2.5004e+07 1.50674e+07 1.44571e+07 1.21878e+07 4.54794e+06 3.90024e+06 1.05121e+06 503190 341488 167119 166477 145264 124484 33947.6
threshold=-1066.4999999999998 69173.199999999968 67.049804687500014 -170.14996337890622 -31.999999999999996 706.50000000000011 672.50000000000011 -125.79998779296874 -0.96697299066303788 -5.9029416643094743 -0.95001220703124989 -0.39166768391927081 2.8500976562500004 6.3999999999999995 1.7500610351562502
decision_type=8 2 8 8 10 10 8 2 10 10 10 8 10 2 10
left_child=3 2 5 -1 6 7 -3 -2 11 -7 -11 -9 -10 14 -12
right_child=1 4 -4 -5 -6 9 -8 8 12 10 13 -13 -14 -15 -16
leaf_value=-277.35760651065328 3.0318400041394011 -33.421134793994781 178.23699177415907 -122.91730924310539 -119.10931725076613 77.834562042333516 34.376750069725738 13.636724852410234 50.914014313576359 50.660593289620607 56.012240167033468 31.898290222128324 35.582200834711095 73.10111822246742 63.892300004319708
leaf_weight=16.196181356906891 14.986833855509756 17.639133729040623 9.205030679702757 9.6861126273870486 11.708258926868437 15.208159711211918 16.350311942398548 11.042069856077431 12.253640376031404 12.472282908856867 10.953401938080789 9.1110805310308915 12.467188838869331 10.717475164681671 10.914725508540867
leaf_count=29 31 37 4 19 22 25 20 19 31 19 21 24 25 19 23
internal_value=-6.29958e-07 32.4672 54.9341 -219.56 -31.1178 45.4857 -0.807582 25.9625 33.6208 64.8777 60.5045 21.8926 43.1819 64.2723 59.9453
internal_weight=200.912 175.03 129.332 25.8823 45.6977 120.127 33.9894 59.8608 44.874 60.266 45.0579 20.1532 24.7208 32.5856 21.8681
internal_count=368 320 241 48 79 237 57 130 99 107 82 43 56 63 44
is_linear=0
shrinkage=0.1


Tree=2
num_leaves=16
num_cat=0
split_feature=23 6 16 55 66 21 23 18 54 66 22 42 26 13 12
split_gain=1.16008e+08 2.02533e+07 1.25042e+07 1.17147e+07 1.0282e+07 3.1382e+06 3.01911e+06 1.26324e+06 636520 562849 354735 323441 220960 113897 70498.5
threshold=-1066.4999999999998 69173.199999999968 -5.5804873304845932 -181.35003662109372 -0.79234398860112454 880.50000000000011 346.00000000000006 138.00000000000003 144.44899065903095 -0.38676544783692768 403.00000000000006 8.7000325520833339 -339.01399075731615 -1.2072410389735442 168.50000000000003
decision_type=8 2 10 8 10 10 10 10 10 10 10 10 2 10 8
left_child=3 2 -2 -1 -3 10 11 9 13 14 -6 -4 -11 -9 -8
right_child=1 4 6 -5 5 -7 7 8 -10 12 -12 -13 -14 -15 -16
leaf_value=-249.84905920153221 188.13047418760723 -114.44284816897061 25.103182663328667 -110.97065629606514 -45.485926710214414 31.408973143546479 20.821514688542099 40.263389323054696 70.75774729413483 58.080770074988038 -17.872960084965328 1.7341683544015678 37.972231013576156 54.124657989671576 32.092829580510596
leaf_weight=16.145615208894014 6.1896918416023246 10.576778370887039 9.9174960255622882 9.7366787753999251 7.6718380153179195 15.628101382404564 10.971361249685286 9.3483002409338969 28.676374539732933 12.191291153430939 11.820986829698084 14.703248847275971 9.9037110880017281 16.201986595988274 11.228427786380054
leaf_count=28 8 11 23 20 17 16 18 36 28 29 35 29 23 22 25
internal_value=1.45296e-07 29.2205 49.4407 -197.604 -28.006 -1.97529 42.4695 50.297 60.5311 37.7683 -28.7407 11.1475 49.0675 49.0531 26.5224
internal_weight=200.912 175.03 129.332 25.8823 45.6977 35.1209 123.142 98.5215 54.2267 44.2948 19.4928 24.6207 22.095 25.5503 22.1998
internal_count=368 320 241 48 79 68 233 181 86 95 52 52 52 58 43
is_linear=0
shrinkage=0.1


Tree=3
num_leaves=16
num_cat=0
split_feature=23 61 2 55 69 23 40 21 50 4 66 14 76 39 15
split_gain=9.39668e+07 1.70465e+07 1.56932e+07 9.49365e+06 8.58682e+06 3.88343e+06 1.25628e+06 468507 324487 260290 245006 173520 122038 72316.3 18956.9
threshold=-1066.4999999999998 143.32898146608682 1.0122166538610868 -170.14996337890622 -4.2000732421874991 725.50000000000011 12.500366210937502 668.50000000000011 3.0499877929687504 -5.9029416643094743 0.077093216637801776 -1.0000000180025095e-35 2.9000091552734379 -15.149902343749998 0.13248118941266468
decision_type=8 10 10 8 10 10 10 10 8 10 8 8 8 10 10
left_child=3 2 5 -1 -4 6 8 -6 10 -7 12 -11 -2 -13 -15
right_child=1 -3 4 -5 7 9 -8 -9 -10 11 -12 13 -14 14 -16
leaf_value=-224.68028289572715 20.507987748491729 144.31040835416644 -135.44661215199849 -99.528513878675668 -25.737365739643327 63.373951061009393 -4.950631195465296 3.7815359716316936 12.210886263826122 42.120292032270044 43.387906582221206 62.467827797431283 33.699192515793889 46.270788937249826 53.683206116482907
leaf_weight=16.196181356906891 19.14691315218807 11.440028190612791 7.9477461874485043 9.6861126273870486 14.889942437410356 15.110505785793064 18.440904341638088 8.4155099578201753 14.115989122539757 22.898786395788193 10.014830671250815 7.603823482990264 11.067137263715265 6.2789978832006472 7.6584790945053101
leaf_count=29 36 5 9 19 29 24 24 36 37 29 30 5 16 20 20
internal_value=8.26022e-07 26.2985 18.0457 -177.844 -45.6881 33.0974 17.6026 -15.0782 25.2555 52.036 29.8328 48.1809 25.3398 54.6235 50.3438
internal_weight=200.912 175.03 163.59 25.8823 31.2532 132.336 72.7858 23.3055 54.3449 59.5506 40.2289 44.4401 30.2141 21.5413 13.9375
internal_count=368 320 315 48 74 241 143 65 119 98 82 74 52 45 40
is_linear=0
shrinkage=0.1


Tree=4
num_leaves=14
num_cat=0
split_feature=23 38 2 55 69 23 7 23 50 6 51 12 66
split_gain=7.61132e+07 1.4461e+07 1.30297e+07 7.70282e+06 6.82452e+06 2.61983e+06 1.18124e+06 1.02053e+06 464836 318496 242600 145915 125550
threshold=-1066.4999999999998 -8.8499755859374982 1.0122166538610868 -252.74999999999997 -4.2000732421874991 745.00000000000011 -3.2990482894981512 288.50000000000006 3.0499877929687504 55249.800000000054 -1.3500366210937498 176.50000000000003 0.028965151177633108
decision_type=8 8 10 8 10 10 10 10 8 2 10 10 8
left_child=3 -2 5 -1 -4 6 -3 -8 12 -6 -7 -12 -9
right_child=1 2 4 -5 9 10 7 8 -10 -11 11 -13 -14
leaf_value=-203.01471388481741 138.79581107573119 54.56692244694981 -121.90194667464546 -90.775794253985339 3.6138144562731278 34.102996852460727 -8.5543849608555504 23.394805874147224 8.1469613046588556 -22.094135059351284 42.70837523821816 54.868216308072931 36.159478063798957
leaf_weight=15.976817421615122 10.270222838968037 8.1379030384123308 7.9477461874485043 9.9054765626788157 6.8834521844983128 11.538280822336672 15.284231353551148 25.651131439954057 19.584119081497185 16.069443684071302 15.505462255328892 27.143668815493584 11.013932265341273
leaf_count=25 14 13 9 23 29 15 34 39 33 34 38 35 27
internal_value=-3.40027e-07 23.6686 16.4922 -160.059 -42.0383 30.0037 18.4662 14.3592 20.5854 -14.3845 46.9671 50.4474 27.2292
internal_weight=200.912 175.03 164.759 25.8823 30.9006 133.859 79.6713 71.5334 56.2492 22.9529 54.1874 42.6491 36.6651
internal_count=368 320 306 48 72 234 146 133 99 63 88 73 66
is_linear=0
shrinkage=0.1


Tree=5
num_leaves=15
num_cat=0
split_feature=23 61 6 55 5 23 23 40 65 6 23 46 7 23
split_gain=6.16517e+07 1.2504e+07 1.02945e+07 6.25238e+06 5.87642e+06 2.05028e+06 698973 476264 208324 206774 174081 143033 124711 69290.9
threshold=-1066.4999999999998 143.32898146608682 122807.09999999999 -170.14996337890622 289177.64919425338 706.50000000000011 323.00000000000006 12.149902343750002 14.400054931640627 -237766.94999999992 421.50000000000006 11.050048828125002 0.36678358325868227 965.50000000000011
decision_type=8 10 2 8 10 10 8 8 8 2 10 10 8 10
left_child=3 2 5 -1 6 7 -4 9 11 -2 -11 13 -12 -7
right_child=1 -3 4 -5 -6 8 -8 -9 -10 10 12 -13 -14 -15
leaf_value=-182.06280916246502 32.641352832925278 122.37415582316356 -16.572505171386226 -80.498088187095647 -84.719499973187439 43.826011566420597 16.384305980297455 -0.037499542829213306 28.425331122459149 8.4729564866616514 27.788750181104234 36.845522012712088 12.595068471661293 52.983117725537014
leaf_weight=16.196181356906891 11.066885631531475 11.440028190612791 15.622766189277172 9.6861126273870486 13.156547147780655 17.715718135237694 10.942920599132776 14.459136489778755 9.9381416141986829 14.463258586823939 15.244431331753736 17.124701648950577 8.3675745688378758 15.487483832985161
leaf_count=29 22 5 29 19 21 39 15 32 10 37 34 33 18 25
internal_value=-9.80719e-08 21.3017 14.2336 -144.054 -30.0646 28.4393 -2.99696 15.9157 41.6561 20.6096 17.1124 44.2687 22.4044 48.0973
internal_weight=200.912 175.03 163.59 25.8823 39.7222 123.867 26.5657 63.6013 60.266 49.1422 38.0753 50.3279 23.612 33.2032
internal_count=368 320 315 48 65 250 44 143 107 111 89 97 52 64
is_linear=0
shrinkage=0.1


Tree=6
num_leaves=17
num_cat=0
split_feature=23 38 2 55 69 23 23 26 78 23 4 34 44 14 66 31
split_gain=4.99378e+07 1.05442e+07 8.71723e+06 5.07273e+06 4.82438e+06 1.94415e+06 1.1338e+06 632775 314753 219562 174627 131123 124536 114560 64867.2 53860.4
threshold=-1066.4999999999998 -8.8499755859374982 1.0434460291707675 -252.74999999999997 -4.2000732421874991 745.00000000000011 198.50000000000003 -437.2582515723023 -12.600097656249998 -217.49999999999997 -5.9029416643094743 2.9499511718750004 33.350097656250007 -1.0000000180025095e-35 0.70222515603116742 -126.24975585937499
decision_type=8 8 10 8 10 10 10 2 2 10 10 8 10 8 8 2
left_child=3 -2 5 -1 -4 6 -3 -8 -9 -6 -7 15 -11 -12 -15 -10
right_child=1 2 4 -5 9 10 7 8 11 12 13 -13 -14 14 -16 -17
leaf_value=-164.50696387658479 117.47882312562928 -15.094837777536316 -106.00290704173722 -73.423483846191019 -28.096664517269922 47.539331347716136 39.437942634743877 1.0598509258745366 11.014939447426896 4.5993410989729631 29.339805138887023 27.850606310101707 -14.418931859483557 35.213592786190155 46.808481466175387 18.934186385987442
leaf_weight=15.976817421615122 10.270222838968037 11.71022156998515 7.6076004505157497 9.9054765626788157 6.188178710639483 14.383907388895748 11.984432086348532 13.871020313352338 16.035262867808331 6.5286885648965782 19.98095890879631 10.8690028078854 7.2852226495742798 11.520827248692514 8.3017183467745763 18.492329213768269
leaf_count=25 14 35 7 23 15 21 28 20 16 27 26 19 15 23 18 36
internal_value=-3.57043e-07 19.1716 13.0436 -129.648 -38.2225 23.364 13.7418 18.4811 14.2434 -12.4429 38.0959 18.2717 -5.43057 34.6833 40.0696 15.2563
internal_weight=200.912 175.03 164.759 25.8823 27.6097 137.15 82.9623 71.252 59.2676 20.0021 54.1874 45.3966 13.8139 39.8035 19.8225 34.5276
internal_count=368 320 306 48 64 242 154 119 91 57 88 71 42 67 41 52
is_linear=0
shrinkage=0.1


Tree=7
num_leaves=15
num_cat=0
split_feature=23 39 2 55 69 26 23 20 23 14 18 45 23 69
split_gain=4.04497e+07 9.57166e+06 6.88195e+06 4.11774e+06 3.96369e+06 1.52344e+06 842950 501447 317014 199725 199191 96808 76973.4 55917.9
threshold=-1066.4999999999998 -37.949707031249993 1.0434460291707675 -170.14996337890622 -4.2000732421874991 448.7394728522334 706.50000000000011 1699.1857504914085 403.00000000000006 -1.0000000180025095e-35 138.00000000000003 38.333496093750007 897.50000000000011 12.549987792968752
decision_type=8 10 10 8 10 2 10 10 8 8 10 10 10 10
left_child=3 -2 5 -1 -4 6 7 8 13 -8 -6 -10 -11 -3
right_child=1 2 4 -5 10 -7 9 -9 11 12 -12 -13 -14 -15
leaf_value=-147.52920230884965 110.40274372778866 -2.1870844154882412 -95.402616919225068 -65.105930399202222 -18.43726883674514 -12.734356169522796 26.320722241637295 33.312692551778248 23.606003840688071 32.933223428703677 2.0139789555756611 12.218597672770571 42.854425472889659 7.6791722524605674
leaf_weight=16.196181356906891 10.377500858157871 10.413831405341634 7.6076004505157497 9.6861126273870486 12.754151731729509 12.439771007746456 25.016604587435722 13.991617128252981 17.533590566366907 14.481836184859278 7.600494720041751 13.001311302185057 16.999946366995573 12.811337657272814
leaf_count=29 11 32 7 19 28 24 34 22 36 35 31 15 32 13
internal_value=-5.79398e-07 17.2544 11.3836 -116.683 -33.8181 20.6303 23.9708 16.4492 12.0603 32.9905 -10.8007 18.7574 38.2906 3.25528
internal_weight=200.912 175.03 164.652 25.8823 27.9622 136.69 124.25 67.7517 53.7601 56.4984 20.3546 30.5349 31.4818 23.2252
internal_count=368 320 309 48 66 243 219 118 96 101 59 51 67 45
is_linear=0
shrinkage=0.1


Tree=8
num_leaves=16
num_cat=0
split_feature=23 59 69 55 23 23 18 46 59 14 50 43 14 7 22
split_gain=3.27642e+07 8.60982e+06 4.66541e+06 3.34066e+06 2.51809e+06 695577 328041 234525 143715 140675 140161 138165 102337 57772.3 38635.3
threshold=-1066.4999999999998 689.50000000000011 -10.400024414062498 -252.74999999999997 198.50000000000003 596.50000000000011 -397.49999999999994 20.800048828125004 -514.99999999999989 17.500000000000004 2.5999908447265629 13.28336588541667 12.500000000000002 -0.59072711636002884 259.50000000000006
decision_type=8 2 8 8 10 10 8 10 2 8 8 8 8 10 10
left_child=3 2 -2 -1 6 10 -4 8 -7 -10 12 -9 -6 -8 -11
right_child=1 -3 4 -5 5 7 13 11 9 14 -12 -13 -14 -15 -16
leaf_value=-133.30333699006027 -56.479568222346565 94.341964629150823 -30.479759500227591 -59.3880097629185 10.07015764672691 36.974117999006729 -0.46222031957767884 23.73778588296792 20.238528110496578 25.147928052959003 4.8107371021410188 7.616105514840541 22.679349440503472 -11.971484780702344 35.594573559244871
leaf_weight=15.976817421615122 10.113678544759749 12.843973547220228 8.6477833874523622 9.9054765626788157 15.210491061210631 16.222653545439243 8.064611956477167 12.331535428762434 20.9198342114687 5.0347771681845179 23.713789045810699 9.3438713103532809 11.158565543591978 9.4978907816112059 11.926138434559105
leaf_count=25 18 8 23 23 22 12 22 34 27 20 36 8 26 29 35
internal_value=7.07404e-07 15.529 9.28753 -105.015 13.6614 19.5336 -14.5368 25.5772 29.0984 25.7256 10.3892 16.788 15.406 -6.68649 32.4935
internal_weight=200.912 175.03 162.186 25.8823 152.072 125.862 26.2103 75.7788 54.1034 37.8807 50.0828 21.6754 26.3691 17.5625 16.9609
internal_count=368 320 312 48 294 220 74 136 94 82 84 42 48 51 55
is_linear=0
shrinkage=0.1


Tree=9
num_leaves=14
num_cat=0
split_feature=64 40 23 66 3 19 23 76 6 28 32 52 50
split_gain=2.72514e+07 7.80396e+06 5.82606e+06 3.03946e+06 1.03184e+06 696096 511841 318739 239952 155020 107552 56404.7 51651.5
threshold=98.100036621093764 -31.249999999999996 -186.99999999999997 -1.0018332782727601 -3.9913024737752347 -1.0000000180025095e-35 725.50000000000011 -25.100006103515621 301003.00000000006 22.800048828125004 190.25012207031253 1.0000000180025095e-35 1.3999786376953127
decision_type=10 8 10 10 10 8 10 10 2 2 2 10 10
left_child=1 -1 5 -2 7 -3 8 -4 9 12 11 -9 -6
right_child=3 2 4 -5 6 -7 -8 10 -10 -11 -12 -13 -14
leaf_value=92.773702555524622 -146.14858668329416 -48.152380877890273 34.240533061577523 -71.40343694978624 14.955704883781699 -15.385794080812961 22.925052618427266 10.043837732508178 -9.1587321775952653 -2.1441534237549833 28.10616086288119 19.731140090564331 7.2535354026915586
leaf_weight=11.451281905174254 9.904983304440977 16.23758177831769 24.725934091955423 12.069851137697695 14.274630364030598 10.792943604290487 18.251452058553696 9.8650519624352473 11.507231891155241 13.909420143812893 10.216795213520525 15.382756020873783 22.321974474936724
leaf_count=6 12 33 35 31 32 25 34 23 20 34 25 25 33
internal_value=3.89566e-07 12.9064 7.44571 -105.094 15.6277 -35.0691 8.20535 25.5254 3.87312 6.84228 19.4492 15.946 10.2578
internal_weight=200.912 178.937 167.486 21.9748 140.455 27.0305 80.2647 60.1905 62.0133 50.506 35.4646 25.2478 36.5966
internal_count=368 325 319 43 261 58 153 108 119 99 73 48 65
is_linear=0
shrinkage=0.1


Tree=10
num_leaves=16
num_cat=0
split_feature=23 14 33 23 23 57 43 14 32 23 67 15 54 23 66
split_gain=2.20869e+07 7.4064e+06 4.23275e+06 2.56445e+06 751837 720426 259155 116994 96952.1 79437 44656.9 43670.9 27679.1 25034.6 23122.2
threshold=-1189.4999999999998 312.50000000000006 10.900024414062502 -98.499999999999986 596.50000000000011 6.8171881473850062 13.866699218750002 17.500000000000004 -320.64990234374994 1032.0000000000002 5.666666666666667 0.67088701876948875 172.51233468993459 684.50000000000011 -0.56267611516615235
decision_type=8 10 8 10 10 10 10 10 2 8 8 10 10 10 8
left_child=5 2 3 -2 8 -1 7 9 -5 11 12 13 14 -6 -10
right_child=1 -3 -4 4 6 -7 -8 -9 10 -11 -12 -13 -14 -15 -16
leaf_value=-76.704716922287929 -21.879470379795166 89.675220443134165 -53.923285965028654 -0.56507646196500849 20.515483733954255 -113.95477871180795 10.576031811385697 30.215216786179003 7.5680474190266231 29.759235908332659 15.423276167377697 24.24059795315037 11.570156280810673 13.649466645958055 0.77892637982213553
leaf_weight=9.4655864536762255 21.46180734410882 11.304809287190436 10.995448239147661 14.934841901063917 8.944851581007244 11.499836325645445 17.248343776911497 22.389295488595963 14.447725884616373 8.6508071646094304 8.2607823647558671 10.645142581313847 9.9079707711935026 13.069791924208401 7.6848468631505993
leaf_count=32 35 13 29 22 16 10 19 29 26 13 22 27 12 35 28
internal_value=2.83595e-07 11.3173 6.06467 10.2487 15.3119 -97.1369 21.4496 24.3939 6.31711 21.2389 8.8675 18.982 7.17727 16.4392 5.21074
internal_weight=200.912 179.946 168.642 157.646 136.184 20.9654 80.9482 63.6999 55.2362 41.3106 40.3013 32.6598 32.0405 22.0146 22.1326
internal_count=368 326 313 284 249 42 139 120 110 91 88 78 66 51 54
is_linear=0
shrinkage=0.1


Tree=11
num_leaves=15
num_cat=0
split_feature=64 7 23 69 23 18 18 3 61 12 23 26 57 77
split_gain=1.86058e+07 6.80655e+06 3.77199e+06 2.41638e+06 654411 424669 339902 153303 151673 145502 64058.9 56189 50883.6 36256.7
threshold=98.100036621093764 8.4576573773353321 -186.99999999999997 -12.449951171874998 346.00000000000006 -1813.4999999999998 138.00000000000003 1.444005491539913 8.7598039731513371 165.50000000000003 588.50000000000011 -367.86614837049825 6.1403835082567042 10.353321388742023
decision_type=10 8 10 8 10 8 10 8 10 8 10 2 10 10
left_child=1 2 5 -2 9 -1 7 10 13 -4 -6 -12 -11 -8
right_child=3 -3 4 -5 6 -7 8 -9 -10 12 11 -13 -14 -15
leaf_value=-40.060418511722688 -122.62171321286552 99.129627498280314 -5.9053728246981443 -56.108516370308507 9.1335361606331968 -13.028854416010191 19.482655243169106 -0.69573657399861943 26.052011836156165 12.841534752158779 22.623516242024618 13.189274741275861 1.846228359719694 10.557192213010266
leaf_weight=15.305897522717713 10.152393132448195 8.2940979413688165 17.63996833562851 11.822441309690477 21.628760527819395 9.3694145344197768 8.5804444327950495 9.392960309982298 33.882560096681118 8.0373735725879687 9.5139691978692991 18.763811729848388 8.8358058929443342 9.6919894143939
leaf_count=30 7 8 32 36 33 25 20 6 37 35 32 39 6 22
internal_value=-3.20352e-07 10.6643 6.36447 -86.8377 12.4773 -29.7963 16.2033 11.0243 22.0918 0.44489 13.2301 16.3634 7.08373 14.7484
internal_weight=200.912 178.937 170.643 21.9748 145.968 24.6753 111.454 59.2995 52.155 34.5131 49.9065 28.2778 16.8732 18.2724
internal_count=368 325 317 43 262 55 189 110 79 73 104 71 41 42
is_linear=0
shrinkage=0.1


Tree=12
num_leaves=15
num_cat=0
split_feature=64 35 23 31 23 59 43 61 14 56 4 12 71 78
split_gain=1.50707e+07 5.65569e+06 3.00161e+06 2.1454e+06 584873 330630 183986 147798 92136.8 89281.5 57241 51921.4 43228.6 19205.4
threshold=98.100036621093764 10.199996948242189 -186.99999999999997 34.499755859375007 596.50000000000011 -333.49999999999994 13.866699218750002 7.0032347321367974 -1.0000000180025095e-35 84.500000000000014 -2.3555149234754071 160.50000000000003 -0.26034983678946272 9.9001464843750018
decision_type=10 8 10 2 10 2 10 10 8 10 8 8 8 2
left_child=1 2 5 -2 7 -1 8 -4 10 13 -6 -9 -13 -10
right_child=3 -3 4 -5 6 -7 -8 11 9 -11 -12 12 -14 -15
leaf_value=-11.885117256271245 -46.742056218845349 84.122820311960552 -6.697314645454056 -109.23441710705602 19.178132608714204 -35.940265171973714 7.0237247929275703 1.7948783966204314 22.170560029139054 31.129970548935297 11.05141665519219 5.1436179015558965 12.399021507538492 16.001609138466296
leaf_weight=9.0808924324810523 10.929162018001081 9.6348463930189592 11.275695718824862 11.045672424137591 18.715188845992088 15.409932922571896 16.367947217077017 19.35716471076012 10.793653532862669 9.277757488191126 16.143226072192192 18.853329863399267 14.549235824495552 9.478182487189768
leaf_count=17 23 37 37 20 21 33 16 34 25 12 22 23 21 27
internal_value=-1.0758e-07 9.5979 5.35674 -78.1539 10.8325 -27.0209 16.491 3.69479 18.8969 23.0048 15.4146 5.91577 8.30387 19.2862
internal_weight=200.912 178.937 169.302 21.9748 144.811 24.4908 80.776 64.0354 64.408 29.5496 34.8584 52.7597 33.4026 20.2718
internal_count=368 325 288 43 238 50 123 115 107 64 43 78 44 52
is_linear=0
shrinkage=0.1


Tree=13
num_leaves=14
num_cat=0
split_feature=22 35 7 12 3 31 18 3 6 22 36 54 4
split_gain=1.27095e+07 7.03546e+06 1.05058e+07 2.71e+06 2.38336e+06 650579 288340 121109 91066.7 72418.2 56656.7 54287.7 21724.4
threshold=-750.49999999999989 9.3999938964843768 0.73979097647080783 -163.49999999999997 -0.41219141311394314 78.700195312500014 207.00000000000003 6.5823990241276373 -237766.94999999992 712.50000000000011 -0.54999923706054676 169.48113073614522 -7.9537720187977223
decision_type=8 8 8 8 10 2 10 8 2 8 2 10 10
left_child=4 3 -3 -2 -1 6 8 10 -5 12 -8 -10 -7
right_child=1 2 -4 5 -6 9 7 -9 11 -11 -12 -13 -14
leaf_value=-28.514904167642939 -39.365276151237545 16.21404254648888 256.02136837751556 15.528355869144699 -81.392289258713944 -2.5926661242761302 27.235837915155106 11.440259120057597 2.7919069011815001 3.3427382522184086 19.208086910701141 9.8098209325509167 -9.6091812378830852
leaf_weight=16.634499158710241 11.774015709757803 5.0163645483553401 2.8732195496559143 19.309963211417198 17.483124375343323 7.7485787756741074 15.908347543328999 12.751902785152195 16.705301687121391 12.401805840432646 19.651754140853882 32.403126273304224 10.249884352087973
leaf_count=25 15 31 10 36 36 15 27 29 39 18 23 39 25
internal_value=-1.84353e-07 11.3752 103.547 6.79893 -55.6112 10.4932 13.8867 19.8012 9.71026 -2.53703 22.7994 7.42252 -6.58848
internal_weight=200.912 166.794 7.88958 158.905 34.1176 147.131 116.73 48.312 68.4184 30.4003 35.5601 49.1084 17.9985
internal_count=368 307 41 266 61 251 193 79 114 58 50 78 40
is_linear=0
shrinkage=0.1


Tree=14
num_leaves=16
num_cat=0
split_feature=22 16 12 3 20 23 18 6 46 32 2 50 8 40 14
split_gain=1.02989e+07 5.30874e+06 3.12143e+06 1.94701e+06 520784 174591 164913 107877 94524.6 55702 74923.3 53607.8 46523.6 34297.1 27481.7
threshold=-750.49999999999989 -7.1236449819248078 -106.49999999999999 -0.41219141311394314 1056.5933601314493 125.00000000000001 207.00000000000003 -87960.274999999892 1.5500488281250002 167.19995117187503 -0.62943340581580409 0.69998168945312511 0.1615 -1.2499999999999998 27.500000000000004
decision_type=10 10 8 10 10 10 10 2 8 2 8 8 8 10 10
left_child=3 -2 -3 -1 5 14 8 9 -6 10 -8 -10 13 -7 -4
right_child=1 2 4 -5 6 12 7 -9 11 -11 -12 -13 -14 -15 -16
leaf_value=-25.612329535295789 85.547857783491253 -46.323160728516704 -1.9558047063006538 -73.253060693952136 16.984835255726747 12.194418197683817 31.213443826747366 11.104750389189984 10.497720400373757 17.311488669176828 18.317157904799839 1.5677726322613323 0.39078512337856419 5.0911866702502699 -9.4436883491825707
leaf_weight=16.842849519103765 8.8710928745567781 10.616381362080572 11.211930159479381 17.483124375343323 12.132476620376108 13.071302492171526 9.5711498185992223 14.895904447883366 14.510624833405018 18.242466121912003 8.5107444562017935 12.525128524750471 9.5560537464916688 14.162134535610676 8.7085240632295591
leaf_count=31 9 17 30 36 38 19 22 28 24 19 18 21 18 25 13
internal_value=-2.63147e-08 10.2774 6.04366 -49.877 9.82307 2.31114 14.5361 18.2713 9.65153 21.2102 25.1434 6.36065 6.39404 8.50054 -5.22924
internal_weight=200.912 166.586 157.715 34.326 147.098 56.7099 90.3885 51.2203 39.1682 36.3244 18.0819 27.0358 36.7895 27.2334 19.9205
internal_count=368 301 292 67 275 105 170 87 83 59 40 45 62 44 43
is_linear=0
shrinkage=0.1


Tree=15
num_leaves=15
num_cat=0
split_feature=64 47 23 26 23 19 3 43 38 57 6 66 63 33
split_gain=8.65193e+06 4.1686e+06 1.72046e+06 1.65315e+06 270575 174727 135317 86813.1 62222.1 54070 59136.3 55278.1 24367.7 20646
threshold=98.100036621093764 -77.349975585937486 -186.99999999999997 546.71949107646822 596.50000000000011 -46.128333333333323 -5.6214205323161126 13.866699218750002 15.749877929687502 4.5644466947701554 -268703.84999999992 0.96506137257147173 -1.5500488281249998 2.0000610351562504
decision_type=10 10 10 2 10 10 8 10 10 10 2 8 8 8
left_child=1 -1 5 -2 6 -3 -4 9 12 10 -6 -12 -8 -14
right_child=3 2 4 -5 7 -7 8 -9 -10 -11 11 -13 13 -15
leaf_value=72.471456379037576 -31.890691000039187 -30.198874645213564 12.55929523838215 -86.746923001040983 16.553804648327013 -13.413658781086733 5.6348069669712917 5.4720399971106604 -4.6794910774211296 15.980116403734085 10.593006201059769 -2.0308818731237834 3.5613747828287914 -3.0248613562355224
leaf_weight=9.2967946007847768 11.028499834239485 10.046090807765724 12.525092855095862 10.946334607899187 8.5893508791923505 16.205600462853909 18.920710291713476 16.367947217077017 14.138282559812067 38.38260580599308 9.9230852574110049 5.3328347317874423 10.509612541645767 8.6990454979240877
leaf_count=17 19 21 22 24 31 28 39 16 16 38 33 17 33 14
internal_value=1.22488e-07 7.27221 3.69909 -59.2163 8.00811 -19.8371 3.22376 11.9522 0.986649 13.6567 9.91691 6.18022 3.08764 0.578659
internal_weight=200.912 178.937 169.64 21.9748 143.389 26.2517 64.7927 78.5958 52.2677 62.2279 23.8453 15.2559 38.1294 19.2087
internal_count=368 325 308 43 259 49 124 135 102 119 81 50 86 47
is_linear=0
shrinkage=0.1


Tree=16
num_leaves=14
num_cat=0
split_feature=65 13 26 23 41 18 35 27 55 27 20 74 14
split_gain=7.17491e+06 3.88636e+06 3.53823e+06 1.25454e+06 280940 165050 113349 67480.4 64224.9 66281 38791.5 27230.7 6180.52
threshold=36.100036621093757 -82.216627273661473 408.36028417655967 323.00000000000006 9.1499023437500018 207.00000000000003 -1.7000007629394529 -1.3999938964843748 19.999938964843754 -1.3999938964843748 536.18112638587286 -47.800048828124993 -32.499999999999993
decision_type=8 8 2 10 10 10 10 2 10 2 10 2 10
left_child=1 -1 -2 4 10 8 -7 -8 -5 -10 -3 -11 -13
right_child=2 3 -4 5 -6 6 7 -9 9 11 -12 12 -14
leaf_value=66.13019626666555 -6.6539693782105438 -8.6821867744690095 -71.501197645455193 0.7055920638802432 -20.808230741972448 5.119928131319571 20.792039086077935 12.568318251008138 3.2161796569643815 13.674537641568623 0.17061440482803658 9.6291678740130742 5.6725154388040959
leaf_weight=10.941242203116415 15.466879304498432 8.4200031161308306 18.451849520206451 15.991225227713583 17.255185466259718 11.782193690538405 18.145241163671017 22.167916394770145 18.468622464686629 15.899918001145123 12.009237591177223 8.6490055285394138 7.2633682787418463
leaf_count=21 37 13 34 17 35 22 35 24 34 23 29 32 12
internal_value=1.50816e-07 8.51679 -41.931 4.47735 -11.4133 9.53644 13.7481 16.2699 6.22569 7.98129 -3.47811 10.7477 7.82311
internal_weight=200.912 166.993 33.9187 156.052 37.6844 118.367 52.0954 40.3132 66.2721 50.2809 20.4292 31.8123 15.9124
internal_count=368 297 71 276 77 199 81 59 118 101 42 67 44
is_linear=0
shrinkage=0.1


Tree=17
num_leaves=17
num_cat=0
split_feature=6 53 65 22 67 2 59 27 23 7 53 49 77 51 39 40
split_gain=5.8654e+06 5.45396e+06 3.48197e+06 772665 410402 193544 136865 128712 107151 63151.9 39559.4 32780.2 31439.3 28010.6 15339.4 11069
threshold=160774.60000000012 -17.799957275390621 18.850036621093754 -750.49999999999989 12.433339436848959 -1.1158665242780099 597.00000000000011 -0.35003662109374994 588.50000000000011 1.7742131473716327 4.4499816894531259 8.1333821614583357 11.697470336769547 0.45001220703125006 -15.149902343749998 1.0000000180025095e-35
decision_type=2 10 10 10 8 10 2 2 10 8 10 8 10 10 8 8
left_child=1 -1 7 -3 -4 -5 8 -2 10 11 13 12 -10 -7 -13 -15
right_child=2 3 4 5 -6 6 -8 -9 9 -11 -12 14 -14 15 -16 -17
leaf_value=98.424925538623299 -13.295146694273782 -17.268042271985035 -46.863052357135267 21.025575133490889 -74.13725067897262 1.0641852554457198 14.606769102227586 0.83540166886069711 11.044324665352885 0.49312661370407068 -1.4583444103768068 10.104708016256625 4.2372628200318108 9.9680473596400052 15.706477304288951 4.3988172802185481
leaf_weight=6.6127883344888678 11.821446079760792 13.443532969802616 11.882958881556986 10.34435888007283 10.298368096351625 13.425303827971222 18.893954809755087 14.176460120826958 13.23861452192069 8.6317404061555845 20.294008456170559 9.7082173228263837 13.918602626770733 7.7887690477073175 9.8460095860063976 6.5867539830505848
leaf_count=10 21 21 32 19 8 25 22 25 24 21 31 12 27 18 29 23
internal_value=-1.68824e-08 9.59644 -30.4216 5.57642 -59.5259 7.89116 6.78051 -5.58987 5.35097 8.35134 1.89842 9.80345 7.55557 4.34878 12.9253 7.41627
internal_weight=200.912 152.733 48.1792 146.12 22.1813 132.676 122.332 25.9979 103.438 55.3432 48.0948 46.7114 27.1572 27.8008 19.5542 14.3755
internal_count=368 282 86 272 40 251 232 46 210 113 97 92 51 66 41 41
is_linear=0
shrinkage=0.1


Tree=18
num_leaves=16
num_cat=0
split_feature=6 3 65 22 16 20 18 22 43 1 14 49 34 66 19
split_gain=4.75097e+06 4.99691e+06 2.82039e+06 615935 372768 149805 157666 106027 66655.2 62151.7 53223.1 51378.2 32318.7 20954.9 11358.4
threshold=160774.60000000012 9.902429860400785 18.850036621093754 -750.49999999999989 -1.4113142104599659 1304.826401402054 207.00000000000003 562.00000000000011 9.8666178385416696 1.7999999999999974 -1.0000000180025095e-35 2.9666341145833335 -0.49993896484374994 -1.0000000180025095e-35 402.00000000000006
decision_type=2 8 10 10 8 10 10 10 10 2 10 10 10 10 8
left_child=1 3 7 -1 -4 8 9 -2 11 12 -8 -5 -7 -13 -11
right_child=2 -3 4 5 -6 6 10 -9 -10 14 -12 13 -14 -15 -16
leaf_value=-15.631729843538501 -12.216770723147299 90.618741938161548 -40.595791136218793 -3.9104846509268665 -66.52300960262906 5.69194897699004 9.7700961782745726 0.64454438439604278 9.3932057277805967 7.678191761700444 17.077551859038415 7.7023235262219645 -1.3056385206999275 1.2853298746203166 13.023983871749317
leaf_weight=13.582400780171154 11.472321502864363 7.089621450752019 11.078728090971707 16.001229993999004 11.102598886936905 12.829582601785658 18.045099679380655 14.525584697723387 10.550049800425766 9.3572158142924291 22.26495797932148 7.7730741538107404 13.593274943530561 14.736706264317036 6.9094413109123733
leaf_count=25 24 14 19 33 21 20 34 22 13 26 25 20 25 31 16
internal_value=-4.97526e-08 8.63679 -27.3794 4.64607 -53.5734 6.73164 9.32108 -5.03088 2.35092 5.08585 13.8063 0.42169 2.09203 3.50125 9.94888
internal_weight=200.912 152.733 48.1792 145.643 22.1813 132.061 82.9996 25.9979 49.0611 42.6895 40.3101 38.511 26.4229 22.5098 16.2667
internal_count=368 282 86 268 40 243 146 46 97 87 59 84 45 51 42
is_linear=0
shrinkage=0.1


Tree=19
num_leaves=16
num_cat=0
split_feature=39 3 22 32 20 18 38 4 60 1 16 69 11 44 68
split_gain=4.02343e+06 3.6471e+06 1.17168e+06 228417 225060 153128 78394.1 67846.7 48440.9 35054 28059 25229.4 14468.8 13678.4 7855.75
threshold=-37.949707031249993 12.684391422097567 -750.49999999999989 -389.64978027343744 1304.826401402054 376.00000000000006 19.049926757812504 -4.7382845972693008 -65.499999999999986 2.4500000000000033 0.147500693944878 8.6500244140625018 -0.0087390368214198873 32.399902343750007 3.4665252261969814
decision_type=10 10 10 2 10 10 8 10 2 2 10 10 2 10 10
left_child=-1 2 3 -2 6 7 8 10 -4 13 -6 14 -13 -9 -10
right_child=1 -3 4 -5 5 -7 -8 9 11 -11 -12 12 -14 -15 -16
leaf_value=60.636755866346789 -10.61025347798055 -41.598976752680166 7.1382626950068788 -31.30594261431013 15.15333432742452 16.907755406049127 -8.6142536283359963 3.9996838511337409 -5.0295270967897183 7.9182210399087865 7.5246718709458609 5.140650145722323 0.43110085645566543 -0.3891877098185666 -0.79114983672255079
leaf_weight=10.377500858157871 11.598326683044435 21.996650088578463 13.520043499767779 9.8722510337829572 9.1317201294004935 16.946526650339365 8.0904816538095456 15.205339159816505 7.6606218889355686 15.023760117590426 10.21459027379751 10.478960402309896 17.281478017568588 13.323429007083176 10.190208487212656
leaf_count=11 8 33 28 33 20 35 12 28 24 28 20 15 28 15 30
internal_value=3.62332e-08 -3.3026 1.69564 -20.1262 4.88145 8.47085 0.618008 6.19773 1.88119 4.00878 11.1255 0.32289 2.20885 1.95 -2.61003
internal_weight=200.912 190.534 168.538 21.4706 147.067 79.8454 67.2218 62.8988 59.1313 43.5525 19.3463 45.6113 27.7604 28.5288 17.8508
internal_count=368 357 324 41 283 146 137 111 125 71 40 97 43 43 54
is_linear=0
shrinkage=0.1


Tree=20
num_leaves=16
num_cat=0
split_feature=48 65 19 79 23 2 57 26 76 58 12 46 65 47 21
split_gain=3.31566e+06 2.81144e+06 1.5705e+06 655225 520617 145395 115331 101589 54710.3 49224.3 50721.7 36426.8 29246.9 12523 6430.61
threshold=-29.700073242187496 36.100036621093757 -527.49999999999989 9.3166503906250018 -63.999999999999993 -1.0862004886165975 4.7790327261692136 -284.05225424911072 -25.100006103515621 21.925830354237196 215.50000000000003 5.3499755859375009 4.9499511718750009 -2.7498779296874996 684.50000000000011
decision_type=8 8 8 2 10 10 10 2 10 10 8 10 8 10 10
left_child=-1 4 -3 -4 6 -6 -2 8 -7 10 12 -10 14 -12 -9
right_child=1 2 3 -5 5 7 -8 9 11 -11 13 -13 -14 -15 -16
leaf_value=53.916945651596905 -15.668976726255408 2.6462077500068388 -63.759398051023574 -29.296136411229021 15.818480190075196 11.998437152958608 -3.0274778295819451 -0.67789184709623473 10.385790151566731 6.3554759585670935 10.82944971984506 2.3581697167719233 -4.5948364084472741 3.2259074754935764 2.2365226810401331
leaf_weight=10.792921647429464 15.168065894395115 10.220173019915817 9.9673483446240443 12.3547006547451 11.703162085264919 18.696519531309605 13.767284154891966 15.231297612190255 8.2865629903972167 17.891469873487949 4.666194561868906 17.783282160758972 15.286634996533385 4.0427975915372354 15.053472831845282
leaf_count=21 39 25 23 22 24 24 11 20 26 15 17 32 22 27 20
internal_value=-1.47193e-07 -3.06083 -29.8201 -44.6848 2.46541 5.19148 -9.65422 4.12793 7.87036 1.8066 0.307232 4.90983 -1.0291 7.29981 0.770759
internal_weight=200.912 190.119 32.5422 22.322 157.577 128.641 28.9354 116.938 44.7664 72.1719 54.2804 26.0698 45.5714 8.70899 30.2848
internal_count=368 347 70 45 277 227 50 203 82 121 106 58 62 44 40
is_linear=0
shrinkage=0.1


Tree=21
num_leaves=15
num_cat=0
split_feature=38 3 23 20 12 35 55 73 1 50 62 10 3 70
split_gain=3.10164e+06 2.4512e+06 764186 177479 153616 98502.3 93279.8 56709.7 51025.2 47262.4 34654 27678.2 24511.5 18248.4
threshold=-8.8499755859374982 12.684391422097567 -750.49999999999989 937.01277940500597 178.50000000000003 3.6500091552734379 -24.900024414062496 92.150390625000014 -7.3500000000000005 -1.1000061035156248 20.956901821453993 -0.53241390564966351 -5.2409924139709814 -1.0754564985114186
decision_type=8 10 10 10 10 10 8 2 2 10 10 10 8 10
left_child=-1 2 4 7 -2 8 -7 10 -5 -10 13 -11 -8 -4
right_child=1 -3 3 5 -6 6 12 -9 9 11 -12 -13 -14 -15
leaf_value=53.531819920932406 -24.778139714484553 -34.376096309390554 2.0754759563173497 -0.44130085094715499 -7.998275348320802 23.106395595590094 12.17159278888114 4.9051815866665054 9.5833263254844319 6.8166261755274338 -7.2586514519153882 1.283912865507995 2.2959627382332255 -2.8760760119734923
leaf_weight=10.270222838968037 10.747123777866365 21.87912492826581 12.996205184608696 14.172276586294172 11.081182673573492 6.2685279287397861 5.4027353711426258 13.690152902156113 24.797361444681883 17.258072562515732 11.238497480750082 18.99267161637545 4.699341859668495 17.418390795588497
leaf_count=14 38 32 22 20 12 18 22 22 37 31 35 20 19 26
internal_value=1.45517e-08 -2.88386 1.19893 3.79258 -16.2598 6.49416 13.5238 -0.678438 4.96426 6.21916 -2.51361 3.9179 7.57759 -0.76027
internal_weight=200.912 190.642 168.763 146.934 21.8283 91.591 16.3706 55.3432 75.2204 61.0481 41.6531 36.2507 10.1021 30.4146
internal_count=368 354 322 272 50 167 59 105 108 88 83 51 41 48
is_linear=0
shrinkage=0.1


Tree=22
num_leaves=14
num_cat=0
split_feature=13 64 33 23 20 62 14 38 60 46 26 48 8
split_gain=2.92352e+06 1.92244e+06 882822 346869 104110 83943.2 48959.9 48787.9 41366 38053.2 27116.5 26600.2 18157
threshold=-88.25123152709358 95.100036621093764 7.7500000000000009 -750.49999999999989 1255.6144717910925 29.19352298672089 -1.0000000180025095e-35 16.250244140625004 -65.499999999999986 13.150024414062502 -284.05225424911072 1.7498779296875002 0.13545000000000004
decision_type=8 8 10 10 10 10 8 8 2 8 2 8 8
left_child=-1 3 -3 -2 5 7 10 8 -5 11 -6 -8 -10
right_child=1 2 -4 4 6 -7 9 -9 12 -11 -12 -13 -14
leaf_value=49.775907628627579 -12.462490513746182 -7.027405653557472 -47.787896963981758 8.3358291034140706 5.4030241507889203 -7.2070209348843592 7.3214308252526941 -4.9055612370847026 2.5135454867379003 2.0426215297143782 0.53158390000481748 14.257054477161043 -2.5787398322119874
leaf_weight=11.145070567727087 17.866635289043188 9.1053482368588465 12.7602546736598 10.081779848784207 20.023446083068848 14.913148485124109 16.597701847553257 10.396037191152571 24.282673005014665 8.99327454715967 26.614746510982513 8.2927366048097593 9.8390350602567107
leaf_count=21 33 32 19 17 24 33 38 11 36 25 33 15 31
internal_value=-2.6264e-07 -2.92336 -30.8143 0.708849 2.27734 -0.557805 4.72485 1.25834 2.70801 7.61778 2.62307 9.63217 1.04518
internal_weight=200.912 189.767 21.8656 167.901 150.035 69.5127 80.5219 54.5995 44.2035 33.8837 46.6382 24.8904 34.1217
internal_count=368 347 51 296 263 128 135 95 84 78 57 53 67
is_linear=0
shrinkage=0.1


Tree=23
num_leaves=15
num_cat=0
split_feature=39 3 18 20 12 18 7 26 75 40 40 46 3 16
split_gain=2.70896e+06 1.62462e+06 486610 133665 121729 92336.6 55941.8 34342.9 35160.4 32914.2 34623.5 14748.5 14097.9 13160.7
threshold=-37.949707031249993 12.684391422097567 -754.49999999999989 1304.826401402054 168.50000000000003 376.00000000000006 0.52597257343421588 -137.80592011515435 1.5833333333333335 -1.4999999999999998 20.799804687500004 11.050048828125002 0.5724280095464056 0.06556826731020983
decision_type=10 10 10 8 10 10 10 2 10 8 8 10 10 10
left_child=-1 2 4 6 -2 7 9 8 11 -4 12 13 -11 -5
right_child=1 -3 3 5 -6 -7 -8 -9 -10 10 -12 -13 -14 -15
leaf_value=49.75527030031985 -19.718997070364715 -28.269859341966391 4.2011123526735084 12.126629781043318 -5.9342940577537755 12.302759929466387 -6.6581834377551887 -0.67935273624299308 2.0485834895059511 -5.6961879962071933 4.1342677861584178 4.4410106442096051 -0.87255477650428359 6.5034634261362827
leaf_weight=10.377500858157871 11.350327946245672 21.996650088578463 20.201480526477098 8.5931304283440166 14.706649854779242 16.946526650339365 11.577998492866753 12.701683349907396 20.069023981690407 10.261525806039577 9.9111443758010811 9.3514218144118768 14.795070040971039 8.0717537365853769
leaf_count=11 32 33 37 23 14 35 34 25 20 33 9 22 22 18
internal_value=1.22822e-08 -2.70993 0.626013 2.92389 -11.9389 5.79932 -0.338673 3.92457 5.19347 0.98756 -0.868966 7.61945 -2.848 9.40301
internal_weight=200.912 190.534 168.538 142.481 26.057 75.7335 66.7472 58.787 46.0853 55.1692 34.9677 26.0163 25.0566 16.6649
internal_count=368 357 324 278 46 143 135 108 83 101 64 63 55 41
is_linear=0
shrinkage=0.1


Tree=24
num_leaves=14
num_cat=0
split_feature=35 47 23 19 67 35 27 66 60 6 45 68 2
split_gain=2.55486e+06 1.30001e+06 337061 166121 110064 55977.3 51118.3 42063.8 32589.9 36740.8 36661.1 27198.2 8653.27
threshold=10.199996948242189 -42.849975585937493 -63.999999999999993 -126.33333333333333 43.416676839192711 -2.1499786376953121 -0.35003662109374994 -0.032335445606704781 -136.99999999999997 -60887.1499999999 31.583333333333339 3.2765911071139677 -0.88199130527603276
decision_type=8 10 10 10 10 10 2 10 2 2 10 10 10
left_child=1 -1 3 -3 5 7 -6 -4 -7 10 12 -5 -10
right_child=-2 2 4 11 6 8 -8 -9 9 -11 -12 -13 -14
leaf_value=-23.189045373531894 50.244615676019791 -19.763664535120004 3.715693716656491 -0.0071067797253978231 14.550219841213517 7.1899277874215528 5.0231717351109983 -5.047461902148652 9.2177204990671413 -0.79104659618325623 0.9537324246472878 -6.8189167744648689 5.0800823201189953
leaf_weight=26.277514673769474 9.6348463930189592 9.1119910813868028 7.8912346810102489 10.262498494237663 10.326623428612949 14.965846464037893 12.388346344232557 17.908337652683258 9.1584120728075487 27.474277101457119 20.563671711832285 13.668697141110895 11.279590710997583
leaf_count=30 37 30 32 16 26 21 17 37 16 29 24 26 27
internal_value=-8.25189e-08 -2.53088 0.759101 -8.27296 3.02082 1.70387 9.35433 -2.3671 2.96258 2.03867 3.93479 -3.89778 6.93419
internal_weight=200.912 191.277 165 33.0432 131.956 109.241 22.715 25.7996 83.4418 68.476 41.0017 23.9312 20.438
internal_count=368 331 301 72 229 186 43 69 117 96 67 42 43
is_linear=0
shrinkage=0.1


Tree=25
num_leaves=14
num_cat=0
split_feature=31 26 23 64 22 12 8 71 75 61 56 43 34
split_gain=2.36761e+06 1.13354e+06 773370 124610 91217.2 54849.8 47439.9 42035 39087 38822.4 27600.2 18404.8 16647
threshold=-148.80004882812497 1114.1940158439927 -1226.4999999999998 83.450012207031264 -246.99999999999997 160.50000000000003 0.17645000000000002 -0.26034983678946272 -0.31666692097981763 7.1165153655509288 41.350036621093757 3.5833740234375004 -1.2000122070312498
decision_type=2 2 10 8 10 8 10 10 10 10 10 8 8
left_child=-1 2 -2 4 -4 6 9 8 -7 -6 12 -11 -9
right_child=1 -3 3 -5 5 7 -8 10 -10 11 -12 -13 -14
leaf_value=44.716600435380947 -20.422617651647059 -30.424182329653547 -5.5984182738043096 12.747947523060134 -4.5090648157447442 -1.7098489477295158 -6.7310676655896362 5.7285195888791947 4.6146353918480125 -0.1458077982505189 7.612739194234539 6.0278820403846893 0.63030902526116683
leaf_weight=11.181606717407702 17.520509574562311 13.624871611595152 18.343273404985666 9.619934566318987 8.9009665250778287 23.822280734777451 11.053995758295057 11.680032953619955 16.568388696759939 8.3134710192680341 24.581551812589169 11.520311743021013 14.180692832916977
leaf_count=22 35 25 28 24 23 34 19 25 33 18 36 23 23
internal_value=5.43538e-08 -2.63534 -0.485379 1.71729 1.00495 1.93226 -1.16388 3.28851 0.884476 0.977767 5.21349 3.44014 2.93292
internal_weight=200.912 189.73 176.105 158.585 148.965 130.622 39.7887 90.8329 40.3907 28.7347 50.4423 19.8338 25.8607
internal_count=368 346 321 286 262 234 83 151 67 64 84 41 48
is_linear=0
shrinkage=0.1


Tree=26
num_leaves=14
num_cat=0
split_feature=42 7 30 67 2 22 6 56 27 68 50 73 36
split_gain=2.1537e+06 1.00795e+06 614863 114875 70864.7 52399.5 40234.5 35007.1 31302 30213 16312.9 13485.4 13268.7
threshold=-2.6166992187499996 2.8772105918693893 153.19970703125003 -0.46666463216145831 -1.1292838079703482 672.50000000000011 -76291.699999999939 -44.249999999999993 -8.3500061035156232 3.7723492466848003 -0.24999999999999997 -8.5500488281249982 0.54999923706054699
decision_type=8 8 2 10 10 10 2 8 2 8 10 2 2
left_child=-1 2 3 5 -5 9 11 -6 -9 -2 -10 -7 -12
right_child=1 -3 -4 4 7 6 -8 8 10 -11 12 -13 -14
leaf_value=43.126450637220586 -0.95122669209534472 -33.017533661113319 -18.514935264167594 12.181700854426175 -0.9792471564202323 5.4404726198117093 -3.2952587584679445 0.054680021822052921 7.7530607892968808 -8.0126393469454218 2.1382557826131658 0.85464370114856225 6.4885765983039541
leaf_weight=10.94868367910385 9.6117621809244174 10.230321180075405 17.573433507233858 8.5875722616910917 20.210614312440157 10.906163655221464 18.91251952201128 16.320958793163292 15.819639198482028 16.393274407833815 18.570256054401415 15.563144687563179 11.263544511049984
leaf_count=20 22 35 32 14 34 10 24 29 30 33 38 31 16
internal_value=-1.78062e-07 -2.48563 -0.747765 1.17769 3.53802 -1.82362 0.227271 2.63484 3.81344 -5.40266 5.15718 2.74415 3.78069
internal_weight=200.912 189.963 179.733 162.159 90.7726 71.3869 45.3818 82.185 61.9744 26.005 45.6534 26.4693 29.8338
internal_count=368 348 313 281 161 120 65 147 113 55 84 41 54
is_linear=0
shrinkage=0.1


Tree=27
num_leaves=15
num_cat=0
split_feature=14 69 23 64 38 5 53 31 39 33 7 10 65 75
split_gain=2.05519e+06 1.06637e+06 524711 117774 104371 49748.1 39458.4 36610.8 33319.9 28704.1 23638.9 16442.3 14492.7 12448.1
threshold=312.50000000000006 -16.499999999999996 -2645.9999999999995 86.099975585937514 16.250244140625004 444632.15234980534 6.6499938964843759 -111.75048828124999 -1.9002685546874998 -2.2000122070312496 -0.039337431671222785 0.38070092990267218 17.099945068359379 -0.28333346048990882
decision_type=10 10 10 8 10 10 10 2 10 10 10 8 8 8
left_child=1 -1 -3 4 5 6 7 11 -7 -9 12 -4 13 -11
right_child=-2 2 3 -5 -6 8 -8 9 -10 10 -12 -13 -14 -15
leaf_value=-33.252860610188215 40.484724852690562 -21.205089014042514 1.5263562156916848 12.33274083612126 -5.6107651398132727 1.1411477619040342 -2.9606034763807019 6.479675209335487 -9.4637030367857076 2.7261447923811395 -1.0343019217315548 -3.8661699567937506 0.51855831850052647 6.670216484580985
leaf_weight=10.658516094088553 11.802559420466421 11.654779449105261 12.15052275359629 8.3286255449056608 26.373787008225918 5.2483729049563408 14.691771790385245 23.796162459999309 6.803192909806965 16.464536711573601 15.187983036041301 10.575805190950634 11.605617810040696 15.56965486705303
leaf_count=15 14 26 19 29 39 17 21 38 25 26 31 23 13 32
internal_value=-9.7523e-08 -2.5267 -0.691492 0.741885 0.1327 1.27944 1.89434 2.57139 -4.84536 3.54907 2.36363 -0.983082 3.54621 4.64309
internal_weight=200.912 189.109 178.451 166.796 158.467 132.094 120.042 105.35 12.0516 82.624 58.8278 22.7263 43.6398 32.0342
internal_count=368 354 339 313 284 245 203 182 42 140 102 42 71 58
is_linear=0
shrinkage=0.1


Tree=28
num_leaves=15
num_cat=0
split_feature=48 8 30 67 25 2 42 71 10 58 18 43 9 1
split_gain=1.91536e+06 875604 375994 83870.9 61859.3 55525.5 35957.4 28428.7 29635.5 27624.9 20987.5 21471.5 15797.6 14218.3
threshold=-29.700073242187496 -0.42569999999999991 153.19970703125003 -0.46666463216145831 1310.4742131267792 -1.1158665242780099 5.6665852864583339 -0.17065114045008972 0.44735497101278487 16.573180814039485 -486.49999999999994 6.0500488281250009 0.0046630438529348161 -3.9500000000000024
decision_type=8 8 2 10 2 10 8 8 10 10 8 10 8 2
left_child=-1 -2 3 4 9 -5 -6 8 12 -3 -9 -12 -7 -8
right_child=1 2 -4 5 6 7 13 10 -10 -11 11 -13 -14 -15
leaf_value=40.979417499425871 -27.546395406377805 3.009222197095454 -15.046092704884202 9.8146834452190568 -1.3641143399392248 3.8063526751177386 -6.1883618695168412 0.78955568688616551 -3.6773875509554381 -2.1381130175401406 10.229243297624571 3.8385126477954268 -0.72798263289764742 -12.566298966312628
leaf_weight=10.792921647429464 12.836792677640913 22.370019126683474 16.151576936244965 10.295527979731558 10.978039249777792 18.963145829737186 7.9702954143285751 13.253880698233841 13.120455868542193 19.528470084071159 7.4097259491682079 18.098022788763046 12.917542908340694 6.2254707925021666
leaf_count=21 13 38 35 18 22 24 18 17 22 15 34 31 29 31
internal_value=4.95681e-08 -2.32637 -0.500221 0.957843 -1.7439 2.88444 -5.66182 2.03262 0.322829 0.6101 4.01763 5.69495 1.96911 -8.98537
internal_weight=200.912 190.119 177.282 161.131 67.0723 94.0583 25.1738 83.7628 45.0011 41.8985 38.7616 25.5077 31.8807 14.1958
internal_count=368 347 334 299 124 175 71 157 75 53 82 65 53 49
is_linear=0
shrinkage=0.1


Tree=29
num_leaves=16
num_cat=0
split_feature=52 7 23 67 0 2 48 33 71 59 47 44 1 2 75
split_gain=1.84813e+06 776321 262698 86894.4 44847.1 37153.6 31563.5 46840.8 31163.6 31983.1 24395.6 20359.9 17320.6 15898.1 14785.2
threshold=-12.299987792968748 2.8493747343401608 -1226.4999999999998 -0.46666463216145831 50.000000000000007 -1.1292838079703482 10.599975585937502 -1.6999511718749998 -0.21725911344185689 -385.49999999999994 5.3499755859375009 22.199707031250004 1.3000000000000009 -1.0356594110645525 -3.6333332061767574
decision_type=8 8 10 10 8 10 8 10 8 2 8 10 2 10 10
left_child=-1 2 12 4 6 -5 7 -4 9 14 -6 -10 -2 -13 -7
right_child=1 -3 3 5 10 8 -8 -9 11 -11 -12 13 -14 -15 -16
leaf_value=38.023924104488621 -9.6107893876595494 -29.063985709269179 0.87706004283145378 8.8203048788751701 -10.010857960761951 0.27690462866531357 2.6825124792477064 -6.0899235914744878 7.2959574229664286 2.6595383623589779 -1.4908819758776717 -1.0070288231723532 -15.975131002365197 3.9671290992850707 -5.0647470713898102
leaf_weight=12.017976179718969 8.9623163715004939 10.336568515747784 19.772219985723495 8.2274879366159421 9.9045799076557124 8.850603401660921 16.675419494509697 18.850430175662041 11.571533326059578 20.79469058662653 5.0867074280977258 9.5520626343786663 8.1782977879047376 19.630689118057497 12.500305101275442
leaf_count=17 30 32 20 13 37 7 17 28 24 34 13 12 12 39 33
internal_value=-1.37972e-07 -2.41919 -0.876742 0.373168 -2.26864 2.41088 -0.953455 -2.52329 1.77477 -0.131825 -7.11994 3.74645 -12.6474 2.33899 -2.85047
internal_weight=200.912 188.894 178.557 161.417 70.2894 91.1274 55.2981 38.6227 82.8999 42.1456 14.9913 40.7543 17.1406 29.1828 21.3509
internal_count=368 351 319 277 115 162 65 48 149 74 50 75 42 51 40
is_linear=0
shrinkage=0.1


Tree=30
num_leaves=15
num_cat=0
split_feature=13 26 23 67 57 41 15 55 1 15 69 77 51 14
split_gain=1.77843e+06 692582 287913 60791.8 40584.9 57142.3 37538.2 50150.8 29645.2 24653 25622.1 23235.7 19761 10695.2
threshold=-88.25123152709358 1491.886480160854 -1300.4999999999998 4.5333455403645848 4.4900736949629758 12.400024414062502 0.67088701876948875 162.24987792968753 1.3000000000000009 -0.43217589631127984 6.2999877929687509 10.467995796736826 3.2500000000000004 -22.499999999999996
decision_type=8 2 10 10 10 8 10 8 2 8 10 10 10 10
left_child=-1 2 8 4 5 12 9 -8 -2 -5 -11 -6 13 -4
right_child=1 -3 3 6 11 -7 7 -9 -10 10 -12 -13 -14 -15
leaf_value=38.822608186341284 -8.5136432641289179 -26.551602474812007 3.5126423871018804 3.7388939137285906 -1.0788785094970497 -11.71964736816037 11.596950973318654 0.95424029196142723 -16.590124349583082 2.4067096334023939 -3.6839468507769588 3.0169335657306071 -5.8158720167821985 -2.1392484205978803
leaf_weight=11.145070567727087 8.7774015851318854 11.07061070203781 6.7480864375829697 24.554041899740696 41.636760786175728 7.5701924040913573 9.7136349864304048 8.1363412886858004 9.424610421061514 13.918328054249288 13.711017057299612 20.755261331796646 7.1052785739302626 6.6452518552541786
leaf_count=21 31 13 26 36 39 27 37 9 10 25 25 18 36 15
internal_value=3.83651e-08 -2.28007 -0.776392 0.575378 -1.13706 -4.295 2.7873 6.74581 -12.6955 1.43325 -0.615769 0.28363 -1.55306 0.708395
internal_weight=200.912 189.767 178.696 160.494 90.4608 28.0688 70.0334 17.85 18.202 52.1834 27.6293 62.392 20.4986 13.3933
internal_count=368 347 334 293 161 104 132 46 41 86 50 57 77 41
is_linear=0
shrinkage=0.1


Tree=31
num_leaves=16
num_cat=0
split_feature=79 60 18 59 48 64 53 63 45 39 39 28 10 35 79
split_gain=1.73328e+06 713510 218534 89312.9 52486.4 49409.9 35921.3 27404 26657.7 20950.6 26922.3 22254 12693.4 7366.67 7123.88
threshold=-20.733398437499996 -313.99999999999994 -754.49999999999989 411.00000000000006 -25.550048828124996 65.049987792968764 6.3500061035156259 1.8500061035156252 7.8499348958333348 -22.949951171874996 4.4497070312500009 1.3999023437500002 0.64064597357376252 -0.44999694824218744 14.79996744791667
decision_type=2 2 10 2 10 8 10 10 10 10 10 2 10 10 2
left_child=-1 -2 3 7 -4 6 8 -3 -6 -10 12 -12 13 -11 -13
right_child=1 2 4 -5 5 -7 -8 -9 9 10 11 14 -14 -15 -16
leaf_value=38.339678890098547 -29.083824820434089 -16.215608587400308 -5.0684328025236809 -1.154021474677998 5.2417748427618438 8.2691604308893716 -3.3021714966017139 -8.9535999454351902 -3.9069207211942762 5.5254287521293985 -4.269976163330429 -1.1797521943420397 0.12193965729964723 2.4804732622544705 2.1837508258239193
leaf_weight=11.137915819883345 9.4175041317939741 9.1958530396223086 13.87289487570524 11.474423520267008 16.537840001285076 9.6943349391221982 17.79362228512764 11.947842523455618 8.3205680362880212 16.937839031219475 11.342830866575239 9.7471236884593981 10.73614079505205 14.965254444628963 17.789899952709675
leaf_count=25 14 30 26 13 25 23 28 21 13 26 18 23 14 39 30
internal_value=2.10901e-08 -2.25017 -0.849025 -8.2572 0.786574 1.39335 0.856536 -12.112 1.55216 0.872966 1.36084 -0.542289 3.09618 4.09709 0.993191
internal_weight=200.912 189.774 180.356 32.6181 147.738 133.865 124.171 21.1437 106.377 89.8397 81.5191 38.8799 42.6392 31.9031 27.537
internal_count=368 343 329 64 265 239 216 51 188 163 150 71 79 65 53
is_linear=0
shrinkage=0.1


end of trees

feature_importances:
nfp_nsa_mom_same_month_lag1y=51
CCNSA_monthly_avg_diff=14
NFP_Forecast_CONTINUUM_ECON_chg_6m=14
nfp_nsa_accel_lag6=14
CCNSA_max_spike_diff_zscore_3m_lag_1m=12
CCNSA_max_spike_pct_chg_rolling_mean_3m=12
total_private_services_leisure_hospitality_arts_amusements_nsa_chg_3m_lag_3m=12
total_private_services_professional_business_professional_technical_accounting_nsa_diff_zscore_3m_lag_3m=12
nfp_nsa_mom_lag6=11
rev_master_mean=11
CCSA_max_spike_pct_chg_rolling_mean_3m_lag_1m=10
NFP_Consensus_Mean=10
total_private_services_professional_business_professional_technical_computer_systems_nsa_lag_3m=10
nfp_nsa_accel_vol_3m=9
total_private_services_education_health_health_social_health_care_hospitals_nsa=8
total_private_services_education_health_health_social_health_care_hospitals_nsa_chg_3m=8
total_private_services_education_health_health_social_health_care_hospitals_nsa_rolling_mean_3m_lag_6m=8
total_private_services_professional_business_professional_technical_accounting_nsa_chg_6m_lag_1m=8
total_private_services_professional_business_professional_technical_accounting_nsa_rolling_mean_3m_lag_1m=8
CB_Consumer_Confidence_chg_3m_lag_3m=7
CCNSA_max_spike_pct_chg_rolling_mean_3m_lag_6m=7
total_private_goods_manufacturing_nondurable_apparel_nsa_chg_3m=7
total_private_services_education_health_health_social_health_care_hospitals_nsa_chg_6m=7
total_private_services_financial_finance_insurance_securities_nsa_lag_12m=7
total_private_services_professional_business_professional_technical_accounting_nsa_diff_lag_6m=7
SP500_max_5d_drop_chg_3m_lag_3m=6
total_private_services_education_health_health_social_social_assistance_nsa_diff_lag_12m=6
total_private_services_leisure_hospitality_nsa_chg_6m=6
nfp_nsa_accel_rolling_3m=5
nfp_nsa_mom_abs_lag1=5
total_government_federal_postal_nsa=5
total_government_local_excluding_education_nsa_diff_lag_1m=5
total_government_state_education_nsa_chg_3m_lag_6m=5
total_private_goods_manufacturing_durable_computer_electronic_nsa_chg_3m=5
total_private_services_financial_finance_insurance_credit_intermediation_nsa_chg_3m_lag_1m=5
total_private_services_leisure_hospitality_arts_amusements_nsa_diff_lag_3m=5
total_private_services_leisure_hospitality_arts_museums_nsa_rolling_std_6m_lag_3m=5
total_private_services_other_personal_nsa_rolling_std_6m=5
Financial_Stress_monthly_min_diff=4
ISM_NonManufacturing_Index_diff_zscore_3m_lag_6m=4
NFP_Consensus_Mean_pct_chg_lag_3m=4
NatGas_realized_vol_diff_zscore_3m_lag_12m=4
total_private_goods_manufacturing_durable_machinery_nsa_chg_3m_lag_3m=4
total_private_services_education_health_health_social_health_care_nsa=4
total_private_services_education_health_health_social_social_assistance_nsa_diff_lag_6m=4
total_private_services_financial_finance_insurance_securities_nsa_lag_3m=4
total_private_services_information_publishing_nsa_chg_3m_lag_1m=4
total_private_services_nsa_chg_12m=4
total_private_services_trade_transportation_utilities_retail_furniture_nsa_diff_zscore_3m_lag_6m=4
total_private_services_trade_transportation_utilities_transportation_warehousing_scenic_nsa_rolling_mean_3m_lag_12m=4
total_private_services_trade_transportation_utilities_transportation_warehousing_transit_nsa_chg_3m_lag_3m=4
total_government_local_excluding_education_nsa_chg_3m_lag_6m=3
total_private_services_education_health_health_social_health_care_hospitals_nsa_rolling_mean_3m=3
total_private_services_education_health_health_social_health_care_nsa_rolling_mean_3m=3
total_private_services_leisure_hospitality_accommodation_food_nsa_rolling_std_6m=3
total_private_services_professional_business_professional_technical_accounting_rolling_std_6m=3
total_private_services_trade_transportation_utilities_transportation_warehousing_nsa_diff_lag_3m=3
total_private_services_trade_transportation_utilities_transportation_warehousing_truck_nsa_rolling_std_6m=3
total_private_services_trade_transportation_utilities_wholesale_nsa_rolling_mean_3m=3
CCNSA_max_spike_rolling_std_6m_lag_1m=2
total_government_local_excluding_education_nsa_chg_3m_lag_12m=2
total_private_goods_mining_logging_logging_nsa_chg_3m_lag_3m=2
total_private_services_education_health_health_social_health_care_hospitals_nsa_diff=2
total_private_services_financial_finance_insurance_nsa_rolling_mean_3m_lag_3m=2
total_private_services_financial_real_estate_nsa_chg_12m_lag_1m=2
total_private_services_leisure_hospitality_arts_performing_nsa_rolling_std_6m=2
total_private_services_professional_business_admin_waste_rolling_std_6m=2
total_private_services_professional_business_professional_technical_accounting_nsa_chg_12m=2
total_private_services_trade_transportation_utilities_wholesale_nsa_lag_6m=2
ADP_actual_diff_lag_1m=1
Financial_Stress_monthly_min_diff_zscore_3m_lag_6m=1
JPY_USD_realized_vol_chg_3m_lag_1m=1
rev_master_abs_mean=1
total_private_services_trade_transportation_utilities_retail_building_materials_nsa_diff_zscore_3m_lag_6m=1
total_private_services_trade_transportation_utilities_retail_health_personal_nsa_rolling_mean_3m_lag_1m=1
total_private_services_trade_transportation_utilities_transportation_warehousing_nsa_lag_3m=1

parameters:
[boosting: gbdt]
[objective: regression]
[metric: l2]
[tree_learner: serial]
[device_type: cpu]
[data_sample_strategy: bagging]
[data: ]
[valid: ]
[num_iterations: 1000]
[learning_rate: 0.1]
[num_leaves: 31]
[num_threads: 0]
[seed: 0]
[deterministic: 0]
[force_col_wise: 0]
[force_row_wise: 0]
[histogram_pool_size: -1]
[max_depth: -1]
[min_data_in_leaf: 20]
[min_sum_hessian_in_leaf: 0.001]
[bagging_fraction: 1]
[pos_bagging_fraction: 1]
[neg_bagging_fraction: 1]
[bagging_freq: 0]
[bagging_seed: 3]
[bagging_by_query: 0]
[feature_fraction: 1]
[feature_fraction_bynode: 1]
[feature_fraction_seed: 2]
[extra_trees: 0]
[extra_seed: 6]
[early_stopping_round: 0]
[early_stopping_min_delta: 0]
[first_metric_only: 0]
[max_delta_step: 0]
[lambda_l1: 0]
[lambda_l2: 0]
[linear_lambda: 0]
[min_gain_to_split: 0]
[drop_rate: 0.1]
[max_drop: 50]
[skip_drop: 0.5]
[xgboost_dart_mode: 0]
[uniform_drop: 0]
[drop_seed: 4]
[top_rate: 0.2]
[other_rate: 0.1]
[min_data_per_group: 100]
[max_cat_threshold: 32]
[cat_l2: 10]
[cat_smooth: 10]
[max_cat_to_onehot: 4]
[top_k: 20]
[monotone_constraints: ]
[monotone_constraints_method: basic]
[monotone_penalty: 0]
[feature_contri: ]
[forcedsplits_filename: ]
[refit_decay_rate: 0.9]
[cegb_tradeoff: 1]
[cegb_penalty_split: 0]
[cegb_penalty_feature_lazy: ]
[cegb_penalty_feature_coupled: ]
[path_smooth: 0]
[interaction_constraints: ]
[verbosity: 1]
[saved_feature_importance_type: 0]
[use_quantized_grad: 0]
[num_grad_quant_bins: 4]
[quant_train_renew_leaf: 0]
[stochastic_rounding: 1]
[linear_tree: 0]
[max_bin: 255]
[max_bin_by_feature: ]
[min_data_in_bin: 3]
[bin_construct_sample_cnt: 200000]
[data_random_seed: 1]
[is_enable_sparse: 1]
[enable_bundle: 1]
[use_missing: 1]
[zero_as_missing: 0]
[feature_pre_filter: 1]
[pre_partition: 0]
[two_round: 0]
[header: 0]
[label_column: ]
[weight_column: ]
[group_column: ]
[ignore_column: ]
[categorical_feature: ]
[forcedbins_filename: ]
[precise_float_parser: 0]
[parser_config_file: ]
[objective_seed: 5]
[num_class: 1]
[is_unbalance: 0]
[scale_pos_weight: 1]
[sigmoid: 1]
[boost_from_average: 1]
[reg_sqrt: 0]
[alpha: 0.9]
[fair_c: 1]
[poisson_max_delta_step: 0.7]
[tweedie_variance_power: 1.5]
[lambdarank_truncation_level: 30]
[lambdarank_norm: 1]
[label_gain: ]
[lambdarank_position_bias_regularization: 0]
[eval_at: ]
[multi_error_top_k: 1]
[auc_mu_weights: ]
[num_machines: 1]
[local_listen_port: 12400]
[time_out: 120]
[machine_list_filename: ]
[machines: ]
[gpu_platform_id: -1]
[gpu_device_id: -1]
[gpu_use_dp: 0]
[num_gpu: 1]

end of parameters

pandas_categorical:[]
